{"learner":{"attributes":{"best_iteration":"999","best_ntree_limit":"1000","scikit_learn":"{\"n_estimators\": 1000, \"objective\": \"reg:squarederror\", \"max_depth\": 3, \"max_leaves\": null, \"max_bin\": null, \"grow_policy\": null, \"learning_rate\": 0.1, \"verbosity\": null, \"booster\": null, \"tree_method\": null, \"gamma\": null, \"min_child_weight\": null, \"max_delta_step\": null, \"subsample\": null, \"sampling_method\": null, \"colsample_bytree\": null, \"colsample_bylevel\": null, \"colsample_bynode\": null, \"reg_alpha\": null, \"reg_lambda\": null, \"scale_pos_weight\": null, \"base_score\": null, \"missing\": NaN, \"num_parallel_tree\": null, \"random_state\": 42, \"n_jobs\": null, \"monotone_constraints\": null, \"interaction_constraints\": null, \"importance_type\": null, \"gpu_id\": null, \"validate_parameters\": null, \"predictor\": null, \"enable_categorical\": false, \"feature_types\": null, \"max_cat_to_onehot\": null, \"max_cat_threshold\": null, \"eval_metric\": null, \"early_stopping_rounds\": null, \"callbacks\": null, \"_estimator_type\": \"regressor\"}"},"feature_names":[],"feature_types":[],"gradient_booster":{"model":{"gbtree_model_param":{"num_parallel_tree":"1","num_trees":"1000","size_leaf_vector":"0"},"tree_info":[0,0,0,0,0,0,0,0,0,0,0,0,0,0,0,0,0,0,0,0,0,0,0,0,0,0,0,0,0,0,0,0,0,0,0,0,0,0,0,0,0,0,0,0,0,0,0,0,0,0,0,0,0,0,0,0,0,0,0,0,0,0,0,0,0,0,0,0,0,0,0,0,0,0,0,0,0,0,0,0,0,0,0,0,0,0,0,0,0,0,0,0,0,0,0,0,0,0,0,0,0,0,0,0,0,0,0,0,0,0,0,0,0,0,0,0,0,0,0,0,0,0,0,0,0,0,0,0,0,0,0,0,0,0,0,0,0,0,0,0,0,0,0,0,0,0,0,0,0,0,0,0,0,0,0,0,0,0,0,0,0,0,0,0,0,0,0,0,0,0,0,0,0,0,0,0,0,0,0,0,0,0,0,0,0,0,0,0,0,0,0,0,0,0,0,0,0,0,0,0,0,0,0,0,0,0,0,0,0,0,0,0,0,0,0,0,0,0,0,0,0,0,0,0,0,0,0,0,0,0,0,0,0,0,0,0,0,0,0,0,0,0,0,0,0,0,0,0,0,0,0,0,0,0,0,0,0,0,0,0,0,0,0,0,0,0,0,0,0,0,0,0,0,0,0,0,0,0,0,0,0,0,0,0,0,0,0,0,0,0,0,0,0,0,0,0,0,0,0,0,0,0,0,0,0,0,0,0,0,0,0,0,0,0,0,0,0,0,0,0,0,0,0,0,0,0,0,0,0,0,0,0,0,0,0,0,0,0,0,0,0,0,0,0,0,0,0,0,0,0,0,0,0,0,0,0,0,0,0,0,0,0,0,0,0,0,0,0,0,0,0,0,0,0,0,0,0,0,0,0,0,0,0,0,0,0,0,0,0,0,0,0,0,0,0,0,0,0,0,0,0,0,0,0,0,0,0,0,0,0,0,0,0,0,0,0,0,0,0,0,0,0,0,0,0,0,0,0,0,0,0,0,0,0,0,0,0,0,0,0,0,0,0,0,0,0,0,0,0,0,0,0,0,0,0,0,0,0,0,0,0,0,0,0,0,0,0,0,0,0,0,0,0,0,0,0,0,0,0,0,0,0,0,0,0,0,0,0,0,0,0,0,0,0,0,0,0,0,0,0,0,0,0,0,0,0,0,0,0,0,0,0,0,0,0,0,0,0,0,0,0,0,0,0,0,0,0,0,0,0,0,0,0,0,0,0,0,0,0,0,0,0,0,0,0,0,0,0,0,0,0,0,0,0,0,0,0,0,0,0,0,0,0,0,0,0,0,0,0,0,0,0,0,0,0,0,0,0,0,0,0,0,0,0,0,0,0,0,0,0,0,0,0,0,0,0,0,0,0,0,0,0,0,0,0,0,0,0,0,0,0,0,0,0,0,0,0,0,0,0,0,0,0,0,0,0,0,0,0,0,0,0,0,0,0,0,0,0,0,0,0,0,0,0,0,0,0,0,0,0,0,0,0,0,0,0,0,0,0,0,0,0,0,0,0,0,0,0,0,0,0,0,0,0,0,0,0,0,0,0,0,0,0,0,0,0,0,0,0,0,0,0,0,0,0,0,0,0,0,0,0,0,0,0,0,0,0,0,0,0,0,0,0,0,0,0,0,0,0,0,0,0,0,0,0,0,0,0,0,0,0,0,0,0,0,0,0,0,0,0,0,0,0,0,0,0,0,0,0,0,0,0,0,0,0,0,0,0,0,0,0,0,0,0,0,0,0,0,0,0,0,0,0,0,0,0,0,0,0,0,0,0,0,0,0,0,0,0,0,0,0,0,0,0,0,0,0,0,0,0,0,0,0,0,0,0,0,0,0,0,0,0,0,0,0,0,0,0,0,0,0,0,0,0,0,0,0,0,0,0,0,0,0,0,0,0,0,0,0,0,0,0,0,0,0,0,0,0,0,0,0,0,0,0,0,0,0,0,0,0,0,0,0,0,0,0,0,0,0,0,0,0,0,0,0,0,0,0,0,0,0,0,0,0,0,0,0,0,0,0,0,0,0,0,0,0,0,0,0,0,0,0,0,0,0,0,0,0,0,0,0,0,0,0,0,0,0,0,0,0,0,0,0,0,0,0,0,0,0,0,0,0,0,0,0,0,0,0,0,0,0,0,0,0,0,0,0,0,0,0,0,0,0,0,0,0,0,0,0,0,0,0,0,0,0,0,0,0,0,0,0,0,0,0,0,0,0,0,0,0,0,0,0,0,0,0,0,0,0,0,0,0,0,0,0,0,0,0,0,0],"trees":[{"base_weights":[2.9796043E4],"categories":[],"categories_nodes":[],"categories_segments":[],"categories_sizes":[],"default_left":[0],"id":0,"left_children":[-1],"loss_changes":[0E0],"parents":[2147483647],"right_children":[-1],"split_conditions":[2.9796042E3],"split_indices":[0],"split_type":[0],"sum_hessian":[2.2E1],"tree_param":{"num_deleted":"0","num_feature":"10","num_nodes":"1","size_leaf_vector":"0"}},{"base_weights":[2.6945988E4],"categories":[],"categories_nodes":[],"categories_segments":[],"categories_sizes":[],"default_left":[0],"id":1,"left_children":[-1],"loss_changes":[0E0],"parents":[2147483647],"right_children":[-1],"split_conditions":[2.6945989E3],"split_indices":[0],"split_type":[0],"sum_hessian":[2.2E1],"tree_param":{"num_deleted":"0","num_feature":"10","num_nodes":"1","size_leaf_vector":"0"}},{"base_weights":[2.4368545E4],"categories":[],"categories_nodes":[],"categories_segments":[],"categories_sizes":[],"default_left":[0],"id":2,"left_children":[-1],"loss_changes":[0E0],"parents":[2147483647],"right_children":[-1],"split_conditions":[2.4368545E3],"split_indices":[0],"split_type":[0],"sum_hessian":[2.2E1],"tree_param":{"num_deleted":"0","num_feature":"10","num_nodes":"1","size_leaf_vector":"0"}},{"base_weights":[2.203764E4],"categories":[],"categories_nodes":[],"categories_segments":[],"categories_sizes":[],"default_left":[0],"id":3,"left_children":[-1],"loss_changes":[0E0],"parents":[2147483647],"right_children":[-1],"split_conditions":[2.2037642E3],"split_indices":[0],"split_type":[0],"sum_hessian":[2.2E1],"tree_param":{"num_deleted":"0","num_feature":"10","num_nodes":"1","size_leaf_vector":"0"}},{"base_weights":[1.9929691E4,2.0884443E4,1.0173508E4],"categories":[],"categories_nodes":[],"categories_segments":[],"categories_sizes":[],"default_left":[1,0,0],"id":4,"left_children":[1,-1,-1],"loss_changes":[1.770496E6,0E0,0E0],"parents":[2147483647,0,0],"right_children":[2,-1,-1],"split_conditions":[1.335812E0,2.0884443E3,1.01735077E3],"split_indices":[9,0,0],"split_type":[0,0,0],"sum_hessian":[2.2E1,1.9E1,3E0],"tree_param":{"num_deleted":"0","num_feature":"10","num_nodes":"3","size_leaf_vector":"0"}},{"base_weights":[1.8071758E4],"categories":[],"categories_nodes":[],"categories_segments":[],"categories_sizes":[],"default_left":[0],"id":5,"left_children":[-1],"loss_changes":[0E0],"parents":[2147483647],"right_children":[-1],"split_conditions":[1.8071758E3],"split_indices":[0],"split_type":[0],"sum_hessian":[2.2E1],"tree_param":{"num_deleted":"0","num_feature":"10","num_nodes":"1","size_leaf_vector":"0"}},{"base_weights":[1.6343154E4,1.7183605E4,8.0551133E3,1.7598055E4,4.654529E3],"categories":[],"categories_nodes":[],"categories_segments":[],"categories_sizes":[],"default_left":[1,1,0,0,0],"id":6,"left_children":[1,3,-1,-1,-1],"loss_changes":[2.1794816E7,2.1942784E7,0E0,0E0,0E0],"parents":[2147483647,0,0,1,1],"right_children":[2,4,-1,-1,-1],"split_conditions":[1.335812E0,1.4615066E0,8.0551135E2,1.7598055E3,4.6545288E2],"split_indices":[9,0,0,0,0],"split_type":[0,0,0,0,0],"sum_hessian":[2.2E1,1.9E1,3E0,1.8E1,1E0],"tree_param":{"num_deleted":"0","num_feature":"10","num_nodes":"5","size_leaf_vector":"0"}},{"base_weights":[1.4840611E4,1.5576507E4,7.4509795E3,1.593087E4,4.4218022E3],"categories":[],"categories_nodes":[],"categories_segments":[],"categories_sizes":[],"default_left":[1,1,0,0,0],"id":7,"left_children":[1,3,-1,-1,-1],"loss_changes":[9.013248E6,8.613376E6,0E0,0E0,0E0],"parents":[2147483647,0,0,1,1],"right_children":[2,4,-1,-1,-1],"split_conditions":[1.335812E0,1.4615066E0,7.4509796E2,1.593087E3,4.4218024E2],"split_indices":[9,0,0,0,0],"split_type":[0,0,0,0,0],"sum_hessian":[2.2E1,1.9E1,3E0,1.8E1,1E0],"tree_param":{"num_deleted":"0","num_feature":"10","num_nodes":"5","size_leaf_vector":"0"}},{"base_weights":[1.3477435E4,1.4120619E4,6.8921562E3],"categories":[],"categories_nodes":[],"categories_segments":[],"categories_sizes":[],"default_left":[1,0,0],"id":8,"left_children":[1,-1,-1],"loss_changes":[9.6E4,0E0,0E0],"parents":[2147483647,0,0],"right_children":[2,-1,-1],"split_conditions":[1.335812E0,1.4120619E3,6.8921564E2],"split_indices":[9,0,0],"split_type":[0,0,0],"sum_hessian":[2.2E1,1.9E1,3E0],"tree_param":{"num_deleted":"0","num_feature":"10","num_nodes":"3","size_leaf_vector":"0"}},{"base_weights":[1.2221051E4,1.24588545E4,3.4946807E3,1.3083886E4,6.3752446E3,9.716456E3,1.5745868E4],"categories":[],"categories_nodes":[],"categories_segments":[],"categories_sizes":[],"default_left":[1,1,0,1,0,0,0],"id":9,"left_children":[1,3,-1,5,-1,-1,-1],"loss_changes":[4.188928E6,2.4064E5,0E0,1.7322752E7,0E0,0E0,0E0],"parents":[2147483647,0,0,1,1,3,3],"right_children":[2,4,-1,6,-1,-1,-1],"split_conditions":[1.4615066E0,1.335812E0,3.4946808E2,-2.9965943E-1,6.375245E2,9.716456E2,1.5745868E3],"split_indices":[0,9,0,9,0,0,0],"split_type":[0,0,0,0,0,0,0],"sum_hessian":[2.2E1,2.1E1,1E0,1.8E1,3E0,1E1,8E0],"tree_param":{"num_deleted":"0","num_feature":"10","num_nodes":"7","size_leaf_vector":"0"}},{"base_weights":[1.1152564E4],"categories":[],"categories_nodes":[],"categories_segments":[],"categories_sizes":[],"default_left":[0],"id":10,"left_children":[-1],"loss_changes":[0E0],"parents":[2147483647],"right_children":[-1],"split_conditions":[1.1152565E3],"split_indices":[0],"split_type":[0],"sum_hessian":[2.2E1],"tree_param":{"num_deleted":"0","num_feature":"10","num_nodes":"1","size_leaf_vector":"0"}},{"base_weights":[1.0085798E4,1.0293123E4,2.7623184E3,1.0852951E4,5.0606587E3,1.5452584E4,8.59621E3],"categories":[],"categories_nodes":[],"categories_segments":[],"categories_sizes":[],"default_left":[1,1,0,1,0,0,0],"id":11,"left_children":[1,3,-1,5,-1,-1,-1],"loss_changes":[6.489344E6,9.521152E6,0E0,6.4389376E7,0E0,0E0,0E0],"parents":[2147483647,0,0,1,1,3,3],"right_children":[2,4,-1,6,-1,-1,-1],"split_conditions":[1.4615066E0,1.335812E0,2.7623184E2,-3.6799264E-1,5.060659E2,1.5452584E3,8.5962103E2],"split_indices":[0,9,0,7,0,0,0],"split_type":[0,0,0,0,0,0,0],"sum_hessian":[2.2E1,2.1E1,1E0,1.8E1,3E0,4E0,1.4E1],"tree_param":{"num_deleted":"0","num_feature":"10","num_nodes":"7","size_leaf_vector":"0"}},{"base_weights":[9.215791E3,9.396126E3,2.6242021E3,7.0834224E3,1.1064883E4,1.1525605E4,4.322072E3,1.2187891E3,1.1927613E4],"categories":[],"categories_nodes":[],"categories_segments":[],"categories_sizes":[],"default_left":[1,1,0,1,1,0,0,0,0],"id":12,"left_children":[1,3,-1,5,7,-1,-1,-1,-1],"loss_changes":[2.682752E6,6.528128E6,0E0,9.738259E7,7.890253E7,0E0,0E0,0E0,0E0],"parents":[2147483647,0,0,1,1,3,3,4,4],"right_children":[2,4,-1,6,8,-1,-1,-1,-1],"split_conditions":[1.4615066E0,6.981574E-2,2.6242023E2,-3.6799264E-1,-1.3926439E0,1.1525605E3,4.3220718E2,1.2187891E2,1.1927614E3],"split_indices":[0,0,0,7,9,0,0,0,0],"split_type":[0,0,0,0,0,0,0,0,0],"sum_hessian":[2.2E1,2.1E1,1E0,1.1E1,1E1,3E0,8E0,1E0,9E0],"tree_param":{"num_deleted":"0","num_feature":"10","num_nodes":"9","size_leaf_vector":"0"}},{"base_weights":[8.431683E3,8.899089E3,3.9867266E3,6.2755225E3,1.0895104E4,7.5068984E3,2.2438896E3,1.1594352E4,2.3009385E3],"categories":[],"categories_nodes":[],"categories_segments":[],"categories_sizes":[],"default_left":[1,1,0,1,1,0,0,0,0],"id":13,"left_children":[1,3,-1,5,7,-1,-1,-1,-1],"loss_changes":[1.2306688E7,3.636096E7,0E0,3.776435E7,3.3416576E7,0E0,0E0,0E0,0E0],"parents":[2147483647,0,0,1,1,3,3,4,4],"right_children":[2,4,-1,6,8,-1,-1,-1,-1],"split_conditions":[1.335812E0,-2.9965943E-1,3.9867267E2,-5.864717E-1,1.0698459E0,7.506899E2,2.2438896E2,1.1594352E3,2.3009386E2],"split_indices":[9,9,0,9,1,0,0,0,0],"split_type":[0,0,0,0,0,0,0,0,0],"sum_hessian":[2.2E1,1.9E1,3E0,1E1,9E0,7E0,3E0,8E0,1E0],"tree_param":{"num_deleted":"0","num_feature":"10","num_nodes":"9","size_leaf_vector":"0"}},{"base_weights":[7.7086567E3,2.9055312E3,8.027739E3,1.1190206E4,6.3400796E3,2.285123E3,1.2514198E4,2.9383079E3,9.3745625E3],"categories":[],"categories_nodes":[],"categories_segments":[],"categories_sizes":[],"default_left":[1,0,1,1,1,0,0,0,0],"id":14,"left_children":[1,-1,3,5,7,-1,-1,-1,-1],"loss_changes":[1.1924736E7,0E0,4.1133824E7,4.2145024E7,1.3761651E8,0E0,0E0,0E0,0E0],"parents":[2147483647,0,0,2,2,3,3,4,4],"right_children":[2,-1,4,6,8,-1,-1,-1,-1],"split_conditions":[-1.581661E0,2.9055313E2,-3.6799264E-1,-1.3606992E0,7.55677E-1,2.2851231E2,1.2514198E3,2.9383078E2,9.3745624E2],"split_indices":[1,0,7,0,1,0,0,0,0],"split_type":[0,0,0,0,0,0,0,0,0],"sum_hessian":[2.2E1,2E0,2E1,5E0,1.5E1,1E0,4E0,8E0,7E0],"tree_param":{"num_deleted":"0","num_feature":"10","num_nodes":"9","size_leaf_vector":"0"}},{"base_weights":[7.068303E3,7.46383E3,3.3235923E3,5.119854E3,9.29582E3,7.8962803E3,3.0916592E3,9.947098E3,1.7171631E3],"categories":[],"categories_nodes":[],"categories_segments":[],"categories_sizes":[],"default_left":[1,1,0,1,1,0,0,0,0],"id":15,"left_children":[1,3,-1,5,7,-1,-1,-1,-1],"loss_changes":[9.25952E6,3.8289536E7,0E0,3.7529824E7,3.2277312E7,0E0,0E0,0E0,0E0],"parents":[2147483647,0,0,1,1,3,3,4,4],"right_children":[2,4,-1,6,8,-1,-1,-1,-1],"split_conditions":[1.335812E0,-2.9965943E-1,3.3235922E2,-1.2391572E0,1.0698459E0,7.8962805E2,3.0916592E2,9.947098E2,1.7171631E2],"split_indices":[9,9,0,9,1,0,0,0,0],"split_type":[0,0,0,0,0,0,0,0,0],"sum_hessian":[2.2E1,1.9E1,3E0,1E1,9E0,3E0,7E0,8E0,1E0],"tree_param":{"num_deleted":"0","num_feature":"10","num_nodes":"9","size_leaf_vector":"0"}},{"base_weights":[6.474411E3,6.6531895E3,1.2706436E3,8.964801E3,5.226035E3,1.089542E4,2.758836E3,2.1204124E3,8.066606E3],"categories":[],"categories_nodes":[],"categories_segments":[],"categories_sizes":[],"default_left":[1,1,0,1,1,0,0,0,0],"id":16,"left_children":[1,3,-1,5,7,-1,-1,-1,-1],"loss_changes":[1.2943552E7,2.5728192E7,0E0,5.3810816E7,1.2404333E8,0E0,0E0,0E0,0E0],"parents":[2147483647,0,0,1,1,3,3,4,4],"right_children":[2,4,-1,6,8,-1,-1,-1,-1],"split_conditions":[1.4615066E0,-3.6799264E-1,1.27064354E2,7.425485E-1,7.55677E-1,1.089542E3,2.758836E2,2.1204124E2,8.066606E2],"split_indices":[0,7,0,9,1,0,0,0,0],"split_type":[0,0,0,0,0,0,0,0,0],"sum_hessian":[2.2E1,2.1E1,1E0,6E0,1.5E1,4E0,2E0,8E0,7E0],"tree_param":{"num_deleted":"0","num_feature":"10","num_nodes":"9","size_leaf_vector":"0"}},{"base_weights":[5.9361523E3,4.19328E3,6.9542637E3,6.776998E3,2.3772607E3,9.976062E3,4.5027915E3,8.946161E3,1.3475488E2,3.4852994E2,2.995416E3,1.1866521E4,1.2071113E3,6.2530273E2,5.5213164E3],"categories":[],"categories_nodes":[],"categories_segments":[],"categories_sizes":[],"default_left":[1,1,1,1,1,1,1,0,0,0,0,0,0,0,0],"id":17,"left_children":[1,3,5,7,9,11,13,-1,-1,-1,-1,-1,-1,-1,-1],"loss_changes":[1.165088E7,3.550221E7,5.1382016E7,5.642688E7,8.988576E6,6.85625E7,3.2091376E7,0E0,0E0,0E0,0E0,0E0,0E0,0E0,0E0],"parents":[2147483647,0,0,1,1,2,2,3,3,4,4,5,5,6,6],"right_children":[2,4,6,8,10,12,14,-1,-1,-1,-1,-1,-1,-1,-1],"split_conditions":[-2.9965943E-1,-1.2391572E0,1.0144046E-1,9.5605385E-1,-8.138842E-1,1.4615066E0,-8.980875E-1,8.9461615E2,1.3475489E1,3.4852993E1,2.995416E2,1.1866522E3,1.20711136E2,6.2530273E1,5.5213165E2],"split_indices":[9,9,9,0,0,0,0,0,0,0,0,0,0,0,0],"split_type":[0,0,0,0,0,0,0,0,0,0,0,0,0,0,0],"sum_hessian":[2.2E1,1E1,1.2E1,3E0,7E0,4E0,8E0,2E0,1E0,2E0,5E0,3E0,1E0,2E0,6E0],"tree_param":{"num_deleted":"0","num_feature":"10","num_nodes":"15","size_leaf_vector":"0"}},{"base_weights":[5.480125E3,1.910877E3,5.7290596E3,8.370405E3,4.3804883E3,1.8354805E3,9.310295E3,1.726481E3,6.8186855E3],"categories":[],"categories_nodes":[],"categories_segments":[],"categories_sizes":[],"default_left":[1,0,1,1,1,0,0,0,0],"id":18,"left_children":[1,-1,3,5,7,-1,-1,-1,-1],"loss_changes":[9.488128E6,0E0,3.813645E7,1.9763776E7,9.176355E7,0E0,0E0,0E0,0E0],"parents":[2147483647,0,0,2,2,3,3,4,4],"right_children":[2,-1,4,6,8,-1,-1,-1,-1],"split_conditions":[-1.581661E0,1.9108769E2,-3.6799264E-1,-1.3606992E0,7.55677E-1,1.8354805E2,9.310295E2,1.726481E2,6.818686E2],"split_indices":[1,0,7,0,1,0,0,0,0],"split_type":[0,0,0,0,0,0,0,0,0],"sum_hessian":[2.2E1,2E0,2E1,5E0,1.5E1,1E0,4E0,8E0,7E0],"tree_param":{"num_deleted":"0","num_feature":"10","num_nodes":"9","size_leaf_vector":"0"}},{"base_weights":[5.026033E3,3.4531865E3,5.9702856E3,5.879935E3,1.8081641E3,8.286951E3,3.4865007E3,7.8121177E3,4.169336E1,-2.4392871E2,2.1361672E3,9.523856E3,1.0512119E3,8.1670605E2,4.925036E3],"categories":[],"categories_nodes":[],"categories_segments":[],"categories_sizes":[],"default_left":[1,1,1,1,1,1,1,0,0,0,0,0,0,0,0],"id":19,"left_children":[1,3,5,7,9,11,13,-1,-1,-1,-1,-1,-1,-1,-1],"loss_changes":[1.3542272E7,3.3280728E7,4.591085E7,4.479648E7,5.905814E6,4.3687936E7,2.6702448E7,0E0,0E0,0E0,0E0,0E0,0E0,0E0,0E0],"parents":[2147483647,0,0,1,1,2,2,3,3,4,4,5,5,6,6],"right_children":[2,4,6,8,10,12,14,-1,-1,-1,-1,-1,-1,-1,-1],"split_conditions":[-2.9965943E-1,-1.2391572E0,3.684091E-1,9.5605385E-1,-1.0473936E0,1.4615066E0,9.7721684E-1,7.812118E2,4.169336E0,-2.4392872E1,2.1361673E2,9.523857E2,1.0512119E2,8.167061E1,4.9250363E2],"split_indices":[9,9,9,0,9,0,9,0,0,0,0,0,0,0,0],"split_type":[0,0,0,0,0,0,0,0,0,0,0,0,0,0,0],"sum_hessian":[2.2E1,1E1,1.2E1,3E0,7E0,5E0,7E0,2E0,1E0,1E0,6E0,4E0,1E0,3E0,4E0],"tree_param":{"num_deleted":"0","num_feature":"10","num_nodes":"15","size_leaf_vector":"0"}},{"base_weights":[4.6367466E3,4.970356E3,1.8095137E3,3.1964683E3,6.424597E3,5.488287E3,1.6510002E3,7.0117437E3,5.7013965E2],"categories":[],"categories_nodes":[],"categories_segments":[],"categories_sizes":[],"default_left":[1,1,0,1,1,0,0,0,0],"id":20,"left_children":[1,3,-1,5,7,-1,-1,-1,-1],"loss_changes":[1.2699488E7,3.1057184E7,0E0,2.9900096E7,3.0376544E7,0E0,0E0,0E0,0E0],"parents":[2147483647,0,0,1,1,3,3,4,4],"right_children":[2,4,-1,6,8,-1,-1,-1,-1],"split_conditions":[1.335812E0,-2.9965943E-1,1.8095137E2,-1.2391572E0,1.0698459E0,5.4882874E2,1.6510002E2,7.011744E2,5.7013966E1],"split_indices":[9,9,0,9,1,0,0,0,0],"split_type":[0,0,0,0,0,0,0,0,0],"sum_hessian":[2.2E1,1.9E1,3E0,1E1,9E0,3E0,7E0,8E0,1E0],"tree_param":{"num_deleted":"0","num_feature":"10","num_nodes":"9","size_leaf_vector":"0"}},{"base_weights":[4.244945E3,4.546927E3,1.6738003E3,2.9417244E3,5.8579565E3,5.076666E3,1.5065381E3,6.388478E3,5.416328E2],"categories":[],"categories_nodes":[],"categories_segments":[],"categories_sizes":[],"default_left":[1,1,0,1,1,0,0,0,0],"id":21,"left_children":[1,3,-1,5,7,-1,-1,-1,-1],"loss_changes":[1.0247456E7,2.4856832E7,0E0,2.605624E7,2.4744E7,0E0,0E0,0E0,0E0],"parents":[2147483647,0,0,1,1,3,3,4,4],"right_children":[2,4,-1,6,8,-1,-1,-1,-1],"split_conditions":[1.335812E0,-2.9965943E-1,1.6738004E2,-1.2391572E0,1.0698459E0,5.076666E2,1.5065381E2,6.3884784E2,5.416328E1],"split_indices":[9,9,0,9,1,0,0,0,0],"split_type":[0,0,0,0,0,0,0,0,0],"sum_hessian":[2.2E1,1.9E1,3E0,1E1,9E0,3E0,7E0,8E0,1E0],"tree_param":{"num_deleted":"0","num_feature":"10","num_nodes":"9","size_leaf_vector":"0"}},{"base_weights":[3.8864812E3,2.979233E3,5.215167E3,5.1983145E3,6.756903E2,6.1007104E3,-4.9181836E2,1.0214922E3,6.42034E3,-9.261499E2,1.6309688E3,5.6964355E2,6.9276147E3],"categories":[],"categories_nodes":[],"categories_segments":[],"categories_sizes":[],"default_left":[1,1,1,1,1,1,0,0,0,0,0,0,0],"id":22,"left_children":[1,3,5,7,9,11,-1,-1,-1,-1,-1,-1,-1],"loss_changes":[1.2188096E7,7.827555E7,4.3430704E7,3.4275136E7,1.5282353E7,2.8069376E7,0E0,0E0,0E0,0E0,0E0,0E0,0E0],"parents":[2147483647,0,0,1,1,2,2,3,3,4,4,5,5],"right_children":[2,4,6,8,10,12,-1,-1,-1,-1,-1,-1,-1],"split_conditions":[7.55677E-1,-3.6799264E-1,7.2433776E-1,-1.581661E0,-8.980875E-1,-2.8844345E-1,-4.9181835E1,1.0214922E2,6.42034E2,-9.261499E1,1.6309688E2,5.6964355E1,6.927615E2],"split_indices":[1,7,0,1,0,0,0,0,0,0,0,0,0],"split_type":[0,0,0,0,0,0,0,0,0,0,0,0,0],"sum_hessian":[2.2E1,1.5E1,7E0,7E0,8E0,6E0,1E0,2E0,5E0,3E0,5E0,1E0,5E0],"tree_param":{"num_deleted":"0","num_feature":"10","num_nodes":"13","size_leaf_vector":"0"}},{"base_weights":[3.5637114E3,2.732226E3,4.7812183E3,4.771506E3,6.159523E2,7.0780273E3,1.9875273E3,9.5339325E2,5.8853115E3,-8.566885E2,1.4950541E3,2.0389277E3,8.0780845E3,4.726715E3,1.2105176E2],"categories":[],"categories_nodes":[],"categories_segments":[],"categories_sizes":[],"default_left":[1,1,1,1,1,1,1,0,0,0,0,0,0,0,0],"id":23,"left_children":[1,3,5,7,9,11,13,-1,-1,-1,-1,-1,-1,-1,-1],"loss_changes":[1.0220416E7,6.6111776E7,3.726483E7,2.841008E7,1.2932205E7,3.686912E6,2.499096E7,0E0,0E0,0E0,0E0,0E0,0E0,0E0,0E0],"parents":[2147483647,0,0,1,1,2,2,3,3,4,4,5,5,6,6],"right_children":[2,4,6,8,10,12,14,-1,-1,-1,-1,-1,-1,-1,-1],"split_conditions":[7.55677E-1,-3.6799264E-1,1.0698459E0,-1.581661E0,-8.980875E-1,6.734565E-3,-9.363096E-1,9.5339325E1,5.885312E2,-8.5668846E1,1.4950542E2,2.0389278E2,8.078085E2,4.7267148E2,1.2105176E1],"split_indices":[1,7,1,1,0,0,9,0,0,0,0,0,0,0,0],"split_type":[0,0,0,0,0,0,0,0,0,0,0,0,0,0,0],"sum_hessian":[2.2E1,1.5E1,7E0,7E0,8E0,3E0,4E0,2E0,5E0,3E0,5E0,1E0,2E0,1E0,3E0],"tree_param":{"num_deleted":"0","num_feature":"10","num_nodes":"15","size_leaf_vector":"0"}},{"base_weights":[3.3049133E3,2.5057349E3,4.4901562E3,4.379839E3,5.6144946E2,5.2668296E3,-4.7328027E2,8.898333E2,5.3948687E3,1.0486519E3,-1.668085E3,5.351084E2,5.966265E3],"categories":[],"categories_nodes":[],"categories_segments":[],"categories_sizes":[],"default_left":[1,1,1,1,1,1,0,0,0,0,0,0,0],"id":24,"left_children":[1,3,5,7,9,11,-1,-1,-1,-1,-1,-1,-1],"loss_changes":[1.0534928E7,5.584163E7,3.3332464E7,2.3539152E7,1.1525352E7,1.9974128E7,0E0,0E0,0E0,0E0,0E0,0E0,0E0],"parents":[2147483647,0,0,1,1,2,2,3,3,4,4,5,5],"right_children":[2,4,6,8,10,12,-1,-1,-1,-1,-1,-1,-1],"split_conditions":[7.55677E-1,-3.6799264E-1,7.2433776E-1,-1.581661E0,7.087995E-1,-2.8844345E-1,-4.732803E1,8.898333E1,5.394869E2,1.0486519E2,-1.668085E2,5.351084E1,5.966265E2],"split_indices":[1,7,0,1,9,0,0,0,0,0,0,0,0],"split_type":[0,0,0,0,0,0,0,0,0,0,0,0,0],"sum_hessian":[2.2E1,1.5E1,7E0,7E0,8E0,6E0,1E0,2E0,5E0,7E0,1E0,1E0,5E0],"tree_param":{"num_deleted":"0","num_feature":"10","num_nodes":"13","size_leaf_vector":"0"}},{"base_weights":[3.0252627E3,2.2905693E3,4.1164917E3,4.0204138E3,4.9842188E2,6.1756807E3,1.6458422E3,8.305117E2,4.945296E3,-8.0316797E2,1.2830781E3,1.638668E3,7.1417954E3,4.1920654E3,-3.872998E1],"categories":[],"categories_nodes":[],"categories_segments":[],"categories_sizes":[],"default_left":[1,1,1,1,1,1,1,0,0,0,0,0,0,0,0],"id":25,"left_children":[1,3,5,7,9,11,13,-1,-1,-1,-1,-1,-1,-1,-1],"loss_changes":[9.010448E6,4.759831E7,3.053608E7,1.9495144E7,1.0222233E7,5.830064E6,2.1608842E7,0E0,0E0,0E0,0E0,0E0,0E0,0E0,0E0],"parents":[2147483647,0,0,1,1,2,2,3,3,4,4,5,5,6,6],"right_children":[2,4,6,8,10,12,14,-1,-1,-1,-1,-1,-1,-1,-1],"split_conditions":[7.55677E-1,-3.6799264E-1,1.0698459E0,-1.581661E0,-8.980875E-1,6.734565E-3,-9.363096E-1,8.305117E1,4.945296E2,-8.0316795E1,1.2830782E2,1.638668E2,7.1417957E2,4.1920654E2,-3.872998E0],"split_indices":[1,7,1,1,0,0,9,0,0,0,0,0,0,0,0],"split_type":[0,0,0,0,0,0,0,0,0,0,0,0,0,0,0],"sum_hessian":[2.2E1,1.5E1,7E0,7E0,8E0,3E0,4E0,2E0,5E0,3E0,5E0,1E0,2E0,1E0,3E0],"tree_param":{"num_deleted":"0","num_feature":"10","num_nodes":"15","size_leaf_vector":"0"}},{"base_weights":[2.8061687E3,2.1006099E3,3.866515E3,3.6905696E3,4.5391147E2,5.777624E3,1.5643246E3,7.7514453E2,4.533187E3,8.96781E2,-1.5445225E3,1.5567344E3,6.665676E3,3.982462E3,-3.5825195E1],"categories":[],"categories_nodes":[],"categories_segments":[],"categories_sizes":[],"default_left":[1,1,1,1,1,1,1,0,0,0,0,0,0,0,0],"id":26,"left_children":[1,3,5,7,9,11,13,-1,-1,-1,-1,-1,-1,-1,-1],"loss_changes":[9.085104E6,4.021575E7,2.6159816E7,1.6138832E7,9.350508E6,4.616784E6,1.9489582E7,0E0,0E0,0E0,0E0,0E0,0E0,0E0,0E0],"parents":[2147483647,0,0,1,1,2,2,3,3,4,4,5,5,6,6],"right_children":[2,4,6,8,10,12,14,-1,-1,-1,-1,-1,-1,-1,-1],"split_conditions":[7.55677E-1,-3.6799264E-1,1.0698459E0,-1.581661E0,7.087995E-1,6.734565E-3,-9.363096E-1,7.751446E1,4.533187E2,8.96781E1,-1.5445226E2,1.5567345E2,6.6656757E2,3.982462E2,-3.5825195E0],"split_indices":[1,7,1,1,9,0,9,0,0,0,0,0,0,0,0],"split_type":[0,0,0,0,0,0,0,0,0,0,0,0,0,0,0],"sum_hessian":[2.2E1,1.5E1,7E0,7E0,8E0,3E0,4E0,2E0,5E0,7E0,1E0,1E0,2E0,1E0,3E0],"tree_param":{"num_deleted":"0","num_feature":"10","num_nodes":"15","size_leaf_vector":"0"}},{"base_weights":[2.598724E3,1.9196777E3,3.6319766E3,3.3878665E3,4.0132358E2,4.278227E3,-4.4588867E2,4.202349E3,6.296126E2,8.18313E2,-1.4672959E3,1.3273184E3,5.193127E3],"categories":[],"categories_nodes":[],"categories_segments":[],"categories_sizes":[],"default_left":[1,1,1,1,1,1,0,0,0,0,0,0,0],"id":27,"left_children":[1,3,5,7,9,11,-1,-1,-1,-1,-1,-1,-1],"loss_changes":[9.165184E6,3.4308056E7,2.2990184E7,1.5326552E7,8.2134585E6,1.2005592E7,0E0,0E0,0E0,0E0,0E0,0E0,0E0],"parents":[2147483647,0,0,1,1,2,2,3,3,4,4,5,5],"right_children":[2,4,6,8,10,12,-1,-1,-1,-1,-1,-1,-1],"split_conditions":[7.55677E-1,-3.6799264E-1,7.2433776E-1,7.425485E-1,7.087995E-1,6.734565E-3,-4.4588867E1,4.2023492E2,6.296126E1,8.18313E1,-1.467296E2,1.3273184E2,5.193127E2],"split_indices":[1,7,0,9,9,0,0,0,0,0,0,0,0],"split_type":[0,0,0,0,0,0,0,0,0,0,0,0,0],"sum_hessian":[2.2E1,1.5E1,7E0,7E0,8E0,6E0,1E0,5E0,2E0,7E0,1E0,2E0,4E0],"tree_param":{"num_deleted":"0","num_feature":"10","num_nodes":"13","size_leaf_vector":"0"}},{"base_weights":[2.3834497E3,2.7823936E3,1.0740929E3,1.68041E3,4.5226284E3,-5.142902E2,3.3633672E3,3.703859E3,5.9438715E2,-8.472507E2,-9.899739E0,9.485996E2,4.096451E3],"categories":[],"categories_nodes":[],"categories_segments":[],"categories_sizes":[],"default_left":[1,1,1,1,0,1,1,0,0,0,0,0,0],"id":28,"left_children":[1,3,5,7,-1,9,11,-1,-1,-1,-1,-1,-1],"loss_changes":[9.025744E6,2.50012E7,2.718346E7,2.4168616E7,0E0,8.3132275E5,1.424792E6,0E0,0E0,0E0,0E0,0E0,0E0],"parents":[2147483647,0,0,1,1,2,2,3,3,5,5,6,6],"right_children":[2,4,6,8,-1,10,12,-1,-1,-1,-1,-1,-1],"split_conditions":[7.2433776E-1,6.981574E-2,-4.6171084E-2,-3.6799264E-1,4.5226285E2,1.2505904E0,1.3983688E0,3.703859E2,5.9438717E1,-8.472507E1,-9.8997396E-1,9.485996E1,4.096451E2],"split_indices":[0,0,9,7,0,0,0,0,0,0,0,0,0],"split_type":[0,0,0,0,0,0,0,0,0,0,0,0,0],"sum_hessian":[2.2E1,1.6E1,6E0,1.1E1,5E0,4E0,2E0,3E0,8E0,2E0,2E0,1E0,1E0],"tree_param":{"num_deleted":"0","num_feature":"10","num_nodes":"13","size_leaf_vector":"0"}},{"base_weights":[2.2016643E3,-2.5233496E2,2.3246794E3,2.747336E3,1.0265109E3,1.8231699E3,4.4158667E3,-4.800043E2,3.1951992E3],"categories":[],"categories_nodes":[],"categories_segments":[],"categories_sizes":[],"default_left":[1,0,1,1,1,0,0,0,0],"id":29,"left_children":[1,-1,3,5,7,-1,-1,-1,-1],"loss_changes":[7.529816E6,0E0,9.250776E6,1.662112E7,2.4403842E7,0E0,0E0,0E0,0E0],"parents":[2147483647,0,0,2,2,3,3,4,4],"right_children":[2,-1,4,6,8,-1,-1,-1,-1],"split_conditions":[-1.3606992E0,-2.5233496E1,7.2433776E-1,1.3480176E-1,-4.6171084E-2,1.82317E2,4.4158667E2,-4.800043E1,3.1951993E2],"split_indices":[0,0,0,0,9,0,0,0,0],"split_type":[0,0,0,0,0,0,0,0,0],"sum_hessian":[2.2E1,1E0,2.1E1,1.5E1,6E0,1.1E1,4E0,4E0,2E0],"tree_param":{"num_deleted":"0","num_feature":"10","num_nodes":"9","size_leaf_vector":"0"}},{"base_weights":[2.0193326E3,2.2395796E3,4.1326416E2,3.562722E3,1.5610175E3,-2.3971777E2,7.1083075E2,4.307466E3,-8.049902E1,1.3704753E2,3.1688335E3],"categories":[],"categories_nodes":[],"categories_segments":[],"categories_sizes":[],"default_left":[1,1,1,1,1,0,0,0,0,0,0],"id":30,"left_children":[1,3,5,7,9,-1,-1,-1,-1,-1,-1],"loss_changes":[7.210296E6,1.2395216E7,9.476212E5,1.6626344E7,3.3907944E7,0E0,0E0,0E0,0E0,0E0,0E0],"parents":[2147483647,0,0,1,1,2,2,3,3,4,4],"right_children":[2,4,6,8,10,-1,-1,-1,-1,-1,-1],"split_conditions":[1.335812E0,-3.6799264E-1,-8.9684904E-1,1.4615066E0,7.55677E-1,-2.3971777E1,7.108308E1,4.3074658E2,-8.049903E0,1.3704753E1,3.1688336E2],"split_indices":[9,7,0,0,1,0,0,0,0,0,0],"split_type":[0,0,0,0,0,0,0,0,0,0,0],"sum_hessian":[2.2E1,1.9E1,3E0,5E0,1.4E1,1E0,2E0,4E0,1E0,8E0,6E0],"tree_param":{"num_deleted":"0","num_feature":"10","num_nodes":"11","size_leaf_vector":"0"}},{"base_weights":[1.8521993E3,2.1833623E3,7.8334625E2,1.2893832E3,3.607427E3,-5.922609E2,2.8149094E3,3.1318394E3,3.272489E2,4.450728E3,1.2805502E3,-8.6896356E2,-1.1813802E2,7.0586816E2,3.516496E3],"categories":[],"categories_nodes":[],"categories_segments":[],"categories_sizes":[],"default_left":[1,1,1,1,1,1,1,0,0,0,0,0,0,0,0],"id":31,"left_children":[1,3,5,7,9,11,13,-1,-1,-1,-1,-1,-1,-1,-1],"loss_changes":[6.430856E6,1.6991072E7,2.1229592E7,2.0247394E7,6.074168E6,5.532975E5,1.956844E6,0E0,0E0,0E0,0E0,0E0,0E0,0E0,0E0],"parents":[2147483647,0,0,1,1,2,2,3,3,4,4,5,5,6,6],"right_children":[2,4,6,8,10,12,14,-1,-1,-1,-1,-1,-1,-1,-1],"split_conditions":[7.2433776E-1,6.981574E-2,-4.6171084E-2,-3.6799264E-1,1.0698459E0,1.2505904E0,1.3983688E0,3.1318393E2,3.272489E1,4.450728E2,1.2805502E2,-8.6896355E1,-1.1813803E1,7.0586815E1,3.5164963E2],"split_indices":[0,0,9,7,1,0,0,0,0,0,0,0,0,0,0],"split_type":[0,0,0,0,0,0,0,0,0,0,0,0,0,0,0],"sum_hessian":[2.2E1,1.6E1,6E0,1.1E1,5E0,4E0,2E0,3E0,8E0,3E0,2E0,2E0,2E0,1E0,1E0],"tree_param":{"num_deleted":"0","num_feature":"10","num_nodes":"15","size_leaf_vector":"0"}},{"base_weights":[1.721004E3,2.0955815E3,7.567234E2,1.0699058E3,3.6267239E3,-1.2815645E3,1.6497467E3,1.7989641E3,-6.556875E2,4.3802954E3,-7.056641E1,-3.8432324E2,-1.5380234E3,2.8689136E3,-5.257246E2],"categories":[],"categories_nodes":[],"categories_segments":[],"categories_sizes":[],"default_left":[1,1,1,1,1,1,1,0,0,0,0,0,0,0,0],"id":32,"left_children":[1,3,5,7,9,11,13,-1,-1,-1,-1,-1,-1,-1,-1],"loss_changes":[6.721776E6,2.124704E7,1.6676166E7,1.5018198E7,1.7026136E7,9.9218E4,1.7421836E7,0E0,0E0,0E0,0E0,0E0,0E0,0E0,0E0],"parents":[2147483647,0,0,1,1,2,2,3,3,4,4,5,5,6,6],"right_children":[2,4,6,8,10,12,14,-1,-1,-1,-1,-1,-1,-1,-1],"split_conditions":[3.684091E-1,-2.9965943E-1,-8.980875E-1,7.2433776E-1,1.4615066E0,-1.191208E0,1.0698459E0,1.7989641E2,-6.556875E1,4.3802954E2,-7.0566406E0,-3.8432323E1,-1.5380235E2,2.8689136E2,-5.257246E1],"split_indices":[9,9,0,0,0,0,1,0,0,0,0,0,0,0,0],"split_type":[0,0,0,0,0,0,0,0,0,0,0,0,0,0,0],"sum_hessian":[2.2E1,1.5E1,7E0,1E1,5E0,2E0,5E0,7E0,3E0,4E0,1E0,1E0,1E0,3E0,2E0],"tree_param":{"num_deleted":"0","num_feature":"10","num_nodes":"15","size_leaf_vector":"0"}},{"base_weights":[1.5744421E3,1.2316726E3,2.8946792E3,1.5323776E3,-9.8311523E2,2.9921777E2,3.6600938E3,1.1438622E3,4.0685703E3],"categories":[],"categories_nodes":[],"categories_segments":[],"categories_sizes":[],"default_left":[1,1,1,1,0,0,0,0,0],"id":33,"left_children":[1,3,5,7,-1,-1,-1,-1,-1],"loss_changes":[6.843056E6,1.4826462E7,6.851254E6,1.308242E7,0E0,0E0,0E0,0E0,0E0],"parents":[2147483647,0,0,1,1,2,2,3,3],"right_children":[2,4,6,8,-1,-1,-1,-1,-1],"split_conditions":[1.1913693E0,1.0698459E0,1.324588E-1,9.2536366E-1,-9.831152E1,2.9921778E1,3.6600937E2,1.1438622E2,4.0685703E2],"split_indices":[6,1,0,1,0,0,0,0,0],"split_type":[0,0,0,0,0,0,0,0,0],"sum_hessian":[2.2E1,1.9E1,3E0,1.7E1,2E0,1E0,2E0,1.6E1,1E0],"tree_param":{"num_deleted":"0","num_feature":"10","num_nodes":"9","size_leaf_vector":"0"}},{"base_weights":[1.4526005E3,1.1296516E3,2.7041948E3,2.1558772E3,4.112318E2,2.8425684E2,3.4160886E3,2.8586243E3,3.1757162E1,-1.9868929E2,3.8651426E3],"categories":[],"categories_nodes":[],"categories_segments":[],"categories_sizes":[],"default_left":[1,1,1,1,1,0,0,0,0,0,0],"id":34,"left_children":[1,3,5,7,9,-1,-1,-1,-1,-1,-1],"loss_changes":[6.241824E6,1.3858652E7,5.91991E6,1.1850972E7,2.8153932E7,0E0,0E0,0E0,0E0,0E0,0E0],"parents":[2147483647,0,0,1,1,2,2,3,3,4,4],"right_children":[2,4,6,8,10,-1,-1,-1,-1,-1,-1],"split_conditions":[1.1913693E0,-3.6799264E-1,1.324588E-1,7.425485E-1,9.7721684E-1,2.8425684E1,3.4160886E2,2.8586243E2,3.1757162E0,-1.9868929E1,3.8651425E2],"split_indices":[6,7,0,9,9,0,0,0,0,0,0],"split_type":[0,0,0,0,0,0,0,0,0,0,0],"sum_hessian":[2.2E1,1.9E1,3E0,7E0,1.2E1,1E0,2E0,5E0,2E0,1.1E1,1E0],"tree_param":{"num_deleted":"0","num_feature":"10","num_nodes":"11","size_leaf_vector":"0"}},{"base_weights":[1.3519368E3,8.9995874E2,2.0869006E3,1.976419E3,-1.568902E2,3.5117588E3,5.29634E2,2.6204053E3,2.9639975E1,-1.0919146E3,4.9260776E2,9.796426E2,4.02925E3,2.4105332E3,-5.432241E2],"categories":[],"categories_nodes":[],"categories_segments":[],"categories_sizes":[],"default_left":[1,1,1,1,1,1,1,0,0,0,0,0,0,0,0],"id":35,"left_children":[1,3,5,7,9,11,13,-1,-1,-1,-1,-1,-1,-1,-1],"loss_changes":[5.762192E6,1.8512572E7,1.5891124E7,9.951926E6,6.003553E6,1.294164E6,1.139915E7,0E0,0E0,0E0,0E0,0E0,0E0,0E0,0E0],"parents":[2147483647,0,0,1,1,2,2,3,3,4,4,5,5,6,6],"right_children":[2,4,6,8,10,12,14,-1,-1,-1,-1,-1,-1,-1,-1],"split_conditions":[7.55677E-1,-3.6799264E-1,1.0698459E0,7.425485E-1,-8.980875E-1,6.734565E-3,-9.363096E-1,2.6204053E2,2.9639976E0,-1.0919146E2,4.9260777E1,9.796426E1,4.0292502E2,2.4105333E2,-5.4322414E1],"split_indices":[1,7,1,9,0,0,9,0,0,0,0,0,0,0,0],"split_type":[0,0,0,0,0,0,0,0,0,0,0,0,0,0,0],"sum_hessian":[2.2E1,1.5E1,7E0,7E0,8E0,3E0,4E0,5E0,2E0,3E0,5E0,1E0,2E0,1E0,3E0],"tree_param":{"num_deleted":"0","num_feature":"10","num_nodes":"15","size_leaf_vector":"0"}},{"base_weights":[1.2555557E3,8.227799E2,1.9641626E3,1.8119031E3,-1.4786067E2,3.2858047E3,5.140164E2,2.402039E3,2.7663412E1,-1.010021E3,4.515563E2,9.3066016E2,3.7606328E3,2.2900059E3,-5.0248242E2],"categories":[],"categories_nodes":[],"categories_segments":[],"categories_sizes":[],"default_left":[1,1,1,1,1,1,1,0,0,0,0,0,0,0,0],"id":36,"left_children":[1,3,5,7,9,11,13,-1,-1,-1,-1,-1,-1,-1,-1],"loss_changes":[5.437284E6,1.562924E7,1.3643634E7,8.357102E6,5.1072235E6,9.73284E5,1.0177144E7,0E0,0E0,0E0,0E0,0E0,0E0,0E0,0E0],"parents":[2147483647,0,0,1,1,2,2,3,3,4,4,5,5,6,6],"right_children":[2,4,6,8,10,12,14,-1,-1,-1,-1,-1,-1,-1,-1],"split_conditions":[7.55677E-1,-3.6799264E-1,1.0698459E0,7.425485E-1,-8.980875E-1,6.734565E-3,-9.363096E-1,2.402039E2,2.7663412E0,-1.010021E2,4.5155632E1,9.306602E1,3.760633E2,2.290006E2,-5.024824E1],"split_indices":[1,7,1,9,0,0,9,0,0,0,0,0,0,0,0],"split_type":[0,0,0,0,0,0,0,0,0,0,0,0,0,0,0],"sum_hessian":[2.2E1,1.5E1,7E0,7E0,8E0,3E0,4E0,5E0,2E0,3E0,5E0,1E0,2E0,1E0,3E0],"tree_param":{"num_deleted":"0","num_feature":"10","num_nodes":"15","size_leaf_vector":"0"}},{"base_weights":[1.1663048E3,1.4637949E3,2.772137E2,1.9952925E3,4.1947098E2,-8.662582E2,2.0905957E3,3.311181E3,1.3349637E3,-1.2200254E3,1.3192747E3,4.654834E2,2.6704102E3],"categories":[],"categories_nodes":[],"categories_segments":[],"categories_sizes":[],"default_left":[1,1,1,1,1,0,1,0,0,0,0,0,0],"id":37,"left_children":[1,3,5,7,9,-1,11,-1,-1,-1,-1,-1,-1],"loss_changes":[5.67762E6,8.59898E6,1.6325856E7,5.1378E6,1.1936122E7,0E0,1.58376E6,0E0,0E0,0E0,0E0,0E0,0E0],"parents":[2147483647,0,0,1,1,2,2,3,3,4,4,6,6],"right_children":[2,4,6,8,10,-1,12,-1,-1,-1,-1,-1,-1],"split_conditions":[7.2433776E-1,3.684091E-1,-4.6171084E-2,-3.6799264E-1,-8.980875E-1,-8.662582E1,1.3983688E0,3.311181E2,1.3349638E2,-1.2200254E2,1.3192747E2,4.654834E1,2.6704102E2],"split_indices":[0,9,9,7,0,0,0,0,0,0,0,0,0],"split_type":[0,0,0,0,0,0,0,0,0,0,0,0,0],"sum_hessian":[2.2E1,1.6E1,6E0,1E1,6E0,4E0,2E0,2E0,8E0,2E0,4E0,1E0,1E0],"tree_param":{"num_deleted":"0","num_feature":"10","num_nodes":"13","size_leaf_vector":"0"}},{"base_weights":[1.0801746E3,6.727378E2,1.7600261E3,1.5760134E3,-2.0492253E2,2.9747773E3,4.362199E2,-2.1842447E1,2.1122725E3,-9.705171E2,3.396276E2,8.173789E2,3.4214504E3,2.1087578E3,-5.09104E2],"categories":[],"categories_nodes":[],"categories_segments":[],"categories_sizes":[],"default_left":[1,1,1,1,1,1,1,0,0,0,0,0,0,0,0],"id":38,"left_children":[1,3,5,7,9,11,13,-1,-1,-1,-1,-1,-1,-1,-1],"loss_changes":[5.186884E6,1.3007268E7,1.1567104E7,6.901056E6,4.0817558E6,1.057988E6,8.979028E6,0E0,0E0,0E0,0E0,0E0,0E0,0E0,0E0],"parents":[2147483647,0,0,1,1,2,2,3,3,4,4,5,5,6,6],"right_children":[2,4,6,8,10,12,14,-1,-1,-1,-1,-1,-1,-1,-1],"split_conditions":[7.55677E-1,-3.6799264E-1,1.0698459E0,-1.581661E0,-8.980875E-1,6.734565E-3,-9.363096E-1,-2.1842449E0,2.1122725E2,-9.705171E1,3.396276E1,8.173789E1,3.4214505E2,2.1087578E2,-5.09104E1],"split_indices":[1,7,1,1,0,0,9,0,0,0,0,0,0,0,0],"split_type":[0,0,0,0,0,0,0,0,0,0,0,0,0,0,0],"sum_hessian":[2.2E1,1.5E1,7E0,7E0,8E0,3E0,4E0,2E0,5E0,3E0,5E0,1E0,2E0,1E0,3E0],"tree_param":{"num_deleted":"0","num_feature":"10","num_nodes":"15","size_leaf_vector":"0"}},{"base_weights":[1.0038876E3,6.1458606E2,1.6570046E3,1.4445427E3,-1.9144054E2,2.7832705E3,4.24591E2,1.7863005E3,-4.7388086E2,-8.97729E2,3.113252E2,7.7650977E2,3.1933542E3,-8.157754E2,1.5234271E3],"categories":[],"categories_nodes":[],"categories_segments":[],"categories_sizes":[],"default_left":[1,1,1,1,1,1,1,0,0,0,0,0,0,0,0],"id":39,"left_children":[1,3,5,7,9,11,13,-1,-1,-1,-1,-1,-1,-1,-1],"loss_changes":[4.829594E6,1.0980018E7,9.922452E6,6.091583E6,3.4753645E6,8.1209E5,8.0575705E6,0E0,0E0,0E0,0E0,0E0,0E0,0E0,0E0],"parents":[2147483647,0,0,1,1,2,2,3,3,4,4,5,5,6,6],"right_children":[2,4,6,8,10,12,14,-1,-1,-1,-1,-1,-1,-1,-1],"split_conditions":[7.55677E-1,-3.6799264E-1,1.0698459E0,1.4615066E0,-8.980875E-1,6.734565E-3,1.2229043E0,1.7863005E2,-4.738809E1,-8.97729E1,3.113252E1,7.765098E1,3.1933542E2,-8.157754E1,1.5234271E2],"split_indices":[1,7,1,0,0,0,1,0,0,0,0,0,0,0,0],"split_type":[0,0,0,0,0,0,0,0,0,0,0,0,0,0,0],"sum_hessian":[2.2E1,1.5E1,7E0,7E0,8E0,3E0,4E0,6E0,1E0,3E0,5E0,1E0,2E0,2E0,2E0],"tree_param":{"num_deleted":"0","num_feature":"10","num_nodes":"15","size_leaf_vector":"0"}},{"base_weights":[9.269926E2,5.576653E2,1.5497732E3,1.3164941E3,-1.7881207E2,2.60419E3,3.9628516E2,-5.6068164E2,1.6647595E3,-8.303989E2,2.853812E2,7.376846E2,2.9804636E3,1.9271484E3,-4.6821777E2],"categories":[],"categories_nodes":[],"categories_segments":[],"categories_sizes":[],"default_left":[1,1,1,1,1,1,1,0,0,0,0,0,0,0,0],"id":40,"left_children":[1,3,5,7,9,11,13,-1,-1,-1,-1,-1,-1,-1,-1],"loss_changes":[4.425972E6,9.17717E6,8.698056E6,6.163441E6,2.9591402E6,6.10622E5,7.519504E6,0E0,0E0,0E0,0E0,0E0,0E0,0E0,0E0],"parents":[2147483647,0,0,1,1,2,2,3,3,4,4,5,5,6,6],"right_children":[2,4,6,8,10,12,14,-1,-1,-1,-1,-1,-1,-1,-1],"split_conditions":[7.55677E-1,-3.6799264E-1,1.0698459E0,-1.3606992E0,-8.980875E-1,6.734565E-3,-9.363096E-1,-5.6068165E1,1.6647595E2,-8.3039894E1,2.853812E1,7.3768456E1,2.9804636E2,1.9271484E2,-4.6821777E1],"split_indices":[1,7,1,0,0,0,9,0,0,0,0,0,0,0,0],"split_type":[0,0,0,0,0,0,0,0,0,0,0,0,0,0,0],"sum_hessian":[2.2E1,1.5E1,7E0,7E0,8E0,3E0,4E0,1E0,6E0,3E0,5E0,1E0,2E0,1E0,3E0],"tree_param":{"num_deleted":"0","num_feature":"10","num_nodes":"15","size_leaf_vector":"0"}},{"base_weights":[8.5923267E2,1.1338682E3,6.9513115E1,1.6014141E3,2.3717215E2,-9.1447034E2,1.6863145E3,2.719548E3,1.0507678E3,-1.1599994E3,1.0280406E3,-1.9509766E2,-1.0455391E3,2.7074707E2,2.2587246E3],"categories":[],"categories_nodes":[],"categories_segments":[],"categories_sizes":[],"default_left":[1,1,1,1,1,1,1,0,0,0,0,0,0,0,0],"id":41,"left_children":[1,3,5,7,9,11,13,-1,-1,-1,-1,-1,-1,-1,-1],"loss_changes":[4.909538E6,6.74738E6,1.2678423E7,3.915046E6,8.927379E6,2.67454E5,1.819313E6,0E0,0E0,0E0,0E0,0E0,0E0,0E0,0E0],"parents":[2147483647,0,0,1,1,2,2,3,3,4,4,5,5,6,6],"right_children":[2,4,6,8,10,12,14,-1,-1,-1,-1,-1,-1,-1,-1],"split_conditions":[7.2433776E-1,3.684091E-1,-4.6171084E-2,-3.6799264E-1,-8.980875E-1,9.769622E-1,1.3983688E0,2.719548E2,1.0507678E2,-1.1599994E2,1.0280407E2,-1.9509766E1,-1.0455391E2,2.7074707E1,2.2587247E2],"split_indices":[0,9,9,7,0,0,0,0,0,0,0,0,0,0,0],"split_type":[0,0,0,0,0,0,0,0,0,0,0,0,0,0,0],"sum_hessian":[2.2E1,1.6E1,6E0,1E1,6E0,4E0,2E0,2E0,8E0,2E0,4E0,1E0,3E0,1E0,1E0],"tree_param":{"num_deleted":"0","num_feature":"10","num_nodes":"15","size_leaf_vector":"0"}},{"base_weights":[7.9473224E2,4.504314E2,1.3839924E3,1.1396775E3,-2.1227972E2,2.3584849E3,3.276E2,-1.4929167E2,1.5942158E3,-7.916577E2,2.0935222E2,6.482627E2,2.7124714E3,1.778252E3,-4.7962598E2],"categories":[],"categories_nodes":[],"categories_segments":[],"categories_sizes":[],"default_left":[1,1,1,1,1,1,1,0,0,0,0,0,0,0,0],"id":42,"left_children":[1,3,5,7,9,11,13,-1,-1,-1,-1,-1,-1,-1,-1],"loss_changes":[4.042911E6,7.550267E6,7.462932E6,4.92509E6,2.3642935E6,6.63188E5,6.7079155E6,0E0,0E0,0E0,0E0,0E0,0E0,0E0,0E0],"parents":[2147483647,0,0,1,1,2,2,3,3,4,4,5,5,6,6],"right_children":[2,4,6,8,10,12,14,-1,-1,-1,-1,-1,-1,-1,-1],"split_conditions":[7.55677E-1,-3.6799264E-1,1.0698459E0,-1.581661E0,-8.980875E-1,6.734565E-3,-9.363096E-1,-1.4929168E1,1.5942159E2,-7.916577E1,2.0935223E1,6.482627E1,2.7124716E2,1.778252E2,-4.7962597E1],"split_indices":[1,7,1,1,0,0,9,0,0,0,0,0,0,0,0],"split_type":[0,0,0,0,0,0,0,0,0,0,0,0,0,0,0],"sum_hessian":[2.2E1,1.5E1,7E0,7E0,8E0,3E0,4E0,2E0,5E0,3E0,5E0,1E0,2E0,1E0,3E0],"tree_param":{"num_deleted":"0","num_feature":"10","num_nodes":"15","size_leaf_vector":"0"}},{"base_weights":[7.3926776E2,9.822526E2,4.35519E1,1.4085292E3,1.720678E2,-8.713285E2,1.5538353E3,2.4319648E3,9.108806E2,-1.109418E3,9.065457E2,-1.6136133E2,-1.00848E3,2.646748E2,2.0660781E3],"categories":[],"categories_nodes":[],"categories_segments":[],"categories_sizes":[],"default_left":[1,1,1,1,1,1,1,0,0,0,0,0,0,0,0],"id":43,"left_children":[1,3,5,7,9,11,13,-1,-1,-1,-1,-1,-1,-1,-1],"loss_changes":[3.845334E6,5.628804E6,1.1026002E7,3.387194E6,7.5942985E6,3.2413575E5,1.434252E6,0E0,0E0,0E0,0E0,0E0,0E0,0E0,0E0],"parents":[2147483647,0,0,1,1,2,2,3,3,4,4,5,5,6,6],"right_children":[2,4,6,8,10,12,14,-1,-1,-1,-1,-1,-1,-1,-1],"split_conditions":[7.2433776E-1,3.684091E-1,-4.6171084E-2,-3.6799264E-1,-8.980875E-1,9.769622E-1,1.3983688E0,2.4319649E2,9.1088066E1,-1.10941795E2,9.065457E1,-1.6136133E1,-1.00848E2,2.6467482E1,2.0660782E2],"split_indices":[0,9,9,7,0,0,0,0,0,0,0,0,0,0,0],"split_type":[0,0,0,0,0,0,0,0,0,0,0,0,0,0,0],"sum_hessian":[2.2E1,1.6E1,6E0,1E1,6E0,4E0,2E0,2E0,8E0,2E0,4E0,1E0,3E0,1E0,1E0],"tree_param":{"num_deleted":"0","num_feature":"10","num_nodes":"15","size_leaf_vector":"0"}},{"base_weights":[6.8404034E2,3.6445862E2,1.2376987E3,9.929175E2,-2.3466689E2,2.1384468E3,2.6956055E2,1.4063721E3,-1.6496419E2,-7.500918E2,1.4806087E2,5.7030566E2,2.4710586E3,1.6437949E3,-4.8494678E2],"categories":[],"categories_nodes":[],"categories_segments":[],"categories_sizes":[],"default_left":[1,1,1,1,1,1,1,0,0,0,0,0,0,0,0],"id":44,"left_children":[1,3,5,7,9,11,13,-1,-1,-1,-1,-1,-1,-1,-1],"loss_changes":[3.618509E6,6.257417E6,6.399947E6,4.061854E6,1.886466E6,6.77072E5,5.9815025E6,0E0,0E0,0E0,0E0,0E0,0E0,0E0,0E0],"parents":[2147483647,0,0,1,1,2,2,3,3,4,4,5,5,6,6],"right_children":[2,4,6,8,10,12,14,-1,-1,-1,-1,-1,-1,-1,-1],"split_conditions":[7.55677E-1,-3.6799264E-1,1.0698459E0,7.425485E-1,-8.980875E-1,6.734565E-3,-9.363096E-1,1.406372E2,-1.649642E1,-7.500918E1,1.4806087E1,5.7030567E1,2.4710587E2,1.643795E2,-4.849468E1],"split_indices":[1,7,1,9,0,0,9,0,0,0,0,0,0,0,0],"split_type":[0,0,0,0,0,0,0,0,0,0,0,0,0,0,0],"sum_hessian":[2.2E1,1.5E1,7E0,7E0,8E0,3E0,4E0,5E0,2E0,3E0,5E0,1E0,2E0,1E0,3E0],"tree_param":{"num_deleted":"0","num_feature":"10","num_nodes":"15","size_leaf_vector":"0"}},{"base_weights":[6.36678E2,3.320089E2,1.1664314E3,8.429353E2,-2.8428442E2,2.0006362E3,2.6578125E2,1.0716965E3,-4.9357715E2,-1.0295358E3,1.35722E2,5.4179004E2,2.3063215E3,1.5616055E3,-4.4857617E2],"categories":[],"categories_nodes":[],"categories_segments":[],"categories_sizes":[],"default_left":[1,1,1,1,1,1,1,0,0,0,0,0,0,0,0],"id":45,"left_children":[1,3,5,7,9,11,13,-1,-1,-1,-1,-1,-1,-1,-1],"loss_changes":[3.324923E6,5.277722E6,5.478881E6,3.2806455E6,2.6438138E6,5.34251E5,5.3289075E6,0E0,0E0,0E0,0E0,0E0,0E0,0E0,0E0],"parents":[2147483647,0,0,1,1,2,2,3,3,4,4,5,5,6,6],"right_children":[2,4,6,8,10,12,14,-1,-1,-1,-1,-1,-1,-1,-1],"split_conditions":[7.55677E-1,-1.6896735E-1,1.0698459E0,1.4615066E0,-8.980875E-1,6.734565E-3,-9.363096E-1,1.07169655E2,-4.9357716E1,-1.02953575E2,1.35722E1,5.4179005E1,2.3063216E2,1.5616055E2,-4.4857616E1],"split_indices":[1,7,1,0,0,0,9,0,0,0,0,0,0,0,0],"split_type":[0,0,0,0,0,0,0,0,0,0,0,0,0,0,0],"sum_hessian":[2.2E1,1.5E1,7E0,8E0,7E0,3E0,4E0,7E0,1E0,2E0,5E0,1E0,2E0,1E0,3E0],"tree_param":{"num_deleted":"0","num_feature":"10","num_nodes":"15","size_leaf_vector":"0"}},{"base_weights":[5.8886005E2,8.097591E2,-3.1731863E1,1.1758446E3,1.18801895E2,-8.6241486E2,1.363317E3,2.1046316E3,7.355996E2,-1.00636066E3,7.7013904E2,-1.0661719E2,-1.02471E3,2.0610449E2,1.8388711E3],"categories":[],"categories_nodes":[],"categories_segments":[],"categories_sizes":[],"default_left":[1,1,1,1,1,1,1,0,0,0,0,0,0,0,0],"id":46,"left_children":[1,3,5,7,9,11,13,-1,-1,-1,-1,-1,-1,-1,-1],"loss_changes":[3.178722E6,4.160448E6,9.287649E6,2.949665E6,5.905059E6,5.0405975E5,1.2719515E6,0E0,0E0,0E0,0E0,0E0,0E0,0E0,0E0],"parents":[2147483647,0,0,1,1,2,2,3,3,4,4,5,5,6,6],"right_children":[2,4,6,8,10,12,14,-1,-1,-1,-1,-1,-1,-1,-1],"split_conditions":[7.2433776E-1,3.684091E-1,-4.6171084E-2,-3.6799264E-1,-8.980875E-1,9.769622E-1,1.3983688E0,2.1046317E2,7.355996E1,-1.0063607E2,7.701391E1,-1.0661719E1,-1.02471E2,2.0610449E1,1.8388712E2],"split_indices":[0,9,9,7,0,0,0,0,0,0,0,0,0,0,0],"split_type":[0,0,0,0,0,0,0,0,0,0,0,0,0,0,0],"sum_hessian":[2.2E1,1.6E1,6E0,1E1,6E0,4E0,2E0,2E0,8E0,2E0,4E0,1E0,3E0,1E0,1E0],"tree_param":{"num_deleted":"0","num_feature":"10","num_nodes":"15","size_leaf_vector":"0"}},{"base_weights":[5.4526807E2,2.617379E2,1.0441699E3,7.949558E2,-2.4131554E2,1.8157412E3,2.180789E2,-4.9390625E2,1.049637E3,-6.807715E2,9.187435E1,4.7791992E2,2.102375E3,1.4467461E3,-4.507744E2],"categories":[],"categories_nodes":[],"categories_segments":[],"categories_sizes":[],"default_left":[1,1,1,1,1,1,1,0,0,0,0,0,0,0,0],"id":47,"left_children":[1,3,5,7,9,11,13,-1,-1,-1,-1,-1,-1,-1,-1],"loss_changes":[2.9801375E6,4.483629E6,4.70313E6,3.1444135E6,1.3803459E6,5.29091E5,4.761147E6,0E0,0E0,0E0,0E0,0E0,0E0,0E0,0E0],"parents":[2147483647,0,0,1,1,2,2,3,3,4,4,5,5,6,6],"right_children":[2,4,6,8,10,12,14,-1,-1,-1,-1,-1,-1,-1,-1],"split_conditions":[7.55677E-1,-3.6799264E-1,1.0698459E0,-1.3606992E0,-8.980875E-1,6.734565E-3,-9.363096E-1,-4.9390625E1,1.049637E2,-6.807715E1,9.187435E0,4.7791992E1,2.102375E2,1.446746E2,-4.5077442E1],"split_indices":[1,7,1,0,0,0,9,0,0,0,0,0,0,0,0],"split_type":[0,0,0,0,0,0,0,0,0,0,0,0,0,0,0],"sum_hessian":[2.2E1,1.5E1,7E0,7E0,8E0,3E0,4E0,1E0,6E0,3E0,5E0,1E0,2E0,1E0,3E0],"tree_param":{"num_deleted":"0","num_feature":"10","num_nodes":"15","size_leaf_vector":"0"}},{"base_weights":[5.0614597E2,7.137569E2,-7.0358536E1,1.0382579E3,1.0186133E2,-8.3360706E2,1.2251752E3,1.8943451E3,6.375336E2,-7.415547E2,9.19812E2,-7.874707E1,-1.00263525E3,1.4331738E2,1.6944453E3],"categories":[],"categories_nodes":[],"categories_segments":[],"categories_sizes":[],"default_left":[1,1,1,1,1,1,1,0,0,0,0,0,0,0,0],"id":48,"left_children":[1,3,5,7,9,11,13,-1,-1,-1,-1,-1,-1,-1,-1],"loss_changes":[2.803058E6,3.269774E6,7.9430135E6,2.565895E6,5.5112E6,5.590085E5,1.280207E6,0E0,0E0,0E0,0E0,0E0,0E0,0E0,0E0],"parents":[2147483647,0,0,1,1,2,2,3,3,4,4,5,5,6,6],"right_children":[2,4,6,8,10,12,14,-1,-1,-1,-1,-1,-1,-1,-1],"split_conditions":[7.2433776E-1,3.684091E-1,-4.6171084E-2,-3.6799264E-1,9.7721684E-1,9.769622E-1,1.3983688E0,1.8943451E2,6.3753365E1,-7.415547E1,9.19812E1,-7.874707E0,-1.0026353E2,1.4331738E1,1.6944453E2],"split_indices":[0,9,9,7,9,0,0,0,0,0,0,0,0,0,0],"split_type":[0,0,0,0,0,0,0,0,0,0,0,0,0,0,0],"sum_hessian":[2.2E1,1.6E1,6E0,1E1,6E0,4E0,2E0,2E0,8E0,3E0,3E0,1E0,3E0,1E0,1E0],"tree_param":{"num_deleted":"0","num_feature":"10","num_nodes":"15","size_leaf_vector":"0"}},{"base_weights":[4.7060318E2,2.025885E2,9.478071E2,6.6564404E2,-2.3152626E2,1.6438018E3,2.0145E2,1.0138753E3,-2.5269987E2,-7.635651E2,2.9565569E1,4.2214648E2,1.9103047E3,1.3425312E3,-4.1945312E2],"categories":[],"categories_nodes":[],"categories_segments":[],"categories_sizes":[],"default_left":[1,1,1,1,1,1,1,0,0,0,0,0,0,0,0],"id":49,"left_children":[1,3,5,7,9,11,13,-1,-1,-1,-1,-1,-1,-1,-1],"loss_changes":[2.7496315E6,3.370422E6,3.824541E6,2.814575E6,1.2727742E6,4.9587E5,4.1056335E6,0E0,0E0,0E0,0E0,0E0,0E0,0E0,0E0],"parents":[2147483647,0,0,1,1,2,2,3,3,4,4,5,5,6,6],"right_children":[2,4,6,8,10,12,14,-1,-1,-1,-1,-1,-1,-1,-1],"split_conditions":[7.55677E-1,-3.6799264E-1,1.0698459E0,7.425485E-1,-9.350823E-1,6.734565E-3,-9.363096E-1,1.01387535E2,-2.5269987E1,-7.6356514E1,2.956557E0,4.221465E1,1.9103047E2,1.3425313E2,-4.1945312E1],"split_indices":[1,7,1,9,9,0,9,0,0,0,0,0,0,0,0],"split_type":[0,0,0,0,0,0,0,0,0,0,0,0,0,0,0],"sum_hessian":[2.2E1,1.5E1,7E0,7E0,8E0,3E0,4E0,5E0,2E0,2E0,6E0,1E0,2E0,1E0,3E0],"tree_param":{"num_deleted":"0","num_feature":"10","num_nodes":"15","size_leaf_vector":"0"}},{"base_weights":[4.3781546E2,1.8249963E2,8.937202E2,4.0909796E2,-5.995698E2,1.5377324E3,1.997664E2,-2.4181934E2,1.2088047E3,-8.986172E2,1.4878613E2,4.0103906E2,1.7829506E3,-6.2532745E2,9.582715E2],"categories":[],"categories_nodes":[],"categories_segments":[],"categories_sizes":[],"default_left":[1,1,1,1,1,1,1,0,0,0,0,0,0,0,0],"id":50,"left_children":[1,3,5,7,9,11,13,-1,-1,-1,-1,-1,-1,-1,-1],"loss_changes":[2.5140895E6,3.0807325E6,3.2681305E6,7.059371E6,1.0288771E6,3.99919E5,3.728423E6,0E0,0E0,0E0,0E0,0E0,0E0,0E0,0E0],"parents":[2147483647,0,0,1,1,2,2,3,3,4,4,5,5,6,6],"right_children":[2,4,6,8,10,12,14,-1,-1,-1,-1,-1,-1,-1,-1],"split_conditions":[7.55677E-1,7.087995E-1,1.0698459E0,-2.9965943E-1,1.976943E-1,6.734565E-3,1.2229043E0,-2.4181934E1,1.2088047E2,-8.986172E1,1.4878613E1,4.010391E1,1.7829506E2,-6.2532745E1,9.582715E1],"split_indices":[1,9,1,9,0,0,1,0,0,0,0,0,0,0,0],"split_type":[0,0,0,0,0,0,0,0,0,0,0,0,0,0,0],"sum_hessian":[2.2E1,1.5E1,7E0,1.2E1,3E0,3E0,4E0,7E0,5E0,2E0,1E0,1E0,2E0,2E0,2E0],"tree_param":{"num_deleted":"0","num_feature":"10","num_nodes":"15","size_leaf_vector":"0"}},{"base_weights":[4.059213E2,1.6560706E2,8.358096E2,5.3195074E2,-2.6723047E2,1.4385581E3,1.8644882E2,7.312312E2,-5.311465E2,-8.40541E2,6.3963215E1,3.809873E2,1.6640859E3,1.2274902E3,-3.8068408E2],"categories":[],"categories_nodes":[],"categories_segments":[],"categories_sizes":[],"default_left":[1,1,1,1,1,1,1,0,0,0,0,0,0,0,0],"id":51,"left_children":[1,3,5,7,9,11,13,-1,-1,-1,-1,-1,-1,-1,-1],"loss_changes":[2.237674E6,2.67923E6,2.862992E6,2.2950812E6,1.5727785E6,3.200515E5,3.4193302E6,0E0,0E0,0E0,0E0,0E0,0E0,0E0,0E0],"parents":[2147483647,0,0,1,1,2,2,3,3,4,4,5,5,6,6],"right_children":[2,4,6,8,10,12,14,-1,-1,-1,-1,-1,-1,-1,-1],"split_conditions":[7.55677E-1,-1.6896735E-1,1.0698459E0,1.4615066E0,-8.980875E-1,6.734565E-3,-9.363096E-1,7.312312E1,-5.311465E1,-8.40541E1,6.396322E0,3.8098732E1,1.664086E2,1.2274902E2,-3.806841E1],"split_indices":[1,7,1,0,0,0,9,0,0,0,0,0,0,0,0],"split_type":[0,0,0,0,0,0,0,0,0,0,0,0,0,0,0],"sum_hessian":[2.2E1,1.5E1,7E0,8E0,7E0,3E0,4E0,7E0,1E0,2E0,5E0,1E0,2E0,1E0,3E0],"tree_param":{"num_deleted":"0","num_feature":"10","num_nodes":"15","size_leaf_vector":"0"}},{"base_weights":[3.7539554E2,5.554491E2,-1.155053E2,1.6129355E3,3.8854773E2,-7.8843243E2,1.0445416E3,1.0462003E1,1.01694696E3,-3.5361328E0,-9.8377246E2,1.0478516E2,1.4620273E3],"categories":[],"categories_nodes":[],"categories_segments":[],"categories_sizes":[],"default_left":[1,1,1,0,1,1,1,0,0,0,0,0,0],"id":52,"left_children":[1,3,5,-1,7,9,11,-1,-1,-1,-1,-1,-1],"loss_changes":[2.0970918E6,2.3737285E6,6.28794E6,0E0,3.790781E6,7.631295E5,1.023806E6,0E0,0E0,0E0,0E0,0E0,0E0],"parents":[2147483647,0,0,1,1,2,2,4,4,5,5,6,6],"right_children":[2,4,6,-1,8,10,12,-1,-1,-1,-1,-1,-1],"split_conditions":[7.2433776E-1,-1.0064307E0,-4.6171084E-2,1.6129356E2,6.981574E-2,9.769622E-1,1.3983688E0,1.0462003E0,1.01694695E2,-3.536133E-1,-9.837725E1,1.0478516E1,1.4620274E2],"split_indices":[0,1,9,0,0,0,0,0,0,0,0,0,0],"split_type":[0,0,0,0,0,0,0,0,0,0,0,0,0],"sum_hessian":[2.2E1,1.6E1,6E0,1E0,1.5E1,4E0,2E0,1E1,5E0,1E0,3E0,1E0,1E0],"tree_param":{"num_deleted":"0","num_feature":"10","num_nodes":"13","size_leaf_vector":"0"}},{"base_weights":[3.5185495E2,1.3713586E2,7.373113E2,3.463364E2,-5.770498E2,1.7571074E3,3.4061078E2,-2.160332E2,1.0384398E3,-8.357637E2,9.95459E1,7.776953E2,-5.014004E2],"categories":[],"categories_nodes":[],"categories_segments":[],"categories_sizes":[],"default_left":[1,1,1,1,1,0,1,0,0,0,0,0,0],"id":53,"left_children":[1,3,5,7,9,-1,11,-1,-1,-1,-1,-1,-1],"loss_changes":[1.8024795E6,2.5903815E6,2.6379395E6,5.28417E6,7.833756E5,0E0,2.966147E6,0E0,0E0,0E0,0E0,0E0,0E0],"parents":[2147483647,0,0,1,1,2,2,3,3,4,4,6,6],"right_children":[2,4,6,8,10,-1,12,-1,-1,-1,-1,-1,-1],"split_conditions":[7.55677E-1,7.087995E-1,9.071008E-1,-2.9965943E-1,1.976943E-1,1.7571074E2,3.4466806E-1,-2.1603321E1,1.0384399E2,-8.357637E1,9.95459E0,7.776953E1,-5.014004E1],"split_indices":[1,9,5,9,0,0,9,0,0,0,0,0,0],"split_type":[0,0,0,0,0,0,0,0,0,0,0,0,0],"sum_hessian":[2.2E1,1.5E1,7E0,1.2E1,3E0,1E0,6E0,7E0,5E0,2E0,1E0,4E0,2E0],"tree_param":{"num_deleted":"0","num_feature":"10","num_nodes":"13","size_leaf_vector":"0"}},{"base_weights":[3.2588495E2,4.951349E2,-1.3170564E2,7.5488245E2,1.6226562E1,-7.570168E2,9.5438153E2,1.5379557E3,4.099822E2,-6.5859863E2,6.869951E2,-4.224414E1,-9.251489E2,9.456836E1,1.3370039E3],"categories":[],"categories_nodes":[],"categories_segments":[],"categories_sizes":[],"default_left":[1,1,1,1,1,1,1,0,0,0,0,0,0,0,0],"id":54,"left_children":[1,3,5,7,9,11,13,-1,-1,-1,-1,-1,-1,-1,-1],"loss_changes":[1.8464972E6,2.1024705E6,5.47648E6,2.340369E6,3.6210148E6,5.6179925E5,8.60513E5,0E0,0E0,0E0,0E0,0E0,0E0,0E0,0E0],"parents":[2147483647,0,0,1,1,2,2,3,3,4,4,5,5,6,6],"right_children":[2,4,6,8,10,12,14,-1,-1,-1,-1,-1,-1,-1,-1],"split_conditions":[7.2433776E-1,3.684091E-1,-4.6171084E-2,-3.6799264E-1,9.7721684E-1,9.769622E-1,1.3983688E0,1.5379558E2,4.0998222E1,-6.585986E1,6.869952E1,-4.2244143E0,-9.251489E1,9.456836E0,1.337004E2],"split_indices":[0,9,9,7,9,0,0,0,0,0,0,0,0,0,0],"split_type":[0,0,0,0,0,0,0,0,0,0,0,0,0,0,0],"sum_hessian":[2.2E1,1.6E1,6E0,1E1,6E0,4E0,2E0,2E0,8E0,3E0,3E0,1E0,3E0,1E0,1E0],"tree_param":{"num_deleted":"0","num_feature":"10","num_nodes":"15","size_leaf_vector":"0"}},{"base_weights":[3.039072E2,1.0426221E2,6.6520874E2,2.9473032E2,-5.408247E2,1.6349023E3,2.931236E2,-2.1372534E2,9.235495E2,-7.8099286E2,8.983984E1,6.91725E2,-4.6891992E2],"categories":[],"categories_nodes":[],"categories_segments":[],"categories_sizes":[],"default_left":[1,1,1,1,1,0,1,0,0,0,0,0,0],"id":55,"left_children":[1,3,5,7,9,-1,11,-1,-1,-1,-1,-1,-1],"loss_changes":[1.5896808E6,2.1252932E6,2.4072402E6,4.3538325E6,6.760264E5,0E0,2.450625E6,0E0,0E0,0E0,0E0,0E0,0E0],"parents":[2147483647,0,0,1,1,2,2,3,3,4,4,6,6],"right_children":[2,4,6,8,10,-1,12,-1,-1,-1,-1,-1,-1],"split_conditions":[7.55677E-1,7.087995E-1,9.071008E-1,-2.9965943E-1,1.976943E-1,1.6349023E2,3.4466806E-1,-2.1372534E1,9.235495E1,-7.809929E1,8.983985E0,6.91725E1,-4.6891994E1],"split_indices":[1,9,5,9,0,0,9,0,0,0,0,0,0],"split_type":[0,0,0,0,0,0,0,0,0,0,0,0,0],"sum_hessian":[2.2E1,1.5E1,7E0,1.2E1,3E0,1E0,6E0,7E0,5E0,2E0,1E0,4E0,2E0],"tree_param":{"num_deleted":"0","num_feature":"10","num_nodes":"13","size_leaf_vector":"0"}},{"base_weights":[2.816746E2,4.4011548E2,-1.4334961E2,1.187767E3,2.6124414E2,-7.244191E2,8.728828E2,1.357291E3,8.600572E1,-7.471777E1,-8.6816504E2,8.534766E1,1.2239766E3],"categories":[],"categories_nodes":[],"categories_segments":[],"categories_sizes":[],"default_left":[1,1,1,0,1,1,1,0,0,0,0,0,0],"id":56,"left_children":[1,3,5,-1,7,9,11,-1,-1,-1,-1,-1,-1],"loss_changes":[1.611938E6,1.9631705E6,4.765845E6,0E0,2.764308E6,4.0209225E5,7.250325E5,0E0,0E0,0E0,0E0,0E0,0E0],"parents":[2147483647,0,0,1,1,2,2,4,4,5,5,6,6],"right_children":[2,4,6,-1,8,10,12,-1,-1,-1,-1,-1,-1],"split_conditions":[7.2433776E-1,-1.2391572E0,-4.6171084E-2,1.18776695E2,-1.0064307E0,9.769622E-1,1.3983688E0,1.3572911E2,8.600573E0,-7.4717774E0,-8.6816505E1,8.534766E0,1.2239766E2],"split_indices":[0,9,9,0,1,0,0,0,0,0,0,0,0],"split_type":[0,0,0,0,0,0,0,0,0,0,0,0,0],"sum_hessian":[2.2E1,1.6E1,6E0,2E0,1.4E1,4E0,2E0,1E0,1.3E1,1E0,3E0,1E0,1E0],"tree_param":{"num_deleted":"0","num_feature":"10","num_nodes":"13","size_leaf_vector":"0"}},{"base_weights":[2.6653992E2,8.1840576E1,6.026211E2,2.5778983E2,-5.104546E2,1.5488555E3,2.4617969E2,-1.9246729E2,8.1516766E2,-7.346595E2,8.108008E1,-3.076958E2,7.3851025E2],"categories":[],"categories_nodes":[],"categories_segments":[],"categories_sizes":[],"default_left":[1,1,1,1,1,0,1,0,0,0,0,0,0],"id":57,"left_children":[1,3,5,7,9,-1,11,-1,-1,-1,-1,-1,-1],"loss_changes":[1.3783825E6,1.7990121E6,2.31692E6,3.4194165E6,5.900663E5,0E0,2.1360652E6,0E0,0E0,0E0,0E0,0E0,0E0],"parents":[2147483647,0,0,1,1,2,2,3,3,4,4,6,6],"right_children":[2,4,6,8,10,-1,12,-1,-1,-1,-1,-1,-1],"split_conditions":[7.55677E-1,7.087995E-1,9.071008E-1,-2.9965943E-1,1.976943E-1,1.5488554E2,1.1913693E0,-1.9246729E1,8.151677E1,-7.346595E1,8.108008E0,-3.076958E1,7.385103E1],"split_indices":[1,9,5,9,0,0,6,0,0,0,0,0,0],"split_type":[0,0,0,0,0,0,0,0,0,0,0,0,0],"sum_hessian":[2.2E1,1.5E1,7E0,1.2E1,3E0,1E0,6E0,7E0,5E0,2E0,1E0,3E0,3E0],"tree_param":{"num_deleted":"0","num_feature":"10","num_nodes":"13","size_leaf_vector":"0"}},{"base_weights":[2.4835878E2,3.9297586E2,-1.3833398E2,1.0903802E3,2.2729662E2,-6.7328595E2,7.9936395E2,1.248668E3,6.515095E1,-5.559668E1,-8.138091E2,7.702637E1,1.1220195E3],"categories":[],"categories_nodes":[],"categories_segments":[],"categories_sizes":[],"default_left":[1,1,1,0,1,1,1,0,0,0,0,0,0],"id":58,"left_children":[1,3,5,-1,7,9,11,-1,-1,-1,-1,-1,-1],"loss_changes":[1.3405766E6,1.7164325E6,4.049564E6,0E0,2.4028122E6,3.8875325E5,6.127736E5,0E0,0E0,0E0,0E0,0E0,0E0],"parents":[2147483647,0,0,1,1,2,2,4,4,5,5,6,6],"right_children":[2,4,6,-1,8,10,12,-1,-1,-1,-1,-1,-1],"split_conditions":[7.2433776E-1,-1.2391572E0,-4.6171084E-2,1.09038025E2,-1.0064307E0,9.769622E-1,1.3983688E0,1.248668E2,6.5150948E0,-5.559668E0,-8.138091E1,7.7026367E0,1.1220196E2],"split_indices":[0,9,9,0,1,0,0,0,0,0,0,0,0],"split_type":[0,0,0,0,0,0,0,0,0,0,0,0,0],"sum_hessian":[2.2E1,1.6E1,6E0,2E0,1.4E1,4E0,2E0,1E0,1.3E1,1E0,3E0,1E0,1E0],"tree_param":{"num_deleted":"0","num_feature":"10","num_nodes":"13","size_leaf_vector":"0"}},{"base_weights":[2.354088E2,6.335144E1,5.500974E2,2.2594997E2,-4.8093164E2,1.4681543E3,2.092101E2,-1.7216919E2,7.191172E2,-6.900254E2,7.3174805E1,5.7015155E2,-4.620957E2],"categories":[],"categories_nodes":[],"categories_segments":[],"categories_sizes":[],"default_left":[1,1,1,1,1,0,1,0,0,0,0,0,0],"id":59,"left_children":[1,3,5,7,9,-1,11,-1,-1,-1,-1,-1,-1],"loss_changes":[1.2104739E6,1.5246605E6,2.1964788E6,2.676221E6,5.1393325E5,0E0,1.9595792E6,0E0,0E0,0E0,0E0,0E0,0E0],"parents":[2147483647,0,0,1,1,2,2,3,3,4,4,6,6],"right_children":[2,4,6,8,10,-1,12,-1,-1,-1,-1,-1,-1],"split_conditions":[7.55677E-1,7.087995E-1,9.071008E-1,-2.9965943E-1,1.976943E-1,1.4681543E2,3.4466806E-1,-1.7216919E1,7.191172E1,-6.900254E1,7.3174806E0,5.7015156E1,-4.620957E1],"split_indices":[1,9,5,9,0,0,9,0,0,0,0,0,0],"split_type":[0,0,0,0,0,0,0,0,0,0,0,0,0],"sum_hessian":[2.2E1,1.5E1,7E0,1.2E1,3E0,1E0,6E0,7E0,5E0,2E0,1E0,4E0,2E0],"tree_param":{"num_deleted":"0","num_feature":"10","num_nodes":"13","size_leaf_vector":"0"}},{"base_weights":[2.1841711E2,3.550502E2,-1.4460854E2,1.0044219E3,2.0150586E2,-6.4224335E2,7.3298566E2,1.1502793E3,5.157352E1,-8.132422E1,-7.621421E2,6.9515625E1,1.0299629E3],"categories":[],"categories_nodes":[],"categories_segments":[],"categories_sizes":[],"default_left":[1,1,1,0,1,1,1,0,0,0,0,0,0],"id":60,"left_children":[1,3,5,-1,7,9,11,-1,-1,-1,-1,-1,-1],"loss_changes":[1.1921736E6,1.4926282E6,3.527805E6,0E0,2.0744532E6,2.7428688E5,5.1950775E5,0E0,0E0,0E0,0E0,0E0,0E0],"parents":[2147483647,0,0,1,1,2,2,4,4,5,5,6,6],"right_children":[2,4,6,-1,8,10,12,-1,-1,-1,-1,-1,-1],"split_conditions":[7.2433776E-1,-1.2391572E0,-4.6171084E-2,1.0044219E2,-1.0064307E0,9.769622E-1,1.3983688E0,1.1502793E2,5.157352E0,-8.132422E0,-7.621421E1,6.9515624E0,1.0299629E2],"split_indices":[0,9,9,0,1,0,0,0,0,0,0,0,0],"split_type":[0,0,0,0,0,0,0,0,0,0,0,0,0],"sum_hessian":[2.2E1,1.6E1,6E0,2E0,1.4E1,4E0,2E0,1E0,1.3E1,1E0,3E0,1E0,1E0],"tree_param":{"num_deleted":"0","num_feature":"10","num_nodes":"13","size_leaf_vector":"0"}},{"base_weights":[2.0728099E2,4.7952515E1,5.0002783E2,1.9827298E2,-4.5257715E2,1.392168E3,1.736981E2,-1.5318457E2,6.338376E2,-6.474629E2,6.604004E1,-3.039878E2,6.079595E2],"categories":[],"categories_nodes":[],"categories_segments":[],"categories_sizes":[],"default_left":[1,1,1,1,1,0,1,0,0,0,0,0,0],"id":61,"left_children":[1,3,5,7,9,-1,11,-1,-1,-1,-1,-1,-1],"loss_changes":[1.0488092E6,1.2935715E6,2.0872379E6,2.087166E6,4.4704294E5,0E0,1.636896E6,0E0,0E0,0E0,0E0,0E0,0E0],"parents":[2147483647,0,0,1,1,2,2,3,3,4,4,6,6],"right_children":[2,4,6,8,10,-1,12,-1,-1,-1,-1,-1,-1],"split_conditions":[7.55677E-1,7.087995E-1,9.071008E-1,-2.9965943E-1,1.976943E-1,1.392168E2,1.1913693E0,-1.5318458E1,6.338376E1,-6.474629E1,6.604004E0,-3.0398779E1,6.0795948E1],"split_indices":[1,9,5,9,0,0,6,0,0,0,0,0,0],"split_type":[0,0,0,0,0,0,0,0,0,0,0,0,0],"sum_hessian":[2.2E1,1.5E1,7E0,1.2E1,3E0,1E0,6E0,7E0,5E0,2E0,1E0,3E0,3E0],"tree_param":{"num_deleted":"0","num_feature":"10","num_nodes":"13","size_leaf_vector":"0"}},{"base_weights":[1.9348938E2,3.1811868E2,-1.368231E2,9.2230206E2,1.7607408E2,-5.9535706E2,6.730078E2,1.0610742E3,3.706878E1,-6.2058594E1,-7.13167E2,6.273828E1,9.4677344E2],"categories":[],"categories_nodes":[],"categories_segments":[],"categories_sizes":[],"default_left":[1,1,1,0,1,1,1,0,0,0,0,0,0],"id":62,"left_children":[1,3,5,-1,7,9,11,-1,-1,-1,-1,-1,-1],"loss_changes":[9.9035794E5,1.2965631E6,3.0000245E6,0E0,1.805963E6,2.6988112E5,4.4181338E5,0E0,0E0,0E0,0E0,0E0,0E0],"parents":[2147483647,0,0,1,1,2,2,4,4,5,5,6,6],"right_children":[2,4,6,-1,8,10,12,-1,-1,-1,-1,-1,-1],"split_conditions":[7.2433776E-1,-1.2391572E0,-4.6171084E-2,9.223021E1,-1.0064307E0,9.769622E-1,1.3983688E0,1.0610742E2,3.706878E0,-6.2058597E0,-7.13167E1,6.273828E0,9.4677345E1],"split_indices":[0,9,9,0,1,0,0,0,0,0,0,0,0],"split_type":[0,0,0,0,0,0,0,0,0,0,0,0,0],"sum_hessian":[2.2E1,1.6E1,6E0,2E0,1.4E1,4E0,2E0,1E0,1.3E1,1E0,3E0,1E0,1E0],"tree_param":{"num_deleted":"0","num_feature":"10","num_nodes":"13","size_leaf_vector":"0"}},{"base_weights":[1.8394345E2,3.53407E1,4.58156E2,1.7435066E2,-4.2527686E2,1.3207051E3,1.4626256E2,-1.3533374E2,5.582048E2,-6.067702E2,5.9601562E1,4.7316718E2,-4.4733267E2],"categories":[],"categories_nodes":[],"categories_segments":[],"categories_sizes":[],"default_left":[1,1,1,1,1,0,1,0,0,0,0,0,0],"id":63,"left_children":[1,3,5,7,9,-1,11,-1,-1,-1,-1,-1,-1],"loss_changes":[9.210295E5,1.0986341E6,1.9590176E6,1.6209011E6,3.8817325E5,0E0,1.5700064E6,0E0,0E0,0E0,0E0,0E0,0E0],"parents":[2147483647,0,0,1,1,2,2,3,3,4,4,6,6],"right_children":[2,4,6,8,10,-1,12,-1,-1,-1,-1,-1,-1],"split_conditions":[7.55677E-1,7.087995E-1,9.071008E-1,-2.9965943E-1,1.976943E-1,1.3207051E2,3.4466806E-1,-1.3533374E1,5.5820477E1,-6.067702E1,5.9601564E0,4.731672E1,-4.473327E1],"split_indices":[1,9,5,9,0,0,9,0,0,0,0,0,0],"split_type":[0,0,0,0,0,0,0,0,0,0,0,0,0],"sum_hessian":[2.2E1,1.5E1,7E0,1.2E1,3E0,1E0,6E0,7E0,5E0,2E0,1E0,4E0,2E0],"tree_param":{"num_deleted":"0","num_feature":"10","num_nodes":"13","size_leaf_vector":"0"}},{"base_weights":[1.7086337E2,2.2278392E2,-4.8569434E2,1.5039026E2,8.715254E2,2.8860376E2,-3.4961368E2],"categories":[],"categories_nodes":[],"categories_segments":[],"categories_sizes":[],"default_left":[1,1,0,1,0,0,0],"id":64,"left_children":[1,3,-1,5,-1,-1,-1],"loss_changes":[8.9224825E5,9.021559E5,0E0,1.552153E6,0E0,0E0,0E0],"parents":[2147483647,0,0,1,1,3,3],"right_children":[2,4,-1,6,-1,-1,-1],"split_conditions":[1.4615066E0,1.3983688E0,-4.8569435E1,7.2433776E-1,8.715254E1,2.8860376E1,-3.496137E1],"split_indices":[0,0,0,0,0,0,0],"split_type":[0,0,0,0,0,0,0],"sum_hessian":[2.2E1,2.1E1,1E0,2E1,1E0,1.6E1,4E0],"tree_param":{"num_deleted":"0","num_feature":"10","num_nodes":"7","size_leaf_vector":"0"}},{"base_weights":[1.5518912E2,1.7135864E1,4.1189697E2,2.5172136E2,-2.489148E2,1.2402402E3,1.1638505E2,3.9853882E2,-4.6140918E2,-6.3285675E2,-1.5458008E1,4.2499023E2,-4.3675195E2],"categories":[],"categories_nodes":[],"categories_segments":[],"categories_sizes":[],"default_left":[1,1,1,1,1,0,1,0,0,0,0,0,0],"id":65,"left_children":[1,3,5,7,9,-1,11,-1,-1,-1,-1,-1,-1],"loss_changes":[8.0804694E5,1.0612431E6,1.8139371E6,1.1261896E6,7.0728825E5,0E0,1.3805219E6,0E0,0E0,0E0,0E0,0E0,0E0],"parents":[2147483647,0,0,1,1,2,2,3,3,4,4,6,6],"right_children":[2,4,6,8,10,-1,12,-1,-1,-1,-1,-1,-1],"split_conditions":[7.55677E-1,-1.6896735E-1,9.071008E-1,1.4615066E0,-8.980875E-1,1.24024025E2,3.4466806E-1,3.985388E1,-4.614092E1,-6.3285675E1,-1.5458008E0,4.2499023E1,-4.3675198E1],"split_indices":[1,7,5,0,0,0,9,0,0,0,0,0,0],"split_type":[0,0,0,0,0,0,0,0,0,0,0,0,0],"sum_hessian":[2.2E1,1.5E1,7E0,8E0,7E0,1E0,6E0,7E0,1E0,2E0,5E0,4E0,2E0],"tree_param":{"num_deleted":"0","num_feature":"10","num_nodes":"13","size_leaf_vector":"0"}},{"base_weights":[1.419189E2,2.5021507E2,-1.4136021E2,8.028633E2,1.23004425E2,-5.4278284E2,5.7479755E2,9.4575195E2,-3.3169644E0,-8.638281E1,-6.352871E2,5.4174805E1,8.080215E2],"categories":[],"categories_nodes":[],"categories_segments":[],"categories_sizes":[],"default_left":[1,1,1,0,1,1,1,0,0,0,0,0,0],"id":66,"left_children":[1,3,5,-1,7,9,11,-1,-1,-1,-1,-1,-1],"loss_changes":[7.4096556E5,1.0963908E6,2.3243635E6,0E0,1.5620961E6,1.56217E5,3.204908E5,0E0,0E0,0E0,0E0,0E0,0E0],"parents":[2147483647,0,0,1,1,2,2,4,4,5,5,6,6],"right_children":[2,4,6,-1,8,10,12,-1,-1,-1,-1,-1,-1],"split_conditions":[7.2433776E-1,-1.2391572E0,-4.6171084E-2,8.028633E1,-1.0064307E0,9.769622E-1,1.3983688E0,9.4575195E1,-3.3169645E-1,-8.638282E0,-6.3528713E1,5.4174805E0,8.080215E1],"split_indices":[0,9,9,0,1,0,0,0,0,0,0,0,0],"split_type":[0,0,0,0,0,0,0,0,0,0,0,0,0],"sum_hessian":[2.2E1,1.6E1,6E0,2E0,1.4E1,4E0,2E0,1E0,1.3E1,1E0,3E0,1E0,1E0],"tree_param":{"num_deleted":"0","num_feature":"10","num_nodes":"13","size_leaf_vector":"0"}},{"base_weights":[1.3592664E2,6.7370605E0,3.7731494E2,1.3364949E2,-4.074126E2,1.1783945E3,9.453292E1,-1.3323267E2,4.6721744E2,-5.7752734E2,5.146582E1,-3.0766162E2,4.7309424E2],"categories":[],"categories_nodes":[],"categories_segments":[],"categories_sizes":[],"default_left":[1,1,1,1,1,0,1,0,0,0,0,0,0],"id":67,"left_children":[1,3,5,7,9,-1,11,-1,-1,-1,-1,-1,-1],"loss_changes":[7.147096E5,8.954224E5,1.70085E6,1.219552E6,3.419708E5,0E0,1.2113399E6,0E0,0E0,0E0,0E0,0E0,0E0],"parents":[2147483647,0,0,1,1,2,2,3,3,4,4,6,6],"right_children":[2,4,6,8,10,-1,12,-1,-1,-1,-1,-1,-1],"split_conditions":[7.55677E-1,7.087995E-1,9.071008E-1,-2.9965943E-1,1.976943E-1,1.17839455E2,1.1913693E0,-1.3323267E1,4.6721745E1,-5.7752735E1,5.146582E0,-3.0766163E1,4.7309425E1],"split_indices":[1,9,5,9,0,0,6,0,0,0,0,0,0],"split_type":[0,0,0,0,0,0,0,0,0,0,0,0,0],"sum_hessian":[2.2E1,1.5E1,7E0,1.2E1,3E0,1E0,6E0,7E0,5E0,2E0,1E0,3E0,3E0],"tree_param":{"num_deleted":"0","num_feature":"10","num_nodes":"13","size_leaf_vector":"0"}},{"base_weights":[1.2734163E2,2.6587527E2,-7.9339645E1,1.1410036E2,1.1194746E3,-2.9377026E2,5.189219E2,8.751035E2,-2.2241861E1,-6.1531915E2,1.816084E2],"categories":[],"categories_nodes":[],"categories_segments":[],"categories_sizes":[],"default_left":[1,1,1,1,0,1,0,0,0,0,0],"id":68,"left_children":[1,3,5,7,-1,9,-1,-1,-1,-1,-1],"loss_changes":[6.796376E5,1.686037E6,1.4352998E6,1.3683031E6,0E0,1.334607E6,0E0,0E0,0E0,0E0,0E0],"parents":[2147483647,0,0,1,1,2,2,3,3,5,5],"right_children":[2,4,6,8,-1,10,-1,-1,-1,-1,-1],"split_conditions":[2.8214192E-1,1.3480176E-1,1.1913693E0,-1.0064307E0,1.11947464E2,1.3345139E0,5.189219E1,8.751035E1,-2.2241862E0,-6.1531918E1,1.8160841E1],"split_indices":[0,0,6,1,0,0,0,0,0,0,0],"split_type":[0,0,0,0,0,0,0,0,0,0,0],"sum_hessian":[2.2E1,1.3E1,9E0,1.2E1,1E0,7E0,2E0,1E0,1.1E1,4E0,3E0],"tree_param":{"num_deleted":"0","num_feature":"10","num_nodes":"11","size_leaf_vector":"0"}},{"base_weights":[1.2355333E2,1.690799E2,-4.3901562E2,1.0711421E2,7.351797E2,2.1348863E2,-2.7598163E2],"categories":[],"categories_nodes":[],"categories_segments":[],"categories_sizes":[],"default_left":[1,1,0,1,0,0,0],"id":69,"left_children":[1,3,-1,5,-1,-1,-1],"loss_changes":[6.633009E5,6.929846E5,0E0,9.1470244E5,0E0,0E0,0E0],"parents":[2147483647,0,0,1,1,3,3],"right_children":[2,4,-1,6,-1,-1,-1],"split_conditions":[1.4615066E0,1.3983688E0,-4.390156E1,7.2433776E-1,7.351797E1,2.1348864E1,-2.7598164E1],"split_indices":[0,0,0,0,0,0,0],"split_type":[0,0,0,0,0,0,0],"sum_hessian":[2.2E1,2.1E1,1E0,2E1,1E0,1.6E1,4E0],"tree_param":{"num_deleted":"0","num_feature":"10","num_nodes":"7","size_leaf_vector":"0"}},{"base_weights":[1.1221382E2,-5.088745E0,3.3279224E2,1.1282197E2,-3.8702637E2,1.0528262E3,7.9526505E1,-1.1124487E2,3.9277408E2,-5.5177606E2,5.361133E1,3.5488242E2,-4.0590884E2],"categories":[],"categories_nodes":[],"categories_segments":[],"categories_sizes":[],"default_left":[1,1,1,1,1,0,1,0,0,0,0,0,0],"id":70,"left_children":[1,3,5,7,9,-1,11,-1,-1,-1,-1,-1,-1],"loss_changes":[5.96805E5,7.642177E5,1.3751519E6,8.59158E5,3.199612E5,0E0,1.0797224E6,0E0,0E0,0E0,0E0,0E0,0E0],"parents":[2147483647,0,0,1,1,2,2,3,3,4,4,6,6],"right_children":[2,4,6,8,10,-1,12,-1,-1,-1,-1,-1,-1],"split_conditions":[7.55677E-1,7.087995E-1,9.071008E-1,-2.9965943E-1,1.976943E-1,1.05282616E2,3.4466806E-1,-1.1124488E1,3.927741E1,-5.517761E1,5.361133E0,3.5488243E1,-4.0590885E1],"split_indices":[1,9,5,9,0,0,9,0,0,0,0,0,0],"split_type":[0,0,0,0,0,0,0,0,0,0,0,0,0],"sum_hessian":[2.2E1,1.5E1,7E0,1.2E1,3E0,1E0,6E0,7E0,5E0,2E0,1E0,4E0,2E0],"tree_param":{"num_deleted":"0","num_feature":"10","num_nodes":"13","size_leaf_vector":"0"}},{"base_weights":[1.044065E2,1.4885254E2,-4.3670312E2,9.129492E1,6.7878125E2,2.2983524E2,-1.625625E2],"categories":[],"categories_nodes":[],"categories_segments":[],"categories_sizes":[],"default_left":[1,1,0,1,0,0,0],"id":71,"left_children":[1,3,-1,5,-1,-1,-1],"loss_changes":[6.181585E5,6.0906225E5,0E0,7.759219E5,0E0,0E0,0E0],"parents":[2147483647,0,0,1,1,3,3],"right_children":[2,4,-1,6,-1,-1,-1],"split_conditions":[1.4615066E0,1.3983688E0,-4.3670315E1,2.8214192E-1,6.787813E1,2.2983524E1,-1.625625E1],"split_indices":[0,0,0,0,0,0,0],"split_type":[0,0,0,0,0,0,0],"sum_hessian":[2.2E1,2.1E1,1E0,2E1,1E0,1.3E1,7E0],"tree_param":{"num_deleted":"0","num_feature":"10","num_nodes":"7","size_leaf_vector":"0"}},{"base_weights":[9.531046E1,4.400288E2,2.1601269E1,6.9686066E2,-1.652334E2,-5.748757E2,1.1981402E2,2.242259E2,-3.0168408E2],"categories":[],"categories_nodes":[],"categories_segments":[],"categories_sizes":[],"default_left":[1,1,1,0,0,0,1,0,0],"id":72,"left_children":[1,3,5,-1,-1,-1,7,-1,-1],"loss_changes":[5.748998E5,7.3694706E5,1.240511E6,0E0,0E0,0E0,8.598148E5,0E0,0E0],"parents":[2147483647,0,0,1,1,2,2,6,6],"right_children":[2,4,6,-1,-1,-1,8,-1,-1],"split_conditions":[-1.2391572E0,9.5605385E-1,-8.4567976E-1,6.9686066E1,-1.652334E1,-5.7487568E1,1.0698459E0,2.242259E1,-3.016841E1],"split_indices":[9,0,9,0,0,0,1,0,0],"split_type":[0,0,0,0,0,0,0,0,0],"sum_hessian":[2.2E1,3E0,1.9E1,2E0,1E0,2E0,1.7E1,1.4E1,3E0],"tree_param":{"num_deleted":"0","num_feature":"10","num_nodes":"9","size_leaf_vector":"0"}},{"base_weights":[8.525493E1,-3.0315552E1,3.05739E2,1.6145486E2,-2.4226782E2,9.774824E2,7.013532E1,2.881565E2,-4.260791E2,-5.6103644E2,-4.2505535E1,3.1477655E2,-3.6097852E2],"categories":[],"categories_nodes":[],"categories_segments":[],"categories_sizes":[],"default_left":[1,1,1,1,1,0,1,0,0,0,0,0,0],"id":73,"left_children":[1,3,5,7,9,-1,11,-1,-1,-1,-1,-1,-1],"loss_changes":[5.95342E5,6.894541E5,1.1975658E6,7.9275106E5,4.8557647E5,0E0,8.519051E5,0E0,0E0,0E0,0E0,0E0,0E0],"parents":[2147483647,0,0,1,1,2,2,3,3,4,4,6,6],"right_children":[2,4,6,8,10,-1,12,-1,-1,-1,-1,-1,-1],"split_conditions":[7.55677E-1,-1.6896735E-1,9.071008E-1,1.4615066E0,-8.980875E-1,9.7748245E1,3.4466806E-1,2.8815649E1,-4.260791E1,-5.6103645E1,-4.2505536E0,3.1477655E1,-3.609785E1],"split_indices":[1,7,5,0,0,0,9,0,0,0,0,0,0],"split_type":[0,0,0,0,0,0,0,0,0,0,0,0,0],"sum_hessian":[2.2E1,1.5E1,7E0,8E0,7E0,1E0,6E0,7E0,1E0,2E0,5E0,4E0,2E0],"tree_param":{"num_deleted":"0","num_feature":"10","num_nodes":"13","size_leaf_vector":"0"}},{"base_weights":[7.755426E1,-3.1918701E1,2.868059E2,7.930153E1,-3.854048E2,9.286074E2,6.2461773E1,2.9944644E2,-1.5217215E2,-5.36166E2,3.3439453E1,-2.594917E2,3.687998E2],"categories":[],"categories_nodes":[],"categories_segments":[],"categories_sizes":[],"default_left":[1,1,1,1,1,0,1,0,0,0,0,0,0],"id":74,"left_children":[1,3,5,7,9,-1,11,-1,-1,-1,-1,-1,-1],"loss_changes":[5.360247E5,6.596E5,1.0938728E6,7.080181E5,2.70511E5,0E0,7.860867E5,0E0,0E0,0E0,0E0,0E0,0E0],"parents":[2147483647,0,0,1,1,2,2,3,3,4,4,6,6],"right_children":[2,4,6,8,10,-1,12,-1,-1,-1,-1,-1,-1],"split_conditions":[7.55677E-1,7.087995E-1,9.071008E-1,-2.2672024E-1,1.976943E-1,9.286074E1,1.1913693E0,2.9944645E1,-1.5217216E1,-5.3616604E1,3.3439453E0,-2.5949171E1,3.6879982E1],"split_indices":[1,9,5,0,0,0,6,0,0,0,0,0,0],"split_type":[0,0,0,0,0,0,0,0,0,0,0,0,0],"sum_hessian":[2.2E1,1.5E1,7E0,1.2E1,3E0,1E0,6E0,6E0,6E0,2E0,1E0,3E0,3E0],"tree_param":{"num_deleted":"0","num_feature":"10","num_nodes":"13","size_leaf_vector":"0"}},{"base_weights":[7.276622E1,-3.0948364E1,2.710996E2,1.6750928E2,-2.0391644E2,8.8217773E2,5.7777344E1,3.0491547E2,-3.97167E2,-3.9680664E2,-4.1336914E1,2.8522266E2,-3.4055728E2],"categories":[],"categories_nodes":[],"categories_segments":[],"categories_sizes":[],"default_left":[1,1,1,1,1,0,1,0,0,0,0,0,0],"id":75,"left_children":[1,3,5,7,9,-1,11,-1,-1,-1,-1,-1,-1],"loss_changes":[4.815016E5,5.833873E5,9.918826E5,7.4182244E5,2.6583722E5,0E0,7.3133006E5,0E0,0E0,0E0,0E0,0E0,0E0],"parents":[2147483647,0,0,1,1,2,2,3,3,4,4,6,6],"right_children":[2,4,6,8,10,-1,12,-1,-1,-1,-1,-1,-1],"split_conditions":[7.55677E-1,-3.6799264E-1,9.071008E-1,1.4615066E0,-8.980875E-1,8.821777E1,3.4466806E-1,3.0491547E1,-3.97167E1,-3.9680664E1,-4.1336913E0,2.8522266E1,-3.405573E1],"split_indices":[1,7,5,0,0,0,9,0,0,0,0,0,0],"split_type":[0,0,0,0,0,0,0,0,0,0,0,0,0],"sum_hessian":[2.2E1,1.5E1,7E0,7E0,8E0,1E0,6E0,6E0,1E0,3E0,5E0,4E0,2E0],"tree_param":{"num_deleted":"0","num_feature":"10","num_nodes":"13","size_leaf_vector":"0"}},{"base_weights":[6.677802E1,3.6868262E2,3.0582032E0,5.883581E2,-1.4517188E2,-5.293008E2,9.16148E1,3.9380157E2,-2.2852957E1],"categories":[],"categories_nodes":[],"categories_segments":[],"categories_sizes":[],"default_left":[1,1,1,0,0,0,1,0,0],"id":76,"left_children":[1,3,5,-1,-1,-1,7,-1,-1],"loss_changes":[4.4133056E5,5.369379E5,9.9136975E5,0E0,0E0,0E0,6.316311E5,0E0,0E0],"parents":[2147483647,0,0,1,1,2,2,6,6],"right_children":[2,4,6,-1,-1,-1,8,-1,-1],"split_conditions":[-1.2391572E0,9.5605385E-1,-8.4567976E-1,5.883581E1,-1.4517188E1,-5.293008E1,-1.0064307E0,3.9380157E1,-2.2852957E0],"split_indices":[9,0,9,0,0,0,1,0,0],"split_type":[0,0,0,0,0,0,0,0,0],"sum_hessian":[2.2E1,3E0,1.9E1,2E0,1E0,2E0,1.7E1,4E0,1.3E1],"tree_param":{"num_deleted":"0","num_feature":"10","num_nodes":"9","size_leaf_vector":"0"}},{"base_weights":[6.133857E1,1.0021751E2,-3.9699902E2,4.8618675E1,5.918965E2,1.7333147E2,-1.7570605E2],"categories":[],"categories_nodes":[],"categories_segments":[],"categories_sizes":[],"default_left":[1,1,0,1,0,0,0],"id":77,"left_children":[1,3,-1,5,-1,-1,-1],"loss_changes":[4.4963884E5,5.293641E5,0E0,6.179548E5,0E0,0E0,0E0],"parents":[2147483647,0,0,1,1,3,3],"right_children":[2,4,-1,6,-1,-1,-1],"split_conditions":[1.4615066E0,1.3983688E0,-3.96999E1,2.8214192E-1,5.9189648E1,1.7333147E1,-1.7570606E1],"split_indices":[0,0,0,0,0,0,0],"split_type":[0,0,0,0,0,0,0],"sum_hessian":[2.2E1,2.1E1,1E0,2E1,1E0,1.3E1,7E0],"tree_param":{"num_deleted":"0","num_feature":"10","num_nodes":"7","size_leaf_vector":"0"}},{"base_weights":[5.604144E1,-4.4925293E1,2.5096973E2,6.0933594E1,-3.7773535E2,8.305449E2,4.9523994E1,-1.1800342E2,2.893607E2,-5.0739127E2,5.616211E0,-2.3961084E2,3.2627783E2],"categories":[],"categories_nodes":[],"categories_segments":[],"categories_sizes":[],"default_left":[1,1,1,1,1,0,1,0,0,0,0,0,0],"id":78,"left_children":[1,3,5,7,9,-1,11,-1,-1,-1,-1,-1,-1],"loss_changes":[4.6394416E5,5.8671125E5,8.928917E5,5.655083E5,2.0166481E5,0E0,6.3831394E5,0E0,0E0,0E0,0E0,0E0,0E0],"parents":[2147483647,0,0,1,1,2,2,3,3,4,4,6,6],"right_children":[2,4,6,8,10,-1,12,-1,-1,-1,-1,-1,-1],"split_conditions":[7.55677E-1,7.087995E-1,9.071008E-1,-2.9965943E-1,1.976943E-1,8.30545E1,1.1913693E0,-1.1800342E1,2.893607E1,-5.073913E1,5.616211E-1,-2.3961084E1,3.2627785E1],"split_indices":[1,9,5,9,0,0,6,0,0,0,0,0,0],"split_type":[0,0,0,0,0,0,0,0,0,0,0,0,0],"sum_hessian":[2.2E1,1.5E1,7E0,1.2E1,3E0,1E0,6E0,7E0,5E0,2E0,1E0,3E0,3E0],"tree_param":{"num_deleted":"0","num_feature":"10","num_nodes":"13","size_leaf_vector":"0"}},{"base_weights":[5.2988365E1,9.099849E1,-3.916172E2,2.0672057E2,-9.9124565E1,2.4419212E1,6.5636914E2,-4.0924414E2,2.3081992E2],"categories":[],"categories_nodes":[],"categories_segments":[],"categories_sizes":[],"default_left":[1,1,0,1,1,0,0,0,0],"id":79,"left_children":[1,3,-1,5,7,-1,-1,-1,-1],"loss_changes":[4.2432538E5,5.0452262E5,0E0,1.1315735E6,1.0153619E6,0E0,0E0,0E0,0E0],"parents":[2147483647,0,0,1,1,3,3,4,4],"right_children":[2,4,-1,6,8,-1,-1,-1,-1],"split_conditions":[1.4615066E0,1.0144046E-1,-3.916172E1,-2.9965943E-1,9.7721684E-1,2.4419212E0,6.563692E1,-4.0924416E1,2.3081991E1],"split_indices":[0,9,0,9,9,0,0,0,0],"split_type":[0,0,0,0,0,0,0,0,0],"sum_hessian":[2.2E1,2.1E1,1E0,1.3E1,8E0,1E1,3E0,4E0,4E0],"tree_param":{"num_deleted":"0","num_feature":"10","num_nodes":"9","size_leaf_vector":"0"}},{"base_weights":[4.817128E1,3.432583E2,-1.3254687E1,5.4064325E2,-1.2444824E2,-4.8769595E2,6.655523E1,1.7709406E2,-1.8403809E2],"categories":[],"categories_nodes":[],"categories_segments":[],"categories_sizes":[],"default_left":[1,1,1,0,0,0,1,0,0],"id":80,"left_children":[1,3,5,-1,-1,-1,7,-1,-1],"loss_changes":[4.214479E5,4.3655503E5,7.897611E5,0E0,0E0,0E0,5.3119725E5,0E0,0E0],"parents":[2147483647,0,0,1,1,2,2,6,6],"right_children":[2,4,6,-1,-1,-1,8,-1,-1],"split_conditions":[-1.2391572E0,9.5605385E-1,-8.4567976E-1,5.4064327E1,-1.2444824E1,-4.8769596E1,8.6944056E-1,1.7709406E1,-1.8403809E1],"split_indices":[9,0,9,0,0,0,7,0,0],"split_type":[0,0,0,0,0,0,0,0,0],"sum_hessian":[2.2E1,3E0,1.9E1,2E0,1E0,2E0,1.7E1,1.2E1,5E0],"tree_param":{"num_deleted":"0","num_feature":"10","num_nodes":"9","size_leaf_vector":"0"}},{"base_weights":[4.301316E1,-5.095813E1,2.255791E2,5.0235725E1,-3.6709863E2,7.686211E2,3.819866E1,2.3991211E2,-1.4661719E2,-4.7942447E2,-1.5060547E1,2.3403165E2,-3.0092252E2],"categories":[],"categories_nodes":[],"categories_segments":[],"categories_sizes":[],"default_left":[1,1,1,1,1,0,1,0,0,0,0,0,0],"id":81,"left_children":[1,3,5,7,9,-1,11,-1,-1,-1,-1,-1,-1],"loss_changes":[4.060821E5,5.303051E5,7.846833E5,5.2057378E5,1.509515E5,0E0,5.353032E5,0E0,0E0,0E0,0E0,0E0,0E0],"parents":[2147483647,0,0,1,1,2,2,3,3,4,4,6,6],"right_children":[2,4,6,8,10,-1,12,-1,-1,-1,-1,-1,-1],"split_conditions":[7.55677E-1,7.087995E-1,9.071008E-1,-2.2672024E-1,1.976943E-1,7.6862114E1,3.4466806E-1,2.399121E1,-1.4661719E1,-4.7942448E1,-1.5060548E0,2.3403166E1,-3.0092253E1],"split_indices":[1,9,5,0,0,0,9,0,0,0,0,0,0],"split_type":[0,0,0,0,0,0,0,0,0,0,0,0,0],"sum_hessian":[2.2E1,1.5E1,7E0,1.2E1,3E0,1E0,6E0,6E0,6E0,2E0,1E0,4E0,2E0],"tree_param":{"num_deleted":"0","num_feature":"10","num_nodes":"13","size_leaf_vector":"0"}},{"base_weights":[4.001834E1,7.579732E1,-3.7355957E2,3.0503069E1,5.134883E2,1.3855078E2,-1.6239331E2],"categories":[],"categories_nodes":[],"categories_segments":[],"categories_sizes":[],"default_left":[1,1,0,1,0,0,0],"id":82,"left_children":[1,3,-1,5,-1,-1,-1],"loss_changes":[3.6865488E5,4.204845E5,0E0,4.60182E5,0E0,0E0,0E0],"parents":[2147483647,0,0,1,1,3,3],"right_children":[2,4,-1,6,-1,-1,-1],"split_conditions":[1.4615066E0,1.3983688E0,-3.7355957E1,2.8214192E-1,5.1348827E1,1.3855079E1,-1.6239332E1],"split_indices":[0,0,0,0,0,0,0],"split_type":[0,0,0,0,0,0,0],"sum_hessian":[2.2E1,2.1E1,1E0,2E1,1E0,1.3E1,7E0],"tree_param":{"num_deleted":"0","num_feature":"10","num_nodes":"7","size_leaf_vector":"0"}},{"base_weights":[3.652106E1,-5.4859375E1,2.147168E2,3.882482E1,-3.4561816E2,7.232617E2,3.874442E1,2.3888313E2,-1.1607202E2,-4.5669922E2,-6.1875E0,2.2228203E2,-2.800664E2],"categories":[],"categories_nodes":[],"categories_segments":[],"categories_sizes":[],"default_left":[1,1,1,1,1,0,1,0,0,0,0,0,0],"id":83,"left_children":[1,3,5,7,9,-1,11,-1,-1,-1,-1,-1,-1],"loss_changes":[3.8630212E5,4.4925062E5,6.8789644E5,4.3057688E5,1.4799147E5,0E0,4.7185016E5,0E0,0E0,0E0,0E0,0E0,0E0],"parents":[2147483647,0,0,1,1,2,2,3,3,4,4,6,6],"right_children":[2,4,6,8,10,-1,12,-1,-1,-1,-1,-1,-1],"split_conditions":[7.55677E-1,7.087995E-1,9.071008E-1,-3.6799264E-1,1.976943E-1,7.232617E1,3.4466806E-1,2.3888313E1,-1.1607203E1,-4.566992E1,-6.1875004E-1,2.2228203E1,-2.8006641E1],"split_indices":[1,9,5,7,0,0,9,0,0,0,0,0,0],"split_type":[0,0,0,0,0,0,0,0,0,0,0,0,0],"sum_hessian":[2.2E1,1.5E1,7E0,1.2E1,3E0,1E0,6E0,5E0,7E0,2E0,1E0,4E0,2E0],"tree_param":{"num_deleted":"0","num_feature":"10","num_nodes":"13","size_leaf_vector":"0"}},{"base_weights":[3.4283966E1,3.0718457E2,-2.2010351E1,4.7422656E2,-9.69707E1,-4.615918E2,5.247602E1,9.8718864E1,-3.6682617E2],"categories":[],"categories_nodes":[],"categories_segments":[],"categories_sizes":[],"default_left":[1,1,1,0,0,0,1,0,0],"id":84,"left_children":[1,3,5,-1,-1,-1,7,-1,-1],"loss_changes":[3.601046E5,3.160297E5,6.79079E5,0E0,0E0,0E0,3.8522775E5,0E0,0E0],"parents":[2147483647,0,0,1,1,2,2,6,6],"right_children":[2,4,6,-1,-1,-1,8,-1,-1],"split_conditions":[-1.2391572E0,9.5605385E-1,-8.4567976E-1,4.7422657E1,-9.69707E0,-4.615918E1,1.4615066E0,9.871886E0,-3.6682617E1],"split_indices":[9,0,9,0,0,0,0,0,0],"split_type":[0,0,0,0,0,0,0,0,0],"sum_hessian":[2.2E1,3E0,1.9E1,2E0,1E0,2E0,1.7E1,1.6E1,1E0],"tree_param":{"num_deleted":"0","num_feature":"10","num_nodes":"9","size_leaf_vector":"0"}},{"base_weights":[2.932388E1,2.8589795E2,-2.3457129E1,4.4261197E2,-9.212207E1,-4.30819E2,4.5739693E1,2.9001678E2,-4.4769253E1],"categories":[],"categories_nodes":[],"categories_segments":[],"categories_sizes":[],"default_left":[1,1,1,0,0,0,1,0,0],"id":85,"left_children":[1,3,5,-1,-1,-1,7,-1,-1],"loss_changes":[3.1817784E5,2.7773844E5,5.8346844E5,0E0,0E0,0E0,4.1095053E5,0E0,0E0],"parents":[2147483647,0,0,1,1,2,2,6,6],"right_children":[2,4,6,-1,-1,-1,8,-1,-1],"split_conditions":[-1.2391572E0,9.5605385E-1,-8.4567976E-1,4.4261196E1,-9.212207E0,-4.30819E1,-1.0064307E0,2.9001678E1,-4.4769254E0],"split_indices":[9,0,9,0,0,0,1,0,0],"split_type":[0,0,0,0,0,0,0,0,0],"sum_hessian":[2.2E1,3E0,1.9E1,2E0,1E0,2E0,1.7E1,4E0,1.3E1],"tree_param":{"num_deleted":"0","num_feature":"10","num_nodes":"9","size_leaf_vector":"0"}},{"base_weights":[2.710844E1,6.133931E1,-3.6298535E2,2.0790178E1,4.5643555E2,1.2221345E2,-1.5929932E2],"categories":[],"categories_nodes":[],"categories_segments":[],"categories_sizes":[],"default_left":[1,1,0,1,0,0,0],"id":86,"left_children":[1,3,-1,5,-1,-1,-1],"loss_changes":[3.2939E5,3.4296844E5,0E0,4.0303906E5,0E0,0E0,0E0],"parents":[2147483647,0,0,1,1,3,3],"right_children":[2,4,-1,6,-1,-1,-1],"split_conditions":[1.4615066E0,1.3983688E0,-3.6298534E1,2.8214192E-1,4.5643555E1,1.2221345E1,-1.5929932E1],"split_indices":[0,0,0,0,0,0,0],"split_type":[0,0,0,0,0,0,0],"sum_hessian":[2.2E1,2.1E1,1E0,2E1,1E0,1.3E1,7E0],"tree_param":{"num_deleted":"0","num_feature":"10","num_nodes":"7","size_leaf_vector":"0"}},{"base_weights":[2.4642578E1,-5.9295776E1,1.8943896E2,3.0765776E1,-3.3717188E2,6.7828906E2,2.27048E1,1.8859012E2,-1.3145369E2,-4.379961E2,-1.734961E1,-2.1062598E2,2.5035938E2],"categories":[],"categories_nodes":[],"categories_segments":[],"categories_sizes":[],"default_left":[1,1,1,1,1,0,1,0,0,0,0,0,0],"id":87,"left_children":[1,3,5,7,9,-1,11,-1,-1,-1,-1,-1,-1],"loss_changes":[3.2938588E5,4.1078862E5,6.3666375E5,3.576192E5,1.2138425E5,0E0,4.245639E5,0E0,0E0,0E0,0E0,0E0,0E0],"parents":[2147483647,0,0,1,1,2,2,3,3,4,4,6,6],"right_children":[2,4,6,8,10,-1,12,-1,-1,-1,-1,-1,-1],"split_conditions":[7.55677E-1,7.087995E-1,9.071008E-1,-2.2672024E-1,1.976943E-1,6.782891E1,1.1913693E0,1.8859013E1,-1.314537E1,-4.379961E1,-1.7349609E0,-2.1062597E1,2.5035938E1],"split_indices":[1,9,5,0,0,0,6,0,0,0,0,0,0],"split_type":[0,0,0,0,0,0,0,0,0,0,0,0,0],"sum_hessian":[2.2E1,1.5E1,7E0,1.2E1,3E0,1E0,6E0,6E0,6E0,2E0,1E0,3E0,3E0],"tree_param":{"num_deleted":"0","num_feature":"10","num_nodes":"13","size_leaf_vector":"0"}},{"base_weights":[2.356853E1,-5.585559E1,1.794707E2,2.8128155E1,-3.1483887E2,6.44375E2,2.1002232E1,-1.1173071E2,2.0991862E2,-4.0879688E2,-1.6482422E1,1.8845117E2,-2.6508008E2],"categories":[],"categories_nodes":[],"categories_segments":[],"categories_sizes":[],"default_left":[1,1,1,1,1,0,1,0,0,0,0,0,0],"id":88,"left_children":[1,3,5,7,9,-1,11,-1,-1,-1,-1,-1,-1],"loss_changes":[2.9481947E5,3.56862E5,5.75848E5,3.539795E5,1.0539394E5,0E0,3.852839E5,0E0,0E0,0E0,0E0,0E0,0E0],"parents":[2147483647,0,0,1,1,2,2,3,3,4,4,6,6],"right_children":[2,4,6,8,10,-1,12,-1,-1,-1,-1,-1,-1],"split_conditions":[7.55677E-1,7.087995E-1,9.071008E-1,-2.9965943E-1,1.976943E-1,6.44375E1,3.4466806E-1,-1.1173072E1,2.0991863E1,-4.087969E1,-1.6482422E0,1.8845118E1,-2.6508009E1],"split_indices":[1,9,5,9,0,0,9,0,0,0,0,0,0],"split_type":[0,0,0,0,0,0,0,0,0,0,0,0,0],"sum_hessian":[2.2E1,1.5E1,7E0,1.2E1,3E0,1E0,6E0,7E0,5E0,2E0,1E0,4E0,2E0],"tree_param":{"num_deleted":"0","num_feature":"10","num_nodes":"13","size_leaf_vector":"0"}},{"base_weights":[2.2257982E1,5.4975143E1,-3.4875977E2,1.4688268E2,-9.410048E1,1.1965554E0,5.1079883E2,-3.4694922E2,1.7756836E2],"categories":[],"categories_nodes":[],"categories_segments":[],"categories_sizes":[],"default_left":[1,1,0,1,1,0,0,0,0],"id":89,"left_children":[1,3,-1,5,7,-1,-1,-1,-1],"loss_changes":[2.9836203E5,3.152475E5,0E0,7.4163425E5,6.798274E5,0E0,0E0,0E0,0E0],"parents":[2147483647,0,0,1,1,3,3,4,4],"right_children":[2,4,-1,6,8,-1,-1,-1,-1],"split_conditions":[1.4615066E0,1.0144046E-1,-3.4875977E1,-2.9965943E-1,9.7721684E-1,1.1965554E-1,5.1079884E1,-3.4694923E1,1.7756836E1],"split_indices":[0,9,0,9,9,0,0,0,0],"split_type":[0,0,0,0,0,0,0,0,0],"sum_hessian":[2.2E1,2.1E1,1E0,1.3E1,8E0,1E1,3E0,4E0,4E0],"tree_param":{"num_deleted":"0","num_feature":"10","num_nodes":"9","size_leaf_vector":"0"}},{"base_weights":[2.0005604E1,2.6407715E2,-2.9808985E1,3.970703E2,-6.745117E1,-3.953978E2,3.2778538E1,1.1817803E2,-1.577168E2],"categories":[],"categories_nodes":[],"categories_segments":[],"categories_sizes":[],"default_left":[1,1,1,0,0,0,1,0,0],"id":90,"left_children":[1,3,5,-1,-1,-1,7,-1,-1],"loss_changes":[2.875133E5,2.0314684E5,4.705865E5,0E0,0E0,0E0,3.1146634E5,0E0,0E0],"parents":[2147483647,0,0,1,1,2,2,6,6],"right_children":[2,4,6,-1,-1,-1,8,-1,-1],"split_conditions":[-1.2391572E0,9.5605385E-1,-8.4567976E-1,3.970703E1,-6.745117E0,-3.953978E1,8.6944056E-1,1.1817803E1,-1.577168E1],"split_indices":[9,0,9,0,0,0,7,0,0],"split_type":[0,0,0,0,0,0,0,0,0],"sum_hessian":[2.2E1,3E0,1.9E1,2E0,1E0,2E0,1.7E1,1.2E1,5E0],"tree_param":{"num_deleted":"0","num_feature":"10","num_nodes":"9","size_leaf_vector":"0"}},{"base_weights":[1.7547215E1,4.900222E1,-3.3723145E2,1.4567593E2,-8.157383E1,1.3148082E0,6.264414E2,-2.6881152E2,1.5942618E2],"categories":[],"categories_nodes":[],"categories_segments":[],"categories_sizes":[],"default_left":[1,1,0,1,1,0,0,0,0],"id":91,"left_children":[1,3,-1,5,7,-1,-1,-1,-1],"loss_changes":[2.7319506E5,2.8959528E5,0E0,9.014263E5,4.9409844E5,0E0,0E0,0E0,0E0],"parents":[2147483647,0,0,1,1,3,3,4,4],"right_children":[2,4,-1,6,8,-1,-1,-1,-1],"split_conditions":[1.4615066E0,4.7714077E-2,-3.3723145E1,-2.9965943E-1,9.7721684E-1,1.3148083E-1,6.2644142E1,-2.6881153E1,1.5942618E1],"split_indices":[0,9,0,9,9,0,0,0,0],"split_type":[0,0,0,0,0,0,0,0,0],"sum_hessian":[2.2E1,2.1E1,1E0,1.2E1,9E0,1E1,2E0,5E0,4E0],"tree_param":{"num_deleted":"0","num_feature":"10","num_nodes":"9","size_leaf_vector":"0"}},{"base_weights":[1.6580078E1,-5.853723E1,1.6474219E2,2.158714E1,-3.0430713E2,5.8939844E2,1.9877232E1,7.678109E1,-3.2037012E2,-3.8013086E2,-3.841797E1,-1.3600781E2,2.730599E2],"categories":[],"categories_nodes":[],"categories_segments":[],"categories_sizes":[],"default_left":[1,1,1,1,1,0,1,0,0,0,0,0,0],"id":92,"left_children":[1,3,5,7,9,-1,11,-1,-1,-1,-1,-1,-1],"loss_changes":[2.6562294E5,3.2164366E5,4.804269E5,2.6996E5,6.603897E4,0E0,3.1341003E5,0E0,0E0,0E0,0E0,0E0,0E0],"parents":[2147483647,0,0,1,1,2,2,3,3,4,4,6,6],"right_children":[2,4,6,8,10,-1,12,-1,-1,-1,-1,-1,-1],"split_conditions":[7.55677E-1,7.087995E-1,9.071008E-1,1.4615066E0,1.976943E-1,5.8939846E1,1.2229043E0,7.678109E0,-3.2037014E1,-3.801309E1,-3.8417969E0,-1.3600781E1,2.730599E1],"split_indices":[1,9,5,0,0,0,1,0,0,0,0,0,0],"split_type":[0,0,0,0,0,0,0,0,0,0,0,0,0],"sum_hessian":[2.2E1,1.5E1,7E0,1.2E1,3E0,1E0,6E0,1.1E1,1E0,2E0,1E0,4E0,2E0],"tree_param":{"num_deleted":"0","num_feature":"10","num_nodes":"13","size_leaf_vector":"0"}},{"base_weights":[1.5201596E1,-5.6822144E1,1.5734888E2,1.7554237E1,-2.8433984E2,5.5992773E2,1.9847935E1,-1.0411084E2,1.7684863E2,-3.5478842E2,-3.649707E1,1.6708945E2,-2.3217058E2],"categories":[],"categories_nodes":[],"categories_segments":[],"categories_sizes":[],"default_left":[1,1,1,1,1,0,1,0,0,0,0,0,0],"id":93,"left_children":[1,3,5,7,9,-1,11,-1,-1,-1,-1,-1,-1],"loss_changes":[2.4441442E5,2.7574247E5,4.317263E5,2.703592E5,5.6891938E4,0E0,2.9854634E5,0E0,0E0,0E0,0E0,0E0,0E0],"parents":[2147483647,0,0,1,1,2,2,3,3,4,4,6,6],"right_children":[2,4,6,8,10,-1,12,-1,-1,-1,-1,-1,-1],"split_conditions":[7.55677E-1,7.087995E-1,9.071008E-1,-2.9965943E-1,1.976943E-1,5.5992775E1,3.4466806E-1,-1.0411084E1,1.7684864E1,-3.5478844E1,-3.649707E0,1.6708944E1,-2.3217058E1],"split_indices":[1,9,5,9,0,0,9,0,0,0,0,0,0],"split_type":[0,0,0,0,0,0,0,0,0,0,0,0,0],"sum_hessian":[2.2E1,1.5E1,7E0,1.2E1,3E0,1E0,6E0,7E0,5E0,2E0,1E0,4E0,2E0],"tree_param":{"num_deleted":"0","num_feature":"10","num_nodes":"13","size_leaf_vector":"0"}},{"base_weights":[1.4447945E1,2.3617383E2,-3.0619629E1,3.5675E2,-6.2777344E1,-3.6730533E2,2.7195747E1,6.564189E1,-3.1319434E2],"categories":[],"categories_nodes":[],"categories_segments":[],"categories_sizes":[],"default_left":[1,1,1,0,0,0,1,0,0],"id":94,"left_children":[1,3,5,-1,-1,-1,7,-1,-1],"loss_changes":[2.3706245E5,1.6658134E5,3.9930138E5,0E0,0E0,0E0,2.5611902E5,0E0,0E0],"parents":[2147483647,0,0,1,1,2,2,6,6],"right_children":[2,4,6,-1,-1,-1,8,-1,-1],"split_conditions":[-1.2391572E0,9.5605385E-1,-8.4567976E-1,3.5675E1,-6.2777343E0,-3.6730534E1,1.4615066E0,6.5641894E0,-3.1319433E1],"split_indices":[9,0,9,0,0,0,0,0,0],"split_type":[0,0,0,0,0,0,0,0,0],"sum_hessian":[2.2E1,3E0,1.9E1,2E0,1E0,2E0,1.7E1,1.6E1,1E0],"tree_param":{"num_deleted":"0","num_feature":"10","num_nodes":"9","size_leaf_vector":"0"}},{"base_weights":[1.1608186E1,9.1686386E1,-1.0166211E2,1.7408354E1,5.286504E2,-2.2061746E2,1.319253E2,4.9413477E2,-6.3496746E1,-3.9381494E2,7.734375E0,5.449219E-1,2.630332E2],"categories":[],"categories_nodes":[],"categories_segments":[],"categories_sizes":[],"default_left":[1,1,1,1,0,1,1,0,0,0,0,0,0],"id":95,"left_children":[1,3,5,7,-1,9,11,-1,-1,-1,-1,-1,-1],"loss_changes":[2.179421E5,4.451927E5,3.0696975E5,5.327807E5,0E0,2.7989566E5,6.8756695E4,0E0,0E0,0E0,0E0,0E0,0E0],"parents":[2147483647,0,0,1,1,2,2,3,3,5,5,6,6],"right_children":[2,4,6,8,-1,10,12,-1,-1,-1,-1,-1,-1],"split_conditions":[2.8214192E-1,1.3480176E-1,1.0719867E0,-1.0064307E0,5.286504E1,1.3345139E0,1.2229043E0,4.941348E1,-6.3496747E0,-3.9381496E1,7.734375E-1,5.4492187E-2,2.630332E1],"split_indices":[0,0,5,1,0,0,1,0,0,0,0,0,0],"split_type":[0,0,0,0,0,0,0,0,0,0,0,0,0],"sum_hessian":[2.2E1,1.3E1,9E0,1.2E1,1E0,6E0,3E0,1E0,1.1E1,3E0,3E0,2E0,1E0],"tree_param":{"num_deleted":"0","num_feature":"10","num_nodes":"13","size_leaf_vector":"0"}},{"base_weights":[1.4085683E1,2.247622E2,-2.8753906E1,3.263151E2,-3.9948242E1,-3.2757422E2,2.264692E1,5.9028606E1,-2.979209E2],"categories":[],"categories_nodes":[],"categories_segments":[],"categories_sizes":[],"default_left":[1,1,1,0,0,0,1,0,0],"id":96,"left_children":[1,3,5,-1,-1,-1,7,-1,-1],"loss_changes":[2.140446E5,1.2056417E5,3.1461075E5,0E0,0E0,0E0,2.2751623E5,0E0,0E0],"parents":[2147483647,0,0,1,1,2,2,6,6],"right_children":[2,4,6,-1,-1,-1,8,-1,-1],"split_conditions":[-1.2391572E0,9.5605385E-1,-8.4567976E-1,3.263151E1,-3.9948242E0,-3.2757423E1,1.4615066E0,5.9028606E0,-2.979209E1],"split_indices":[9,0,9,0,0,0,0,0,0],"split_type":[0,0,0,0,0,0,0,0,0],"sum_hessian":[2.2E1,3E0,1.9E1,2E0,1E0,2E0,1.7E1,1.6E1,1E0],"tree_param":{"num_deleted":"0","num_feature":"10","num_nodes":"9","size_leaf_vector":"0"}},{"base_weights":[1.14595785E1,2.0944434E2,-2.8710352E1,3.045599E2,-3.795117E1,-3.057357E2,1.9055555E1,1.9591171E2,-4.546847E1],"categories":[],"categories_nodes":[],"categories_segments":[],"categories_sizes":[],"default_left":[1,1,1,0,0,0,1,0,0],"id":97,"left_children":[1,3,5,-1,-1,-1,7,-1,-1],"loss_changes":[1.88933E5,1.0568306E5,2.7047328E5,0E0,0E0,0E0,2.143143E5,0E0,0E0],"parents":[2147483647,0,0,1,1,2,2,6,6],"right_children":[2,4,6,-1,-1,-1,8,-1,-1],"split_conditions":[-1.2391572E0,9.5605385E-1,-8.4567976E-1,3.0455992E1,-3.7951171E0,-3.0573568E1,-1.0064307E0,1.9591171E1,-4.5468473E0],"split_indices":[9,0,9,0,0,0,1,0,0],"split_type":[0,0,0,0,0,0,0,0,0],"sum_hessian":[2.2E1,3E0,1.9E1,2E0,1E0,2E0,1.7E1,4E0,1.3E1],"tree_param":{"num_deleted":"0","num_feature":"10","num_nodes":"9","size_leaf_vector":"0"}},{"base_weights":[1.0797639E1,3.790847E1,-2.928203E2,1.1837165E2,-9.146854E1,4.509943E0,4.0189844E2,-2.8435663E2,1.1971328E2],"categories":[],"categories_nodes":[],"categories_segments":[],"categories_sizes":[],"default_left":[1,1,0,1,1,0,0,0,0],"id":98,"left_children":[1,3,-1,5,7,-1,-1,-1,-1],"loss_changes":[2.0042106E5,2.3984917E5,0E0,4.501473E5,4.006514E5,0E0,0E0,0E0,0E0],"parents":[2147483647,0,0,1,1,3,3,4,4],"right_children":[2,4,-1,6,8,-1,-1,-1,-1],"split_conditions":[1.4615066E0,1.0144046E-1,-2.9282032E1,-2.9965943E-1,9.7721684E-1,4.509943E-1,4.0189846E1,-2.8435663E1,1.1971328E1],"split_indices":[0,9,0,9,9,0,0,0,0],"split_type":[0,0,0,0,0,0,0,0,0],"sum_hessian":[2.2E1,2.1E1,1E0,1.3E1,8E0,1E1,3E0,4E0,4E0],"tree_param":{"num_deleted":"0","num_feature":"10","num_nodes":"9","size_leaf_vector":"0"}},{"base_weights":[9.495839E0,8.70625E1,-1.0004707E2,1.7520433E1,4.955547E2,-1.596326E2,2.1811133E2,4.3658594E2,-5.3783855E1,-3.997588E2,-7.964697E1],"categories":[],"categories_nodes":[],"categories_segments":[],"categories_sizes":[],"default_left":[1,1,1,1,0,1,0,0,0,0,0],"id":99,"left_children":[1,3,5,7,-1,9,-1,-1,-1,-1,-1],"loss_changes":[2.0413853E5,3.8902116E5,2.2439403E5,4.1193644E5,0E0,1.4102023E5,0E0,0E0,0E0,0E0,0E0],"parents":[2147483647,0,0,1,1,2,2,3,3,5,5],"right_children":[2,4,6,8,-1,10,-1,-1,-1,-1,-1],"split_conditions":[2.8214192E-1,1.3480176E-1,1.2229043E0,-1.0064307E0,4.955547E1,5.118413E-1,2.1811132E1,4.3658596E1,-5.3783855E0,-3.997588E1,-7.9646974E0],"split_indices":[0,0,1,1,0,0,0,0,0,0,0],"split_type":[0,0,0,0,0,0,0,0,0,0,0],"sum_hessian":[2.2E1,1.3E1,9E0,1.2E1,1E0,8E0,1E0,1E0,1.1E1,1E0,7E0],"tree_param":{"num_deleted":"0","num_feature":"10","num_nodes":"11","size_leaf_vector":"0"}},{"base_weights":[1.1229364E1,8.463058E1,-9.265527E1,-1.3942649E1,3.3454932E2,-3.797705E2,-1.8556858E1,4.1475586E2,-9.8288086E1,1.3221419E2,4.7077734E2,-2.1819206E2,6.965206E1],"categories":[],"categories_nodes":[],"categories_segments":[],"categories_sizes":[],"default_left":[1,1,1,1,1,0,1,0,0,0,0,0,0],"id":100,"left_children":[1,3,5,7,9,-1,11,-1,-1,-1,-1,-1,-1],"loss_changes":[1.8322242E5,3.4955866E5,2.057005E5,4.3851194E5,4.8011438E4,0E0,1.7368398E5,0E0,0E0,0E0,0E0,0E0,0E0],"parents":[2147483647,0,0,1,1,2,2,3,3,4,4,6,6],"right_children":[2,4,6,8,10,-1,12,-1,-1,-1,-1,-1,-1],"split_conditions":[2.8214192E-1,7.55677E-1,5.118413E-1,-1.0064307E0,6.734565E-3,-3.797705E1,-1.581661E0,4.1475586E1,-9.828809E0,1.3221419E1,4.7077736E1,-2.1819206E1,6.965206E0],"split_indices":[0,1,0,1,0,0,1,0,0,0,0,0,0],"split_type":[0,0,0,0,0,0,0,0,0,0,0,0,0],"sum_hessian":[2.2E1,1.3E1,9E0,1E1,3E0,1E0,8E0,1E0,9E0,2E0,1E0,2E0,6E0],"tree_param":{"num_deleted":"0","num_feature":"10","num_nodes":"13","size_leaf_vector":"0"}},{"base_weights":[1.180681E1,8.273466E1,-8.867285E1,2.0292969E1,4.4723828E2,-1.4379709E2,2.0372266E2,3.9401758E2,-4.3685547E1,-3.6078223E2,-7.157617E1],"categories":[],"categories_nodes":[],"categories_segments":[],"categories_sizes":[],"default_left":[1,1,1,1,0,1,0,0,0,0,0],"id":101,"left_children":[1,3,5,7,-1,9,-1,-1,-1,-1,-1],"loss_changes":[1.7125284E5,3.095673E5,1.9047553E5,3.2804738E5,0E0,1.15214375E5,0E0,0E0,0E0,0E0,0E0],"parents":[2147483647,0,0,1,1,2,2,3,3,5,5],"right_children":[2,4,6,8,-1,10,-1,-1,-1,-1,-1],"split_conditions":[2.8214192E-1,1.3480176E-1,1.2229043E0,-1.0064307E0,4.4723827E1,5.118413E-1,2.0372267E1,3.940176E1,-4.3685546E0,-3.6078224E1,-7.157617E0],"split_indices":[0,0,1,1,0,0,0,0,0,0,0],"split_type":[0,0,0,0,0,0,0,0,0,0,0],"sum_hessian":[2.2E1,1.3E1,9E0,1.2E1,1E0,8E0,1E0,1E0,1.1E1,1E0,7E0],"tree_param":{"num_deleted":"0","num_feature":"10","num_nodes":"11","size_leaf_vector":"0"}},{"base_weights":[1.3099949E1,3.730531E1,-2.5970898E2,1.1592924E2,-6.863633E1,1.0439453E1,4.6408203E2,-3.136439E2,3.1821045E1],"categories":[],"categories_nodes":[],"categories_segments":[],"categories_sizes":[],"default_left":[1,1,0,1,1,0,0,0,0],"id":102,"left_children":[1,3,-1,5,7,-1,-1,-1,-1],"loss_changes":[1.6156761E5,1.91207E5,0E0,4.7260056E5,2.5610864E5,0E0,0E0,0E0,0E0],"parents":[2147483647,0,0,1,1,3,3,4,4],"right_children":[2,4,-1,6,8,-1,-1,-1,-1],"split_conditions":[1.4615066E0,4.7714077E-2,-2.59709E1,-2.9965943E-1,-8.980875E-1,1.0439453E0,4.6408203E1,-3.136439E1,3.1821046E0],"split_indices":[0,9,0,9,0,0,0,0,0],"split_type":[0,0,0,0,0,0,0,0,0],"sum_hessian":[2.2E1,2.1E1,1E0,1.2E1,9E0,1E1,2E0,2E0,7E0],"tree_param":{"num_deleted":"0","num_feature":"10","num_nodes":"9","size_leaf_vector":"0"}},{"base_weights":[1.1498556E1,7.9967636E1,-8.550801E1,-9.248935E0,3.053213E2,-1.3790126E2,1.9301562E2,8.627365E1,-2.9273373E2,1.24904945E2,4.2328516E2,-3.4433398E2,-6.905542E1],"categories":[],"categories_nodes":[],"categories_segments":[],"categories_sizes":[],"default_left":[1,1,1,1,1,1,0,0,0,0,0,0,0],"id":103,"left_children":[1,3,5,7,9,11,-1,-1,-1,-1,-1,-1,-1],"loss_changes":[1.5960273E5,2.842978E5,1.7254469E5,3.2312644E5,3.2260062E4,1.0413019E5,0E0,0E0,0E0,0E0,0E0,0E0,0E0],"parents":[2147483647,0,0,1,1,2,2,3,3,4,4,5,5],"right_children":[2,4,6,8,10,12,-1,-1,-1,-1,-1,-1,-1],"split_conditions":[2.8214192E-1,7.55677E-1,1.2229043E0,7.087995E-1,6.734565E-3,5.118413E-1,1.9301563E1,8.627365E0,-2.9273375E1,1.2490495E1,4.2328518E1,-3.44334E1,-6.905542E0],"split_indices":[0,1,1,9,0,0,0,0,0,0,0,0,0],"split_type":[0,0,0,0,0,0,0,0,0,0,0,0,0],"sum_hessian":[2.2E1,1.3E1,9E0,1E1,3E0,8E0,1E0,8E0,2E0,2E0,1E0,1E0,7E0],"tree_param":{"num_deleted":"0","num_feature":"10","num_nodes":"13","size_leaf_vector":"0"}},{"base_weights":[1.0876529E1,1.8343457E2,-2.4178905E1,2.6409244E2,-2.9269531E1,-2.7767773E2,1.9414171E1,4.917624E1,-2.4327051E2],"categories":[],"categories_nodes":[],"categories_segments":[],"categories_sizes":[],"default_left":[1,1,1,0,0,0,1,0,0],"id":104,"left_children":[1,3,5,-1,-1,-1,7,-1,-1],"loss_changes":[1.4356448E5,7.635489E4,2.2640675E5,0E0,0E0,0E0,1.5268784E5,0E0,0E0],"parents":[2147483647,0,0,1,1,2,2,6,6],"right_children":[2,4,6,-1,-1,-1,8,-1,-1],"split_conditions":[-1.2391572E0,9.5605385E-1,-8.4567976E-1,2.6409245E1,-2.926953E0,-2.7767775E1,1.4615066E0,4.917624E0,-2.4327051E1],"split_indices":[9,0,9,0,0,0,0,0,0],"split_type":[0,0,0,0,0,0,0,0,0],"sum_hessian":[2.2E1,3E0,1.9E1,2E0,1E0,2E0,1.7E1,1.6E1,1E0],"tree_param":{"num_deleted":"0","num_feature":"10","num_nodes":"9","size_leaf_vector":"0"}},{"base_weights":[8.758322E0,7.064453E1,-7.87582E1,-1.3654474E1,2.8480566E2,-3.2957617E2,-1.4269965E1,3.4433984E2,-8.388789E1,1.1329948E2,3.996621E2,-1.0576237E2,1.2653613E2],"categories":[],"categories_nodes":[],"categories_segments":[],"categories_sizes":[],"default_left":[1,1,1,1,1,0,1,0,0,0,0,0,0],"id":105,"left_children":[1,3,5,7,9,-1,11,-1,-1,-1,-1,-1,-1],"loss_changes":[1.3013335E5,2.5663888E5,1.5704505E5,3.0546072E5,3.3512844E4,0E0,1.2932695E5,0E0,0E0,0E0,0E0,0E0,0E0],"parents":[2147483647,0,0,1,1,2,2,3,3,4,4,6,6],"right_children":[2,4,6,8,10,-1,12,-1,-1,-1,-1,-1,-1],"split_conditions":[2.8214192E-1,7.55677E-1,5.118413E-1,-1.0064307E0,6.734565E-3,-3.295762E1,-4.6171084E-2,3.4433987E1,-8.388789E0,1.1329947E1,3.9966213E1,-1.0576237E1,1.2653613E1],"split_indices":[0,1,0,1,0,0,9,0,0,0,0,0,0],"split_type":[0,0,0,0,0,0,0,0,0,0,0,0,0],"sum_hessian":[2.2E1,1.3E1,9E0,1E1,3E0,1E0,8E0,1E0,9E0,2E0,1E0,5E0,3E0],"tree_param":{"num_deleted":"0","num_feature":"10","num_nodes":"13","size_leaf_vector":"0"}},{"base_weights":[9.902853E0,1.7834766E2,-2.428125E1,2.528086E2,-2.2517578E1,-2.528444E2,1.5161567E1,1.0427213E2,-6.65541E1],"categories":[],"categories_nodes":[],"categories_segments":[],"categories_sizes":[],"default_left":[1,1,1,0,0,0,1,0,0],"id":106,"left_children":[1,3,5,-1,-1,-1,7,-1,-1],"loss_changes":[1.367676E5,6.5519094E4,1.8413702E5,0E0,0E0,0E0,1.3801088E5,0E0,0E0],"parents":[2147483647,0,0,1,1,2,2,6,6],"right_children":[2,4,6,-1,-1,-1,8,-1,-1],"split_conditions":[-1.2391572E0,9.5605385E-1,-8.4567976E-1,2.5280859E1,-2.2517579E0,-2.5284441E1,4.7714077E-2,1.0427214E1,-6.6554103E0],"split_indices":[9,0,9,0,0,0,9,0,0],"split_type":[0,0,0,0,0,0,0,0,0],"sum_hessian":[2.2E1,3E0,1.9E1,2E0,1E0,2E0,1.7E1,8E0,9E0],"tree_param":{"num_deleted":"0","num_feature":"10",