{"learner":{"attributes":{"best_iteration":"999","best_ntree_limit":"1000","scikit_learn":"{\"n_estimators\": 1000, \"objective\": \"reg:squarederror\", \"max_depth\": 3, \"max_leaves\": null, \"max_bin\": null, \"grow_policy\": null, \"learning_rate\": 0.1, \"verbosity\": null, \"booster\": null, \"tree_method\": null, \"gamma\": null, \"min_child_weight\": null, \"max_delta_step\": null, \"subsample\": null, \"sampling_method\": null, \"colsample_bytree\": null, \"colsample_bylevel\": null, \"colsample_bynode\": null, \"reg_alpha\": null, \"reg_lambda\": null, \"scale_pos_weight\": null, \"base_score\": null, \"missing\": NaN, \"num_parallel_tree\": null, \"random_state\": 42, \"n_jobs\": null, \"monotone_constraints\": null, \"interaction_constraints\": null, \"importance_type\": null, \"gpu_id\": null, \"validate_parameters\": null, \"predictor\": null, \"enable_categorical\": false, \"feature_types\": null, \"max_cat_to_onehot\": null, \"max_cat_threshold\": null, \"eval_metric\": null, \"early_stopping_rounds\": null, \"callbacks\": null, \"_estimator_type\": \"regressor\"}"},"feature_names":[],"feature_types":[],"gradient_booster":{"model":{"gbtree_model_param":{"num_parallel_tree":"1","num_trees":"1000","size_leaf_vector":"0"},"tree_info":[0,0,0,0,0,0,0,0,0,0,0,0,0,0,0,0,0,0,0,0,0,0,0,0,0,0,0,0,0,0,0,0,0,0,0,0,0,0,0,0,0,0,0,0,0,0,0,0,0,0,0,0,0,0,0,0,0,0,0,0,0,0,0,0,0,0,0,0,0,0,0,0,0,0,0,0,0,0,0,0,0,0,0,0,0,0,0,0,0,0,0,0,0,0,0,0,0,0,0,0,0,0,0,0,0,0,0,0,0,0,0,0,0,0,0,0,0,0,0,0,0,0,0,0,0,0,0,0,0,0,0,0,0,0,0,0,0,0,0,0,0,0,0,0,0,0,0,0,0,0,0,0,0,0,0,0,0,0,0,0,0,0,0,0,0,0,0,0,0,0,0,0,0,0,0,0,0,0,0,0,0,0,0,0,0,0,0,0,0,0,0,0,0,0,0,0,0,0,0,0,0,0,0,0,0,0,0,0,0,0,0,0,0,0,0,0,0,0,0,0,0,0,0,0,0,0,0,0,0,0,0,0,0,0,0,0,0,0,0,0,0,0,0,0,0,0,0,0,0,0,0,0,0,0,0,0,0,0,0,0,0,0,0,0,0,0,0,0,0,0,0,0,0,0,0,0,0,0,0,0,0,0,0,0,0,0,0,0,0,0,0,0,0,0,0,0,0,0,0,0,0,0,0,0,0,0,0,0,0,0,0,0,0,0,0,0,0,0,0,0,0,0,0,0,0,0,0,0,0,0,0,0,0,0,0,0,0,0,0,0,0,0,0,0,0,0,0,0,0,0,0,0,0,0,0,0,0,0,0,0,0,0,0,0,0,0,0,0,0,0,0,0,0,0,0,0,0,0,0,0,0,0,0,0,0,0,0,0,0,0,0,0,0,0,0,0,0,0,0,0,0,0,0,0,0,0,0,0,0,0,0,0,0,0,0,0,0,0,0,0,0,0,0,0,0,0,0,0,0,0,0,0,0,0,0,0,0,0,0,0,0,0,0,0,0,0,0,0,0,0,0,0,0,0,0,0,0,0,0,0,0,0,0,0,0,0,0,0,0,0,0,0,0,0,0,0,0,0,0,0,0,0,0,0,0,0,0,0,0,0,0,0,0,0,0,0,0,0,0,0,0,0,0,0,0,0,0,0,0,0,0,0,0,0,0,0,0,0,0,0,0,0,0,0,0,0,0,0,0,0,0,0,0,0,0,0,0,0,0,0,0,0,0,0,0,0,0,0,0,0,0,0,0,0,0,0,0,0,0,0,0,0,0,0,0,0,0,0,0,0,0,0,0,0,0,0,0,0,0,0,0,0,0,0,0,0,0,0,0,0,0,0,0,0,0,0,0,0,0,0,0,0,0,0,0,0,0,0,0,0,0,0,0,0,0,0,0,0,0,0,0,0,0,0,0,0,0,0,0,0,0,0,0,0,0,0,0,0,0,0,0,0,0,0,0,0,0,0,0,0,0,0,0,0,0,0,0,0,0,0,0,0,0,0,0,0,0,0,0,0,0,0,0,0,0,0,0,0,0,0,0,0,0,0,0,0,0,0,0,0,0,0,0,0,0,0,0,0,0,0,0,0,0,0,0,0,0,0,0,0,0,0,0,0,0,0,0,0,0,0,0,0,0,0,0,0,0,0,0,0,0,0,0,0,0,0,0,0,0,0,0,0,0,0,0,0,0,0,0,0,0,0,0,0,0,0,0,0,0,0,0,0,0,0,0,0,0,0,0,0,0,0,0,0,0,0,0,0,0,0,0,0,0,0,0,0,0,0,0,0,0,0,0,0,0,0,0,0,0,0,0,0,0,0,0,0,0,0,0,0,0,0,0,0,0,0,0,0,0,0,0,0,0,0,0,0,0,0,0,0,0,0,0,0,0,0,0,0,0,0,0,0,0,0,0,0,0,0,0,0,0,0,0,0,0,0,0,0,0,0,0,0,0,0,0,0,0,0,0,0,0,0,0,0,0,0,0,0,0,0,0,0,0,0,0,0,0,0,0,0,0,0,0,0,0,0,0,0,0,0,0,0,0,0,0,0,0,0,0,0,0,0,0,0,0,0,0,0,0,0,0,0,0,0,0,0,0,0,0,0,0,0,0,0,0,0,0,0,0,0,0,0,0,0,0,0,0,0,0,0,0,0,0,0,0,0,0,0,0,0,0,0,0,0,0,0,0,0,0,0,0,0,0,0,0,0,0,0,0,0,0,0,0,0,0,0,0,0,0,0,0,0,0,0,0,0,0,0,0,0],"trees":[{"base_weights":[3.3379504E4],"categories":[],"categories_nodes":[],"categories_segments":[],"categories_sizes":[],"default_left":[0],"id":0,"left_children":[-1],"loss_changes":[0E0],"parents":[2147483647],"right_children":[-1],"split_conditions":[3.3379504E3],"split_indices":[0],"split_type":[0],"sum_hessian":[1.31E2],"tree_param":{"num_deleted":"0","num_feature":"10","num_nodes":"1","size_leaf_vector":"0"}},{"base_weights":[3.0066842E4],"categories":[],"categories_nodes":[],"categories_segments":[],"categories_sizes":[],"default_left":[0],"id":1,"left_children":[-1],"loss_changes":[0E0],"parents":[2147483647],"right_children":[-1],"split_conditions":[3.0066843E3],"split_indices":[0],"split_type":[0],"sum_hessian":[1.31E2],"tree_param":{"num_deleted":"0","num_feature":"10","num_nodes":"1","size_leaf_vector":"0"}},{"base_weights":[2.7082936E4],"categories":[],"categories_nodes":[],"categories_segments":[],"categories_sizes":[],"default_left":[0],"id":2,"left_children":[-1],"loss_changes":[0E0],"parents":[2147483647],"right_children":[-1],"split_conditions":[2.7082937E3],"split_indices":[0],"split_type":[0],"sum_hessian":[1.31E2],"tree_param":{"num_deleted":"0","num_feature":"10","num_nodes":"1","size_leaf_vector":"0"}},{"base_weights":[2.4395156E4],"categories":[],"categories_nodes":[],"categories_segments":[],"categories_sizes":[],"default_left":[0],"id":3,"left_children":[-1],"loss_changes":[0E0],"parents":[2147483647],"right_children":[-1],"split_conditions":[2.4395156E3],"split_indices":[0],"split_type":[0],"sum_hessian":[1.31E2],"tree_param":{"num_deleted":"0","num_feature":"10","num_nodes":"1","size_leaf_vector":"0"}},{"base_weights":[2.1974123E4],"categories":[],"categories_nodes":[],"categories_segments":[],"categories_sizes":[],"default_left":[0],"id":4,"left_children":[-1],"loss_changes":[0E0],"parents":[2147483647],"right_children":[-1],"split_conditions":[2.1974124E3],"split_indices":[0],"split_type":[0],"sum_hessian":[1.31E2],"tree_param":{"num_deleted":"0","num_feature":"10","num_nodes":"1","size_leaf_vector":"0"}},{"base_weights":[1.979336E4,2.110977E4,1.7212252E4],"categories":[],"categories_nodes":[],"categories_segments":[],"categories_sizes":[],"default_left":[1,0,0],"id":5,"left_children":[1,-1,-1],"loss_changes":[8.516403E7,0E0,0E0],"parents":[2147483647,0,0],"right_children":[2,-1,-1],"split_conditions":[3.376433E-1,2.110977E3,1.7212252E3],"split_indices":[9,0,0],"split_type":[0,0,0],"sum_hessian":[1.31E2,8.2E1,4.9E1],"tree_param":{"num_deleted":"0","num_feature":"10","num_nodes":"3","size_leaf_vector":"0"}},{"base_weights":[1.7843055E4,1.9024225E4,1.5525449E4],"categories":[],"categories_nodes":[],"categories_segments":[],"categories_sizes":[],"default_left":[1,0,0],"id":6,"left_children":[1,-1,-1],"loss_changes":[6.598656E7,0E0,0E0],"parents":[2147483647,0,0],"right_children":[2,-1,-1],"split_conditions":[3.376433E-1,1.9024225E3,1.5525449E3],"split_indices":[9,0,0],"split_type":[0,0,0],"sum_hessian":[1.31E2,8.2E1,4.9E1],"tree_param":{"num_deleted":"0","num_feature":"10","num_nodes":"3","size_leaf_vector":"0"}},{"base_weights":[1.6084923E4,1.7144723E4,1.4003956E4,1.7231656E4,5.008122E3],"categories":[],"categories_nodes":[],"categories_segments":[],"categories_sizes":[],"default_left":[1,1,0,0,0],"id":7,"left_children":[1,3,-1,-1,-1],"loss_changes":[5.1021824E7,1.273856E6,0E0,0E0,0E0],"parents":[2147483647,0,0,1,1],"right_children":[2,4,-1,-1,-1],"split_conditions":[3.376433E-1,2.2113996E0,1.4003956E3,1.7231656E3,5.0081223E2],"split_indices":[9,1,0,0,0],"split_type":[0,0,0,0,0],"sum_hessian":[1.31E2,8.2E1,4.9E1,8.1E1,1E0],"tree_param":{"num_deleted":"0","num_feature":"10","num_nodes":"5","size_leaf_vector":"0"}},{"base_weights":[1.4503887E4,1.5457045E4,1.2631567E4,8.266463E3,1.5716486E4,1.2744957E4,3.5377383E3],"categories":[],"categories_nodes":[],"categories_segments":[],"categories_sizes":[],"default_left":[1,1,1,0,0,0,0],"id":8,"left_children":[1,3,5,-1,-1,-1,-1],"loss_changes":[4.032307E7,2.4920064E7,6.46912E6,0E0,0E0,0E0,0E0],"parents":[2147483647,0,0,1,1,2,2],"right_children":[2,4,6,-1,-1,-1,-1],"split_conditions":[3.376433E-1,-1.6495231E0,1.6927302E0,8.266463E2,1.5716487E3,1.2744957E3,3.5377383E2],"split_indices":[9,0,7,0,0,0,0],"split_type":[0,0,0,0,0,0,0],"sum_hessian":[1.31E2,8.2E1,4.9E1,4E0,7.8E1,4.8E1,1E0],"tree_param":{"num_deleted":"0","num_feature":"10","num_nodes":"7","size_leaf_vector":"0"}},{"base_weights":[1.3084003E4,1.3940236E4,1.1400976E4,7.6051455E3,1.4164732E4,1.4244488E4,3.9718916E3],"categories":[],"categories_nodes":[],"categories_segments":[],"categories_sizes":[],"default_left":[1,1,0,0,1,0,0],"id":9,"left_children":[1,3,-1,-1,5,-1,-1],"loss_changes":[3.1287296E7,1.0317824E7,0E0,0E0,7.64416E6,0E0,0E0],"parents":[2147483647,0,0,1,1,4,4],"right_children":[2,4,-1,-1,6,-1,-1],"split_conditions":[3.376433E-1,-1.6495231E0,1.1400975E3,7.605146E2,2.2113996E0,1.4244489E3,3.9718918E2],"split_indices":[9,0,0,0,1,0,0],"split_type":[0,0,0,0,0,0,0],"sum_hessian":[1.31E2,8.2E1,4.9E1,4E0,7.8E1,7.7E1,1E0],"tree_param":{"num_deleted":"0","num_feature":"10","num_nodes":"7","size_leaf_vector":"0"}},{"base_weights":[1.1803801E4,1.2577322E4,1.028368E4,3.652959E3,1.2641607E4,1.0379641E4,2.7908027E3],"categories":[],"categories_nodes":[],"categories_segments":[],"categories_sizes":[],"default_left":[1,1,1,0,0,0,0],"id":10,"left_children":[1,3,5,-1,-1,-1,-1],"loss_changes":[2.5870336E7,1.43872E6,6.983168E6,0E0,0E0,0E0,0E0],"parents":[2147483647,0,0,1,1,2,2],"right_children":[2,4,6,-1,-1,-1,-1],"split_conditions":[3.376433E-1,-2.0680537E0,1.6927302E0,3.652959E2,1.2641608E3,1.0379641E3,2.790803E2],"split_indices":[9,8,7,0,0,0,0],"split_type":[0,0,0,0,0,0,0],"sum_hessian":[1.31E2,8.2E1,4.9E1,1E0,8.1E1,4.8E1,1E0],"tree_param":{"num_deleted":"0","num_feature":"10","num_nodes":"7","size_leaf_vector":"0"}},{"base_weights":[1.0645743E4,1.1158806E4,8.838715E3,1.1208564E4,3.1412168E3,1.1618424E4,6.5646836E3,6.1651787E3,1.135759E4,9.031743E3,1.5827188E4,2.0571885E3,7.2016445E3],"categories":[],"categories_nodes":[],"categories_segments":[],"categories_sizes":[],"default_left":[1,1,1,1,0,1,1,0,0,0,0,0,0],"id":11,"left_children":[1,3,5,7,-1,9,11,-1,-1,-1,-1,-1,-1],"loss_changes":[2.3749632E7,4.287488E6,1.386478E8,3.634176E6,0E0,9.467008E6,4.547795E7,0E0,0E0,0E0,0E0,0E0,0E0],"parents":[2147483647,0,0,1,1,2,2,3,3,5,5,6,6],"right_children":[2,4,6,8,-1,10,12,-1,-1,-1,-1,-1,-1],"split_conditions":[7.628144E-1,2.2113996E0,-3.311749E-1,-1.6495231E0,3.1412167E2,-5.587226E-1,-5.515448E-2,6.165179E2,1.135759E3,9.031743E2,1.5827189E3,2.0571886E2,7.201645E2],"split_indices":[9,1,1,0,0,1,1,0,0,0,0,0,0],"split_type":[0,0,0,0,0,0,0,0,0,0,0,0,0],"sum_hessian":[1.31E2,9.8E1,3.3E1,9.7E1,1E0,1.3E1,2E1,4E0,9.3E1,1E1,3E0,3E0,1.7E1],"tree_param":{"num_deleted":"0","num_feature":"10","num_nodes":"13","size_leaf_vector":"0"}},{"base_weights":[9.62267E3,1.025207E4,8.385412E3,7.9407866E3,1.0814157E4,7.512817E3,1.1124509E4,9.750028E3,2.094217E3,1.1505182E4,7.5244136E3,8.343509E3,4.1033213E3,2.199872E3,1.1871705E4],"categories":[],"categories_nodes":[],"categories_segments":[],"categories_sizes":[],"default_left":[1,1,1,1,1,1,1,0,0,0,0,0,0,0,0],"id":12,"left_children":[1,3,5,7,9,11,13,-1,-1,-1,-1,-1,-1,-1,-1],"loss_changes":[1.6823296E7,2.1956608E7,3.59296E7,1.9113869E8,5.892147E7,8.18857E7,4.056832E7,0E0,0E0,0E0,0E0,0E0,0E0,0E0,0E0],"parents":[2147483647,0,0,1,1,2,2,3,3,4,4,5,5,6,6],"right_children":[2,4,6,8,10,12,14,-1,-1,-1,-1,-1,-1,-1,-1],"split_conditions":[3.376433E-1,-8.683133E-1,1.4363158E0,-1.1164408E0,1.20347E0,1.1457279E0,-1.4857597E0,9.7500287E2,2.094217E2,1.1505182E3,7.5244135E2,8.343509E2,4.1033212E2,2.1998721E2,1.1871705E3],"split_indices":[9,0,9,0,0,9,0,0,0,0,0,0,0,0,0],"split_type":[0,0,0,0,0,0,0,0,0,0,0,0,0,0,0],"sum_hessian":[1.31E2,8.2E1,4.9E1,1.9E1,6.3E1,4E1,9E0,1.4E1,5E0,5E1,1.3E1,3.1E1,9E0,1E0,8E0],"tree_param":{"num_deleted":"0","num_feature":"10","num_nodes":"15","size_leaf_vector":"0"}},{"base_weights":[8.703882E3,9.264061E3,7.599907E3,7.2059297E3,9.762476E3,7.09937E3,1.3075201E4,8.840026E3,1.9196989E3,1.0377224E4,6.825718E3,7.3343594E3,3.611589E3],"categories":[],"categories_nodes":[],"categories_segments":[],"categories_sizes":[],"default_left":[1,1,1,1,1,1,0,0,0,0,0,0,0],"id":13,"left_children":[1,3,5,7,9,11,-1,-1,-1,-1,-1,-1,-1],"loss_changes":[1.1226112E7,1.479424E7,4.4203776E7,1.5579418E8,4.4711424E7,1.2851712E7,0E0,0E0,0E0,0E0,0E0,0E0,0E0],"parents":[2147483647,0,0,1,1,2,2,3,3,4,4,5,5],"right_children":[2,4,6,8,10,12,-1,-1,-1,-1,-1,-1,-1],"split_conditions":[3.376433E-1,-8.683133E-1,2.367762E0,-1.1164408E0,1.20347E0,1.6680548E0,1.3075201E3,8.840026E2,1.919699E2,1.0377224E3,6.825718E2,7.33436E2,3.611589E2],"split_indices":[9,0,9,0,0,9,0,0,0,0,0,0,0],"split_type":[0,0,0,0,0,0,0,0,0,0,0,0,0],"sum_hessian":[1.31E2,8.2E1,4.9E1,1.9E1,6.3E1,4.7E1,2E0,1.4E1,5E0,5E1,1.3E1,4.3E1,4E0],"tree_param":{"num_deleted":"0","num_feature":"10","num_nodes":"13","size_leaf_vector":"0"}},{"base_weights":[7.8728755E3,9.180985E3,7.3441016E3,4.1847617E3,9.707656E3,2.7092368E3,7.667306E3,4.849393E3,7.6311816E2,1.1650257E4,7.7653525E3,7.136206E3,1.0573546E3,1.1313754E4,7.185338E3],"categories":[],"categories_nodes":[],"categories_segments":[],"categories_sizes":[],"default_left":[1,1,1,1,1,1,1,0,0,0,0,0,0,0,0],"id":14,"left_children":[1,3,5,7,9,11,13,-1,-1,-1,-1,-1,-1,-1,-1],"loss_changes":[2.3877632E7,4.8842496E7,1.275305E8,7.67E6,2.272512E7,5.095715E7,8.039373E7,0E0,0E0,0E0,0E0,0E0,0E0,0E0,0E0],"parents":[2147483647,0,0,1,1,2,2,3,3,4,4,5,5,6,6],"right_children":[2,4,6,8,10,12,14,-1,-1,-1,-1,-1,-1,-1,-1],"split_conditions":[-7.7313447E-1,-1.6495231E0,-1.0733637E0,-1.650696E0,-1.1164408E0,-1.2613677E0,-1.3810446E0,4.849393E2,7.631182E1,1.1650258E3,7.765353E2,7.136206E2,1.05735466E2,1.1313754E3,7.185338E2],"split_indices":[7,0,0,0,0,0,9,0,0,0,0,0,0,0,0],"split_type":[0,0,0,0,0,0,0,0,0,0,0,0,0,0,0],"sum_hessian":[1.31E2,3.3E1,9.8E1,4E0,2.9E1,7E0,9.1E1,3E0,1E0,1.2E1,1.7E1,1E0,6E0,8E0,8.3E1],"tree_param":{"num_deleted":"0","num_feature":"10","num_nodes":"15","size_leaf_vector":"0"}},{"base_weights":[7.1247705E3,8.336499E3,6.6366543E3,6.785206E3,1.0615103E4,2.9759163E3,6.969662E3,7.873122E3,2.390589E3,-4.0858203E2,1.1654399E4,5.8944025E2,4.46866E3,1.1105265E4,6.487078E3],"categories":[],"categories_nodes":[],"categories_segments":[],"categories_sizes":[],"default_left":[1,1,1,1,1,1,1,0,0,0,0,0,0,0,0],"id":15,"left_children":[1,3,5,7,9,11,13,-1,-1,-1,-1,-1,-1,-1,-1],"loss_changes":[2.2747136E7,4.815693E7,9.994547E7,9.114099E7,1.4224435E8,3.2989968E7,1.0757888E8,0E0,0E0,0E0,0E0,0E0,0E0,0E0,0E0],"parents":[2147483647,0,0,1,1,2,2,3,3,4,4,5,5,6,6],"right_children":[2,4,6,8,10,12,14,-1,-1,-1,-1,-1,-1,-1,-1],"split_conditions":[-7.7313447E-1,-1.0179905E0,-5.5534506E-1,-1.1176481E0,-1.1115224E0,-1.0774562E0,-1.3810446E0,7.873122E2,2.3905891E2,-4.0858204E1,1.16544E3,5.8944027E1,4.4686603E2,1.1105265E3,6.487078E2],"split_indices":[7,4,1,1,7,0,9,0,0,0,0,0,0,0,0],"split_type":[0,0,0,0,0,0,0,0,0,0,0,0,0,0,0],"sum_hessian":[1.31E2,3.3E1,9.8E1,2.2E1,1.1E1,9E0,8.9E1,1.7E1,5E0,1E0,1E1,4E0,5E0,7E0,8.2E1],"tree_param":{"num_deleted":"0","num_feature":"10","num_nodes":"15","size_leaf_vector":"0"}},{"base_weights":[6.4457485E3,8.274901E3,6.122116E3,5.086993E3,1.1225424E4,2.6495535E3,6.4973203E3,5.9319746E3,1.1380449E3,1.6769863E3,1.2349917E4,-1.0435026E2,4.383787E3,8.160869E3,5.4158696E3],"categories":[],"categories_nodes":[],"categories_segments":[],"categories_sizes":[],"default_left":[1,1,1,1,1,1,1,0,0,0,0,0,0,0,0],"id":16,"left_children":[1,3,5,7,9,11,13,-1,-1,-1,-1,-1,-1,-1,-1],"loss_changes":[2.7480064E7,1.0279834E8,1.3392384E8,2.6617024E7,6.5186624E7,6.254431E7,1.4290227E8,0E0,0E0,0E0,0E0,0E0,0E0,0E0,0E0],"parents":[2147483647,0,0,1,1,2,2,3,3,4,4,5,5,6,6],"right_children":[2,4,6,8,10,12,14,-1,-1,-1,-1,-1,-1,-1,-1],"split_conditions":[-1.2613677E0,-1.4857597E0,-8.683133E-1,-1.7843573E0,-6.381065E-1,-7.3916125E-1,-3.92118E-1,5.9319745E2,1.138045E2,1.6769864E2,1.2349917E3,-1.0435026E1,4.3837872E2,8.160869E2,5.41587E2],"split_indices":[0,0,0,1,9,6,9,0,0,0,0,0,0,0,0],"split_type":[0,0,0,0,0,0,0,0,0,0,0,0,0,0,0],"sum_hessian":[1.31E2,1.6E1,1.15E2,9E0,7E0,1.2E1,1.03E2,7E0,2E0,1E0,6E0,5E0,7E0,3.8E1,6.5E1],"tree_param":{"num_deleted":"0","num_feature":"10","num_nodes":"15","size_leaf_vector":"0"}},{"base_weights":[5.830683E3,5.6779673E3,1.0504802E4,6.162614E3,4.001156E3,6.321614E3,3.1698147E3,5.855789E3,2.7508347E3],"categories":[],"categories_nodes":[],"categories_segments":[],"categories_sizes":[],"default_left":[1,1,0,1,1,0,0,0,0],"id":17,"left_children":[1,3,-1,5,7,-1,-1,-1,-1],"loss_changes":[3.457792E7,8.09879E7,0E0,2.7071488E7,5.8096064E7,0E0,0E0,0E0,0E0],"parents":[2147483647,0,0,1,1,3,3,4,4],"right_children":[2,4,-1,6,8,-1,-1,-1,-1],"split_conditions":[2.367762E0,7.628144E-1,1.0504802E3,1.6401705E0,-3.6914274E-1,6.321614E2,3.1698148E2,5.855789E2,2.7508347E2],"split_indices":[9,9,0,7,1,0,0,0,0],"split_type":[0,0,0,0,0,0,0,0,0],"sum_hessian":[1.31E2,1.29E2,2E0,9.8E1,3.1E1,9.2E1,6E0,1.1E1,2E1],"tree_param":{"num_deleted":"0","num_feature":"10","num_nodes":"9","size_leaf_vector":"0"}},{"base_weights":[5.269283E3,5.124092E3,9.804481E3,5.555939E3,3.627936E3,5.800622E3,3.4910642E3,5.319009E3,2.4888499E3],"categories":[],"categories_nodes":[],"categories_segments":[],"categories_sizes":[],"default_left":[1,1,0,1,1,0,0,0,0],"id":18,"left_children":[1,3,-1,5,7,-1,-1,-1,-1],"loss_changes":[3.667917E7,6.383795E7,0E0,2.9768192E7,4.840269E7,0E0,0E0,0E0,0E0],"parents":[2147483647,0,0,1,1,3,3,4,4],"right_children":[2,4,-1,6,8,-1,-1,-1,-1],"split_conditions":[2.367762E0,7.628144E-1,9.804482E2,1.2218114E0,-3.6914274E-1,5.800622E2,3.491064E2,5.319009E2,2.48885E2],"split_indices":[9,9,0,0,1,0,0,0,0],"split_type":[0,0,0,0,0,0,0,0,0],"sum_hessian":[1.31E2,1.29E2,2E0,9.8E1,3.1E1,8.6E1,1.2E1,1.1E1,2E1],"tree_param":{"num_deleted":"0","num_feature":"10","num_nodes":"9","size_leaf_vector":"0"}},{"base_weights":[4.7627363E3,4.624836E3,9.150851E3,5.0097305E3,3.2895425E3,4.7758345E3,7.8391475E3,4.8314336E3,2.251817E3],"categories":[],"categories_nodes":[],"categories_segments":[],"categories_sizes":[],"default_left":[1,1,0,1,1,0,0,0,0],"id":19,"left_children":[1,3,-1,5,7,-1,-1,-1,-1],"loss_changes":[3.75552E7,5.0333184E7,0E0,2.8078592E7,4.03224E7,0E0,0E0,0E0,0E0],"parents":[2147483647,0,0,1,1,3,3,4,4],"right_children":[2,4,-1,6,8,-1,-1,-1,-1],"split_conditions":[2.367762E0,7.628144E-1,9.150851E2,6.6084754E-1,-3.6914274E-1,4.7758347E2,7.8391473E2,4.8314337E2,2.2518169E2],"split_indices":[9,9,0,9,1,0,0,0,0],"split_type":[0,0,0,0,0,0,0,0,0],"sum_hessian":[1.31E2,1.29E2,2E0,9.8E1,3.1E1,9.3E1,5E0,1.1E1,2E1],"tree_param":{"num_deleted":"0","num_feature":"10","num_nodes":"9","size_leaf_vector":"0"}},{"base_weights":[4.308318E3,6.7259307E3,4.0981016E3,9.08384E3,3.0228352E3,4.2710913E3,-1.5878906E1,6.044336E2,3.4763271E3,-1.602998E3,4.3344565E3,-1.175688E3,1.5358262E3],"categories":[],"categories_nodes":[],"categories_segments":[],"categories_sizes":[],"default_left":[1,1,1,0,1,1,1,0,0,0,0,0,0],"id":20,"left_children":[1,3,5,-1,7,9,11,-1,-1,-1,-1,-1,-1],"loss_changes":[3.9521536E7,5.112509E7,8.831565E7,0E0,3.38242E6,5.124147E7,1.2603742E7,0E0,0E0,0E0,0E0,0E0,0E0],"parents":[2147483647,0,0,1,1,2,2,4,4,5,5,6,6],"right_children":[2,4,6,-1,8,10,12,-1,-1,-1,-1,-1,-1],"split_conditions":[-1.4731932E0,1.0540066E0,1.6778795E0,9.08384E2,-1.1777711E0,-1.4681231E0,1.7377108E0,6.044336E1,3.4763272E2,-1.602998E2,4.3344565E2,-1.175688E2,1.5358263E2],"split_indices":[9,0,7,0,1,9,7,0,0,0,0,0,0],"split_type":[0,0,0,0,0,0,0,0,0,0,0,0,0],"sum_hessian":[1.31E2,8E0,1.23E2,4E0,4E0,1.18E2,5E0,1E0,3E0,1E0,1.17E2,3E0,2E0],"tree_param":{"num_deleted":"0","num_feature":"10","num_nodes":"13","size_leaf_vector":"0"}},{"base_weights":[3.8898018E3,3.759218E3,8.251829E3,6.1996104E3,3.5483757E3,8.357132E3,2.8021667E3,3.700441E3,-8.288737E0],"categories":[],"categories_nodes":[],"categories_segments":[],"categories_sizes":[],"default_left":[1,1,0,1,1,0,0,0,0],"id":21,"left_children":[1,3,-1,5,7,-1,-1,-1,-1],"loss_changes":[4.4168064E7,4.489139E7,0E0,4.2552416E7,6.6013696E7,0E0,0E0,0E0,0E0],"parents":[2147483647,0,0,1,1,3,3,4,4],"right_children":[2,4,-1,6,8,-1,-1,-1,-1],"split_conditions":[2.367762E0,-1.4731932E0,8.251829E2,1.0540066E0,1.6778795E0,8.357132E2,2.8021667E2,3.700441E2,-8.2887375E-1],"split_indices":[9,9,0,0,7,0,0,0,0],"split_type":[0,0,0,0,0,0,0,0,0],"sum_hessian":[1.31E2,1.29E2,2E0,8E0,1.21E2,4E0,4E0,1.16E2,5E0],"tree_param":{"num_deleted":"0","num_feature":"10","num_nodes":"9","size_leaf_vector":"0"}},{"base_weights":[3.5183232E3,3.3947197E3,7.701707E3,3.745198E3,2.2043423E3,3.3458208E3,5.25069E3,3.6520203E3,1.2721293E3],"categories":[],"categories_nodes":[],"categories_segments":[],"categories_sizes":[],"default_left":[1,1,0,1,1,0,0,0,0],"id":22,"left_children":[1,3,-1,5,7,-1,-1,-1,-1],"loss_changes":[4.2109696E7,4.5980416E7,0E0,4.1956736E7,3.853957E7,0E0,0E0,0E0,0E0],"parents":[2147483647,0,0,1,1,3,3,4,4],"right_children":[2,4,-1,6,8,-1,-1,-1,-1],"split_conditions":[2.367762E0,7.628144E-1,7.701707E2,1.0238192E0,-3.6914274E-1,3.345821E2,5.2506903E2,3.6520203E2,1.2721293E2],"split_indices":[9,9,0,7,1,0,0,0,0],"split_type":[0,0,0,0,0,0,0,0,0],"sum_hessian":[1.31E2,1.29E2,2E0,9.8E1,3.1E1,8E1,1.8E1,1.1E1,2E1],"tree_param":{"num_deleted":"0","num_feature":"10","num_nodes":"9","size_leaf_vector":"0"}},{"base_weights":[3.1825686E3,4.7794473E3,2.9211074E3,2.090839E3,7.5427764E3,-1.3815129E2,3.2754272E3,2.9075613E3,-7.840332E2,1.7919629E2,8.569117E3,-2.3532637E3,1.5404519E3,4.649753E3,2.4136978E3],"categories":[],"categories_nodes":[],"categories_segments":[],"categories_sizes":[],"default_left":[1,1,1,1,1,1,1,0,0,0,0,0,0,0,0],"id":23,"left_children":[1,3,5,7,9,11,13,-1,-1,-1,-1,-1,-1,-1,-1],"loss_changes":[4.1151616E7,1.1053091E8,1.2619136E8,2.5759352E7,5.892477E7,5.1962916E7,1.1194368E8,0E0,0E0,0E0,0E0,0E0,0E0,0E0,0E0],"parents":[2147483647,0,0,1,1,2,2,3,3,4,4,5,5,6,6],"right_children":[2,4,6,8,10,12,14,-1,-1,-1,-1,-1,-1,-1,-1],"split_conditions":[-1.2613677E0,-1.4857597E0,-8.683133E-1,-1.7843573E0,-6.381065E-1,-7.3916125E-1,-3.92118E-1,2.9075613E2,-7.840332E1,1.791963E1,8.5691174E2,-2.3532637E2,1.540452E2,4.649753E2,2.4136978E2],"split_indices":[0,0,0,1,9,6,9,0,0,0,0,0,0,0,0],"split_type":[0,0,0,0,0,0,0,0,0,0,0,0,0,0,0],"sum_hessian":[1.31E2,1.6E1,1.15E2,9E0,7E0,1.2E1,1.03E2,7E0,2E0,1E0,6E0,5E0,7E0,3.8E1,6.5E1],"tree_param":{"num_deleted":"0","num_feature":"10","num_nodes":"15","size_leaf_vector":"0"}},{"base_weights":[2.8772837E3,2.764115E3,6.8221655E3,4.9505933E3,2.580161E3,2.328172E3,7.646576E3,2.729301E3,-7.580993E2],"categories":[],"categories_nodes":[],"categories_segments":[],"categories_sizes":[],"default_left":[1,1,0,1,1,0,0,0,0],"id":24,"left_children":[1,3,-1,5,7,-1,-1,-1,-1],"loss_changes":[4.007245E7,3.951424E7,0E0,4.582749E7,6.2809024E7,0E0,0E0,0E0,0E0],"parents":[2147483647,0,0,1,1,3,3,4,4],"right_children":[2,4,-1,6,8,-1,-1,-1,-1],"split_conditions":[2.367762E0,-1.4731932E0,6.8221655E2,7.592722E-2,1.6778795E0,2.3281721E2,7.6465765E2,2.729301E2,-7.580993E1],"split_indices":[9,9,0,7,7,0,0,0,0],"split_type":[0,0,0,0,0,0,0,0,0],"sum_hessian":[1.31E2,1.29E2,2E0,8E0,1.21E2,5E0,3E0,1.16E2,5E0],"tree_param":{"num_deleted":"0","num_feature":"10","num_nodes":"9","size_leaf_vector":"0"}},{"base_weights":[2.6037742E3,2.4180005E3,4.628413E3,2.6717896E3,-7.169953E2,5.2646406E3,-5.488154E2,2.3436433E3,4.096894E3,-2.3909727E3,3.7060547E-1,-3.3156445E2,6.0056113E3],"categories":[],"categories_nodes":[],"categories_segments":[],"categories_sizes":[],"default_left":[1,1,1,1,1,1,0,0,0,0,0,0,0],"id":25,"left_children":[1,3,5,7,9,11,-1,-1,-1,-1,-1,-1,-1],"loss_changes":[3.845696E7,9.977786E7,3.582824E7,4.3709504E7,1.2009429E7,3.931091E7,0E0,0E0,0E0,0E0,0E0,0E0,0E0],"parents":[2147483647,0,0,1,1,2,2,3,3,4,4,5,5],"right_children":[2,4,6,8,10,12,-1,-1,-1,-1,-1,-1,-1],"split_conditions":[1.4363158E0,1.1457279E0,1.4915268E0,1.0238192E0,-5.388496E-1,-1.4857597E0,-5.4881542E1,2.3436433E2,4.0968942E2,-2.3909727E2,3.7060548E-2,-3.3156445E1,6.0056116E2],"split_indices":[9,9,0,7,0,0,0,0,0,0,0,0,0],"split_type":[0,0,0,0,0,0,0,0,0,0,0,0,0],"sum_hessian":[1.31E2,1.22E2,9E0,1.13E2,9E0,8E0,1E0,9.4E1,1.9E1,2E0,7E0,1E0,7E0],"tree_param":{"num_deleted":"0","num_feature":"10","num_nodes":"13","size_leaf_vector":"0"}},{"base_weights":[2.3503474E3,3.858121E3,2.109119E3,9.891699E1,5.416213E3,-5.624405E2,2.422784E3,1.6071484E3,-1.0569858E3,-8.341113E1,5.9237617E3,-2.5799043E3,1.0209624E3,3.6605942E3,1.6546416E3],"categories":[],"categories_nodes":[],"categories_segments":[],"categories_sizes":[],"default_left":[1,1,1,1,1,1,1,0,0,0,0,0,0,0,0],"id":26,"left_children":[1,3,5,7,9,11,13,-1,-1,-1,-1,-1,-1,-1,-1],"loss_changes":[3.98736E7,9.903642E7,9.856771E7,1.2158947E7,3.399005E7,4.416194E7,9.282771E7,0E0,0E0,0E0,0E0,0E0,0E0,0E0,0E0],"parents":[2147483647,0,0,1,1,2,2,3,3,4,4,5,5,6,6],"right_children":[2,4,6,8,10,12,14,-1,-1,-1,-1,-1,-1,-1,-1],"split_conditions":[-1.2613677E0,-1.6315747E0,-8.683133E-1,-2.1457982E0,-6.381065E-1,-7.3916125E-1,-3.92118E-1,1.6071484E2,-1.05698586E2,-8.341113E0,5.9237616E2,-2.5799045E2,1.02096245E2,3.6605942E2,1.6546416E2],"split_indices":[0,0,0,6,9,6,9,0,0,0,0,0,0,0,0],"split_type":[0,0,0,0,0,0,0,0,0,0,0,0,0,0,0],"sum_hessian":[1.31E2,1.6E1,1.15E2,5E0,1.1E1,1.2E1,1.03E2,2E0,3E0,1E0,1E1,5E0,7E0,3.8E1,6.5E1],"tree_param":{"num_deleted":"0","num_feature":"10","num_nodes":"15","size_leaf_vector":"0"}},{"base_weights":[2.1229995E3,3.0557495E3,1.7812167E3,1.9215144E3,5.5857627E3,6.6710614E2,2.4353293E3,2.600695E3,1.531687E2,-2.5299521E3,6.7686143E3,1.7442828E3,-2.1354443E3,6.4552085E3,1.630912E3],"categories":[],"categories_nodes":[],"categories_segments":[],"categories_sizes":[],"default_left":[1,1,1,1,1,1,1,0,0,0,0,0,0,0,0],"id":27,"left_children":[1,3,5,7,9,11,13,-1,-1,-1,-1,-1,-1,-1,-1],"loss_changes":[3.6638336E7,8.683427E7,7.052198E7,2.9627304E7,1.1312115E8,1.18440824E8,1.8995914E8,0E0,0E0,0E0,0E0,0E0,0E0,0E0,0E0],"parents":[2147483647,0,0,1,1,2,2,3,3,4,4,5,5,6,6],"right_children":[2,4,6,8,10,12,14,-1,-1,-1,-1,-1,-1,-1,-1],"split_conditions":[-7.7313447E-1,-1.008141E0,2.562086E-1,-1.1176481E0,-1.1115224E0,4.321949E-3,5.199587E-1,2.6006952E2,1.5316871E1,-2.5299522E2,6.7686145E2,1.7442828E2,-2.1354443E2,6.455209E2,1.630912E2],"split_indices":[7,4,6,1,7,6,1,0,0,0,0,0,0,0,0],"split_type":[0,0,0,0,0,0,0,0,0,0,0,0,0,0,0],"sum_hessian":[1.31E2,3.3E1,9.8E1,2.4E1,9E0,3.7E1,6.1E1,1.7E1,7E0,1E0,8E0,2.7E1,1E1,9E0,5.2E1],"tree_param":{"num_deleted":"0","num_feature":"10","num_nodes":"15","size_leaf_vector":"0"}},{"base_weights":[1.9218264E3,1.8228652E3,5.5695337E3,3.8493308E3,1.6584304E3,1.500694E3,6.409953E3,1.801633E3,-1.4104258E3],"categories":[],"categories_nodes":[],"categories_segments":[],"categories_sizes":[],"default_left":[1,1,0,1,1,0,0,0,0],"id":28,"left_children":[1,3,-1,5,7,-1,-1,-1,-1],"loss_changes":[3.7497056E7,3.6934944E7,0E0,4.4506376E7,5.615619E7,0E0,0E0,0E0,0E0],"parents":[2147483647,0,0,1,1,3,3,4,4],"right_children":[2,4,-1,6,8,-1,-1,-1,-1],"split_conditions":[2.367762E0,-1.4731932E0,5.5695337E2,7.592722E-2,1.6778795E0,1.500694E2,6.409953E2,1.8016331E2,-1.4104259E2],"split_indices":[9,9,0,7,7,0,0,0,0],"split_type":[0,0,0,0,0,0,0,0,0],"sum_hessian":[1.31E2,1.29E2,2E0,8E0,1.21E2,5E0,3E0,1.16E2,5E0],"tree_param":{"num_deleted":"0","num_feature":"10","num_nodes":"9","size_leaf_vector":"0"}},{"base_weights":[1.7401517E3,1.5755923E3,3.5902163E3,1.799339E3,-1.1326785E3,6.3265776E3,1.5136934E3,1.4900728E3,3.1783867E3,-2.5571555E3,-4.569148E2,7.8454746E3,8.8494336E2,-1.9652515E3,4.614215E3],"categories":[],"categories_nodes":[],"categories_segments":[],"categories_sizes":[],"default_left":[1,1,1,1,1,1,1,0,0,0,0,0,0,0,0],"id":29,"left_children":[1,3,5,7,9,11,13,-1,-1,-1,-1,-1,-1,-1,-1],"loss_changes":[3.453008E7,7.657197E7,4.724468E7,4.388416E7,8.457698E6,2.6118336E7,8.4573896E7,0E0,0E0,0E0,0E0,0E0,0E0,0E0,0E0],"parents":[2147483647,0,0,1,1,2,2,3,3,4,4,5,5,6,6],"right_children":[2,4,6,8,10,12,14,-1,-1,-1,-1,-1,-1,-1,-1],"split_conditions":[1.4363158E0,1.1457279E0,1.6680548E0,1.0238192E0,-5.388496E-1,1.317924E0,2.3482878E0,1.4900728E2,3.1783868E2,-2.5571556E2,-4.569148E1,7.845475E2,8.849434E1,-1.9652515E2,4.6142148E2],"split_indices":[9,9,9,7,0,1,9,0,0,0,0,0,0,0,0],"split_type":[0,0,0,0,0,0,0,0,0,0,0,0,0,0,0],"sum_hessian":[1.31E2,1.22E2,9E0,1.13E2,9E0,3E0,6E0,9.4E1,1.9E1,2E0,7E0,2E0,1E0,3E0,3E0],"tree_param":{"num_deleted":"0","num_feature":"10","num_nodes":"15","size_leaf_vector":"0"}},{"base_weights":[1.5760103E3,2.4588015E3,1.25691E3,1.2796599E3,4.513923E3,1.026273E3,4.1415303E3,2.0375845E3,-1.2073906E3,-2.56804E3,5.391196E3,-1.93914E2,1.7327181E3,7.1471465E3,1.5098547E3],"categories":[],"categories_nodes":[],"categories_segments":[],"categories_sizes":[],"default_left":[1,1,1,1,1,1,1,0,0,0,0,0,0,0,0],"id":30,"left_children":[1,3,5,7,9,11,13,-1,-1,-1,-1,-1,-1,-1,-1],"loss_changes":[3.409373E7,7.661518E7,6.16144E7,4.581509E7,8.839859E7,8.050156E7,4.457749E7,0E0,0E0,0E0,0E0,0E0,0E0,0E0,0E0],"parents":[2147483647,0,0,1,1,2,2,3,3,4,4,5,5,6,6],"right_children":[2,4,6,8,10,12,14,-1,-1,-1,-1,-1,-1,-1,-1],"split_conditions":[-7.7313447E-1,-1.0179905E0,1.4357607E0,-1.1176481E0,-1.1115224E0,2.562086E-1,-3.1759438E-1,2.0375845E2,-1.2073907E2,-2.5680402E2,5.3911957E2,-1.9391401E1,1.7327182E2,7.1471466E2,1.5098547E2],"split_indices":[7,4,9,1,7,6,1,0,0,0,0,0,0,0,0],"split_type":[0,0,0,0,0,0,0,0,0,0,0,0,0,0,0],"sum_hessian":[1.31E2,3.3E1,9.8E1,2.2E1,1.1E1,9.2E1,6E0,1.7E1,5E0,1E0,1E1,3.4E1,5.8E1,2E0,4E0],"tree_param":{"num_deleted":"0","num_feature":"10","num_nodes":"15","size_leaf_vector":"0"}},{"base_weights":[1.4289004E3,2.7399775E3,1.2244417E3,1.1842612E3,6.2368447E3,-1.077205E3,1.500374E3,1.9363672E1,3.80044E3,-2.901834E3,4.2591748E2,2.5093801E3,8.0388776E2],"categories":[],"categories_nodes":[],"categories_segments":[],"categories_sizes":[],"default_left":[1,1,1,1,0,1,1,0,0,0,0,0,0],"id":31,"left_children":[1,3,5,7,-1,9,11,-1,-1,-1,-1,-1,-1],"loss_changes":[3.202912E7,8.5096216E7,7.528768E7,3.954495E7,0E0,3.689027E7,7.10697E7,0E0,0E0,0E0,0E0,0E0,0E0],"parents":[2147483647,0,0,1,1,2,2,3,3,5,5,6,6],"right_children":[2,4,6,8,-1,10,12,-1,-1,-1,-1,-1,-1],"split_conditions":[-1.2613677E0,-1.087774E0,-8.683133E-1,9.7211075E-1,6.236845E2,-7.3916125E-1,-3.5738924E-1,1.9363673E0,3.80044E2,-2.901834E2,4.2591747E1,2.5093802E2,8.038878E1],"split_indices":[0,7,0,9,0,6,9,0,0,0,0,0,0],"split_type":[0,0,0,0,0,0,0,0,0,0,0,0,0],"sum_hessian":[1.31E2,1.6E1,1.15E2,1.2E1,4E0,1.2E1,1.03E2,9E0,3E0,5E0,7E0,4.1E1,6.2E1],"tree_param":{"num_deleted":"0","num_feature":"10","num_nodes":"13","size_leaf_vector":"0"}},{"base_weights":[1.2942633E3,1.5560426E3,3.9117465E2,4.838354E3,1.3726997E3,1.6609412E3,-1.4947284E3,1.1698008E3,5.463042E3,1.5661404E3,-1.8544131E3,2.2425605E3,-2.1885488E3,-4.711514E3,-5.854121E1],"categories":[],"categories_nodes":[],"categories_segments":[],"categories_sizes":[],"default_left":[1,1,1,1,1,1,1,0,0,0,0,0,0,0,0],"id":32,"left_children":[1,3,5,7,9,11,13,-1,-1,-1,-1,-1,-1,-1,-1],"loss_changes":[3.059744E7,5.47408E7,7.6717016E7,5.067832E6,6.408123E7,4.744778E7,5.978297E7,0E0,0E0,0E0,0E0,0E0,0E0,0E0,0E0],"parents":[2147483647,0,0,1,1,2,2,3,3,4,4,5,5,6,6],"right_children":[2,4,6,8,10,12,14,-1,-1,-1,-1,-1,-1,-1,-1],"split_conditions":[9.8932457E-1,-1.4731932E0,4.321949E-3,-7.060325E-1,1.6778795E0,1.6286707E0,1.5498239E-1,1.1698008E2,5.463042E2,1.5661404E2,-1.8544131E2,2.2425606E2,-2.1885489E2,-4.7115143E2,-5.854121E0],"split_indices":[0,9,6,0,7,9,1,0,0,0,0,0,0,0,0],"split_type":[0,0,0,0,0,0,0,0,0,0,0,0,0,0,0],"sum_hessian":[1.31E2,1.01E2,3E1,4E0,9.7E1,1.8E1,1.2E1,1E0,3E0,9.2E1,5E0,1.6E1,2E0,3E0,9E0],"tree_param":{"num_deleted":"0","num_feature":"10","num_nodes":"15","size_leaf_vector":"0"}},{"base_weights":[1.1660712E3,1.01496497E3,2.9080698E3,1.2124235E3,-1.3375583E3,5.463346E3,1.0324733E3,1.1044156E3,4.840572E3,-2.5191543E3,-7.2726514E2,6.8533267E3,6.4670215E2,-1.94129E3,3.7481182E3],"categories":[],"categories_nodes":[],"categories_segments":[],"categories_sizes":[],"default_left":[1,1,1,1,1,1,1,0,0,0,0,0,0,0,0],"id":33,"left_children":[1,3,5,7,9,11,13,-1,-1,-1,-1,-1,-1,-1,-1],"loss_changes":[3.1794352E7,5.8758336E7,4.228592E7,3.9326976E7,5.379106E6,2.2348112E7,6.3805976E7,0E0,0E0,0E0,0E0,0E0,0E0,0E0,0E0],"parents":[2147483647,0,0,1,1,2,2,3,3,4,4,5,5,6,6],"right_children":[2,4,6,8,10,12,14,-1,-1,-1,-1,-1,-1,-1,-1],"split_conditions":[1.4363158E0,1.1457279E0,1.6680548E0,1.1237345E0,-5.388496E-1,1.317924E0,2.3482878E0,1.1044157E2,4.840572E2,-2.5191544E2,-7.272652E1,6.853327E2,6.467022E1,-1.9412901E2,3.7481183E2],"split_indices":[9,9,9,9,0,1,9,0,0,0,0,0,0,0,0],"split_type":[0,0,0,0,0,0,0,0,0,0,0,0,0,0,0],"sum_hessian":[1.31E2,1.22E2,9E0,1.13E2,9E0,3E0,6E0,1.11E2,2E0,2E0,7E0,2E0,1E0,3E0,3E0],"tree_param":{"num_deleted":"0","num_feature":"10","num_nodes":"15","size_leaf_vector":"0"}},{"base_weights":[1.0585591E3,9.1566254E2,2.7103313E3,1.0963961E3,-1.2362666E3,5.1045127E3,9.550374E2,8.1539514E2,2.376331E3,-2.3512102E3,-6.636294E2,6.396439E3,6.143672E2,-1.7956934E3,3.4670088E3],"categories":[],"categories_nodes":[],"categories_segments":[],"categories_sizes":[],"default_left":[1,1,1,1,1,1,1,0,0,0,0,0,0,0,0],"id":34,"left_children":[1,3,5,7,9,11,13,-1,-1,-1,-1,-1,-1,-1,-1],"loss_changes":[2.867456E7,4.919333E7,3.714991E7,3.9063936E7,4.82425E6,1.9273984E7,5.4593984E7,0E0,0E0,0E0,0E0,0E0,0E0,0E0,0E0],"parents":[2147483647,0,0,1,1,2,2,3,3,4,4,5,5,6,6],"right_children":[2,4,6,8,10,12,14,-1,-1,-1,-1,-1,-1,-1,-1],"split_conditions":[1.4363158E0,1.1457279E0,1.6680548E0,1.0238192E0,-5.388496E-1,1.317924E0,2.3482878E0,8.153951E1,2.376331E2,-2.3512102E2,-6.636294E1,6.396439E2,6.1436718E1,-1.7956934E2,3.467009E2],"split_indices":[9,9,9,7,0,1,9,0,0,0,0,0,0,0,0],"split_type":[0,0,0,0,0,0,0,0,0,0,0,0,0,0,0],"sum_hessian":[1.31E2,1.22E2,9E0,1.13E2,9E0,3E0,6E0,9.4E1,1.9E1,2E0,7E0,2E0,1E0,3E0,3E0],"tree_param":{"num_deleted":"0","num_feature":"10","num_nodes":"15","size_leaf_vector":"0"}},{"base_weights":[9.59415E2,1.7461864E3,6.795196E2,8.3246716E2,3.8558657E3,4.8682452E2,3.142537E3,-8.547464E2,1.2970079E3,-2.654129E3,4.8741016E3,-5.629344E2,1.1013115E3,5.807957E3,9.147777E2],"categories":[],"categories_nodes":[],"categories_segments":[],"categories_sizes":[],"default_left":[1,1,1,1,1,1,1,0,0,0,0,0,0,0,0],"id":35,"left_children":[1,3,5,7,9,11,13,-1,-1,-1,-1,-1,-1,-1,-1],"loss_changes":[2.7881632E7,6.233036E7,4.5456656E7,2.0703096E7,7.92236E7,6.061085E7,3.625241E7,0E0,0E0,0E0,0E0,0E0,0E0,0E0,0E0],"parents":[2147483647,0,0,1,1,2,2,3,3,4,4,5,5,6,6],"right_children":[2,4,6,8,10,12,14,-1,-1,-1,-1,-1,-1,-1,-1],"split_conditions":[-7.7313447E-1,-1.008141E0,1.4357607E0,-1.6315747E0,-1.1115224E0,2.562086E-1,-3.1759438E-1,-8.547464E1,1.2970079E2,-2.654129E2,4.8741016E2,-5.6293438E1,1.1013116E2,5.807957E2,9.1477776E1],"split_indices":[7,4,9,0,7,6,1,0,0,0,0,0,0,0,0],"split_type":[0,0,0,0,0,0,0,0,0,0,0,0,0,0,0],"sum_hessian":[1.31E2,3.3E1,9.8E1,2.4E1,9E0,9.2E1,6E0,5E0,1.9E1,1E0,8E0,3.4E1,5.8E1,2E0,4E0],"tree_param":{"num_deleted":"0","num_feature":"10","num_nodes":"15","size_leaf_vector":"0"}},{"base_weights":[8.709907E2,2.0652935E3,6.884551E2,7.1051685E2,5.174654E3,-1.3040676E3,9.309007E2,-3.0525568E2,3.0723188E3,-3.0778806E3,1.8930054E2,2.2934163E3,5.1569977E2],"categories":[],"categories_nodes":[],"categories_segments":[],"categories_sizes":[],"default_left":[1,1,1,1,0,1,1,0,0,0,0,0,0],"id":36,"left_children":[1,3,5,7,-1,9,11,-1,-1,-1,-1,-1,-1],"loss_changes":[2.7354512E7,6.793562E7,5.725105E7,3.212554E7,0E0,3.5019068E7,5.765193E7,0E0,0E0,0E0,0E0,0E0,0E0],"parents":[2147483647,0,0,1,1,2,2,3,3,5,5,6,6],"right_children":[2,4,6,8,-1,10,12,-1,-1,-1,-1,-1,-1],"split_conditions":[-1.2613677E0,-1.087774E0,-8.683133E-1,9.7211075E-1,5.174654E2,-3.84607E-1,-2.1926478E-1,-3.0525568E1,3.072319E2,-3.0778806E2,1.8930054E1,2.2934163E2,5.1569977E1],"split_indices":[0,7,0,9,0,9,4,0,0,0,0,0,0],"split_type":[0,0,0,0,0,0,0,0,0,0,0,0,0],"sum_hessian":[1.31E2,1.6E1,1.15E2,1.2E1,4E0,1.2E1,1.03E2,9E0,3E0,5E0,7E0,2.3E1,8E1],"tree_param":{"num_deleted":"0","num_feature":"10","num_nodes":"13","size_leaf_vector":"0"}},{"base_weights":[7.89848E2,1.01140515E3,-6.9200264E1,6.813064E2,4.4567583E3,-4.252823E3,8.052712E2,1.0697893E3,-1.6982557E3,7.001376E3,2.0175533E3,-5.3997266E2,-5.0460425E3,4.4204907E3,7.831166E1],"categories":[],"categories_nodes":[],"categories_segments":[],"categories_sizes":[],"default_left":[1,1,1,1,1,1,1,0,0,0,0,0,0,0,0],"id":37,"left_children":[1,3,5,7,9,11,13,-1,-1,-1,-1,-1,-1,-1,-1],"loss_changes":[2.5193328E7,1.1638079E8,1.0586152E8,9.148544E7,4.173595E7,1.20008E7,6.2728656E7,0E0,0E0,0E0,0E0,0E0,0E0,0E0,0E0],"parents":[2147483647,0,0,1,1,2,2,3,3,4,4,5,5,6,6],"right_children":[2,4,6,8,10,12,14,-1,-1,-1,-1,-1,-1,-1,-1],"split_conditions":[8.838748E-1,8.0628484E-1,1.0238192E0,6.551597E-1,-2.9090446E-1,-2.7040035E-1,4.7549504E-1,1.06978935E2,-1.6982558E2,7.0013763E2,2.0175534E2,-5.3997265E1,-5.0460425E2,4.4204907E2,7.8311663E0],"split_indices":[1,5,7,3,9,0,0,0,0,0,0,0,0,0,0],"split_type":[0,0,0,0,0,0,0,0,0,0,0,0,0,0,0],"sum_hessian":[1.31E2,1.04E2,2.7E1,9.6E1,8E0,4E0,2.3E1,8.3E1,1.3E1,3E0,5E0,1E0,3E0,3E0,2E1],"tree_param":{"num_deleted":"0","num_feature":"10","num_nodes":"15","size_leaf_vector":"0"}},{"base_weights":[7.163953E2,9.563673E2,-9.629939E1,4.0896836E3,7.867454E2,9.73637E2,-1.652645E3,7.8231055E2,4.720949E3,9.6654156E2,-2.131219E3,1.4468054E3,-2.0321959E3,-5.3400605E3,-4.9674573E2],"categories":[],"categories_nodes":[],"categories_segments":[],"categories_sizes":[],"default_left":[1,1,1,1,1,1,1,0,0,0,0,0,0,0,0],"id":38,"left_children":[1,3,5,7,9,11,13,-1,-1,-1,-1,-1,-1,-1,-1],"loss_changes":[2.5835264E7,5.0993336E7,5.322999E7,6.745904E6,5.347451E7,2.9963228E7,5.2757004E7,0E0,0E0,0E0,0E0,0E0,0E0,0E0,0E0],"parents":[2147483647,0,0,1,1,2,2,3,3,4,4,5,5,6,6],"right_children":[2,4,6,8,10,12,14,-1,-1,-1,-1,-1,-1,-1,-1],"split_conditions":[9.8932457E-1,-1.4731932E0,4.321949E-3,-7.060325E-1,1.6778795E0,1.6286707E0,-1.1358916E-2,7.823106E1,4.7209494E2,9.665416E1,-2.131219E2,1.4468054E2,-2.0321959E2,-5.3400604E2,-4.9674572E1],"split_indices":[0,9,6,0,7,9,7,0,0,0,0,0,0,0,0],"split_type":[0,0,0,0,0,0,0,0,0,0,0,0,0,0,0],"sum_hessian":[1.31E2,1.01E2,3E1,4E0,9.7E1,1.8E1,1.2E1,1E0,3E0,9.2E1,5E0,1.6E1,2E0,2E0,1E1],"tree_param":{"num_deleted":"0","num_feature":"10","num_nodes":"15","size_leaf_vector":"0"}},{"base_weights":[6.4317804E2,1.7138262E3,4.8072806E2,4.72782E2,4.597776E3,-1.3838496E3,7.0917786E2,-4.6105176E2,2.689171E3,-2.992872E3,-4.1015625E0,1.5939088E3,1.7563722E2],"categories":[],"categories_nodes":[],"categories_segments":[],"categories_sizes":[],"default_left":[1,1,1,1,0,1,1,0,0,0,0,0,0],"id":39,"left_children":[1,3,5,7,-1,9,11,-1,-1,-1,-1,-1,-1],"loss_changes":[2.2134444E7,5.867111E7,5.039304E7,2.8146452E7,0E0,2.8848318E7,4.8812204E7,0E0,0E0,0E0,0E0,0E0,0E0],"parents":[2147483647,0,0,1,1,2,2,3,3,5,5,6,6],"right_children":[2,4,6,8,-1,10,12,-1,-1,-1,-1,-1,-1],"split_conditions":[-1.2613677E0,-1.087774E0,-8.683133E-1,9.7211075E-1,4.597776E2,-7.3916125E-1,-3.92118E-1,-4.6105175E1,2.6891708E2,-2.992872E2,-4.1015625E-1,1.5939088E2,1.7563723E1],"split_indices":[0,7,0,9,0,6,9,0,0,0,0,0,0],"split_type":[0,0,0,0,0,0,0,0,0,0,0,0,0],"sum_hessian":[1.31E2,1.6E1,1.15E2,1.2E1,4E0,1.2E1,1.03E2,9E0,3E0,5E0,7E0,3.8E1,6.5E1],"tree_param":{"num_deleted":"0","num_feature":"10","num_nodes":"13","size_leaf_vector":"0"}},{"base_weights":[5.8310156E2,8.104807E2,-1.83859E2,3.6632688E3,6.566601E2,7.819079E2,-1.5812214E3,6.635E2,4.247336E3,8.235237E2,-2.0391683E3,-5.0848828E2,1.766604E3,-4.504575E3,-2.5375781E2],"categories":[],"categories_nodes":[],"categories_segments":[],"categories_sizes":[],"default_left":[1,1,1,1,1,1,1,0,0,0,0,0,0,0,0],"id":40,"left_children":[1,3,5,7,9,11,13,-1,-1,-1,-1,-1,-1,-1,-1],"loss_changes":[2.3168612E7,4.2353876E7,4.307169E7,5.942224E6,4.5763176E7,2.5040612E7,4.9305324E7,0E0,0E0,0E0,0E0,0E0,0E0,0E0,0E0],"parents":[2147483647,0,0,1,1,2,2,3,3,4,4,5,5,6,6],"right_children":[2,4,6,8,10,12,14,-1,-1,-1,-1,-1,-1,-1,-1],"split_conditions":[9.8932457E-1,-1.4731932E0,4.321949E-3,-7.060325E-1,1.6778795E0,-1.0194478E0,1.5498239E-1,6.635E1,4.247336E2,8.235237E1,-2.0391684E2,-5.0848827E1,1.766604E2,-4.5045752E2,-2.5375782E1],"split_indices":[0,9,6,0,7,1,1,0,0,0,0,0,0,0,0],"split_type":[0,0,0,0,0,0,0,0,0,0,0,0,0,0,0],"sum_hessian":[1.31E2,1.01E2,3E1,4E0,9.7E1,1.8E1,1.2E1,1E0,3E0,9.2E1,5E0,8E0,1E1,3E0,9E0],"tree_param":{"num_deleted":"0","num_feature":"10","num_nodes":"15","size_leaf_vector":"0"}},{"base_weights":[5.249396E2,4.0724417E2,1.9200994E3,6.878973E2,-7.791125E2,4.2331196E3,3.2407367E2,4.810993E2,3.3666277E3,3.6397969E3,-1.129491E3,5.3708774E3,4.0992285E2,-2.0266133E3,2.5937422E3],"categories":[],"categories_nodes":[],"categories_segments":[],"categories_sizes":[],"default_left":[1,1,1,1,1,1,1,0,0,0,0,0,0,0,0],"id":41,"left_children":[1,3,5,7,9,11,13,-1,-1,-1,-1,-1,-1,-1,-1],"loss_changes":[2.0892968E7,4.1489376E7,3.554456E7,5.3775924E7,4.12701E7,1.5197848E7,4.260347E7,0E0,0E0,0E0,0E0,0E0,0E0,0E0,0E0],"parents":[2147483647,0,0,1,1,2,2,3,3,4,4,5,5,6,6],"right_children":[2,4,6,8,10,12,14,-1,-1,-1,-1,-1,-1,-1,-1],"split_conditions":[1.4363158E0,7.7830184E-1,1.6680548E0,6.6084754E-1,-1.6123241E0,1.317924E0,2.3482878E0,4.8109932E1,3.3666278E2,3.639797E2,-1.129491E2,5.3708777E2,4.0992287E1,-2.0266133E2,2.5937424E2],"split_indices":[9,9,9,9,0,1,9,0,0,0,0,0,0,0,0],"split_type":[0,0,0,0,0,0,0,0,0,0,0,0,0,0,0],"sum_hessian":[1.31E2,1.22E2,9E0,9.9E1,2.3E1,3E0,6E0,9.3E1,6E0,1E0,2.2E1,2E0,1E0,3E0,3E0],"tree_param":{"num_deleted":"0","num_feature":"10","num_nodes":"15","size_leaf_vector":"0"}},{"base_weights":[4.8207178E2,6.9359454E2,-2.0061163E2,3.880961E2,4.74056E3,-4.796063E3,6.271694E2,7.2372815E2,-1.9936696E3,5.11556E3,1.2452803E3,-5.547842E2,-5.7176865E3,-4.002082E3,9.468484E2],"categories":[],"categories_nodes":[],"categories_segments":[],"categories_sizes":[],"default_left":[1,1,1,1,1,1,1,0,0,0,0,0,0,0,0],"id":42,"left_children":[1,3,5,7,9,11,13,-1,-1,-1,-1,-1,-1,-1,-1],"loss_changes":[1.9200352E7,1.230307E8,1.2473682E8,7.738558E7,2.8048E6,1.6372232E7,4.5225852E7,0E0,0E0,0E0,0E0,0E0,0E0,0E0,0E0],"parents":[2147483647,0,0,1,1,2,2,3,3,4,4,5,5,6,6],"right_children":[2,4,6,8,10,12,14,-1,-1,-1,-1,-1,-1,-1,-1],"split_conditions":[8.2289773E-1,7.682421E-1,2.0823936E-1,6.551597E-1,8.334475E-1,-2.7040035E-1,8.3910507E-1,7.237282E1,-1.9936696E2,5.11556E2,1.2452803E2,-5.547842E1,-5.717687E2,-4.0020822E2,9.468484E1],"split_indices":[1,8,0,3,5,0,1,0,0,0,0,0,0,0,0],"split_type":[0,0,0,0,0,0,0,0,0,0,0,0,0,0,0],"sum_hessian":[1.31E2,1E2,3.1E1,9.4E1,6E0,4E0,2.7E1,8.3E1,1.1E1,5E0,1E0,1E0,3E0,1E0,2.6E1],"tree_param":{"num_deleted":"0","num_feature":"10","num_nodes":"15","size_leaf_vector":"0"}},{"base_weights":[4.306556E2,6.4080273E2,-2.7468826E2,4.103336E3,5.305187E2,6.138137E2,-1.5521382E3,6.840133E2,-1.988232E3,1.01488074E3,-1.8635039E3,-4.9647524E3,-4.8032175E2],"categories":[],"categories_nodes":[],"categories_segments":[],"categories_sizes":[],"default_left":[1,1,1,0,1,1,1,0,0,0,0,0,0],"id":43,"left_children":[1,3,5,-1,7,9,11,-1,-1,-1,-1,-1,-1],"loss_changes":[1.974185E7,3.6773036E7,3.6138244E7,0E0,4.002144E7,2.0769074E7,4.5165376E7,0E0,0E0,0E0,0E0,0E0,0E0],"parents":[2147483647,0,0,1,1,2,2,4,4,5,5,6,6],"right_children":[2,4,6,-1,8,10,12,-1,-1,-1,-1,-1,-1],"split_conditions":[9.8932457E-1,-1.661949E0,4.321949E-3,4.103336E2,1.6778795E0,1.6286707E0,-1.1358916E-2,6.840133E1,-1.9882321E2,1.01488075E2,-1.8635039E2,-4.9647525E2,-4.8032177E1],"split_indices":[0,9,6,0,7,9,7,0,0,0,0,0,0],"split_type":[0,0,0,0,0,0,0,0,0,0,0,0,0],"sum_hessian":[1.31E2,1.01E2,3E1,2E0,9.9E1,1.8E1,1.2E1,9.4E1,5E0,1.6E1,2E0,2E0,1E1],"tree_param":{"num_deleted":"0","num_feature":"10","num_nodes":"13","size_leaf_vector":"0"}},{"base_weights":[3.849424E2,3.244732E2,2.876961E3,6.0772845E2,-1.720822E2,2.7823245E2,2.2117993E3,3.514673E3,-4.0878183E2],"categories":[],"categories_nodes":[],"categories_segments":[],"categories_sizes":[],"default_left":[1,1,0,1,1,0,0,0,0],"id":44,"left_children":[1,3,-1,5,7,-1,-1,-1,-1],"loss_changes":[1.8957636E7,1.8389332E7,0E0,4.325301E7,4.332411E7,0E0,0E0,0E0,0E0],"parents":[2147483647,0,0,1,1,3,3,4,4],"right_children":[2,4,-1,6,8,-1,-1,-1,-1],"split_conditions":[2.367762E0,3.376433E-1,2.876961E2,1.0161824E0,-1.7843573E0,2.7823246E1,2.2117993E2,3.5146732E2,-4.0878185E1],"split_indices":[9,9,0,7,1,0,0,0,0],"split_type":[0,0,0,0,0,0,0,0,0],"sum_hessian":[1.31E2,1.29E2,2E0,8.2E1,4.7E1,6.9E1,1.3E1,2E0,4.5E1],"tree_param":{"num_deleted":"0","num_feature":"10","num_nodes":"9","size_leaf_vector":"0"}},{"base_weights":[3.528668E2,5.583741E2,-3.067928E2,2.7779016E2,4.2865312E3,-4.491405E3,4.5141623E2,5.813813E2,-1.870497E3,4.611201E3,1.1692559E3,-5.4080566E2,-5.343853E3,-3.8500918E3,7.5332733E2],"categories":[],"categories_nodes":[],"categories_segments":[],"categories_sizes":[],"default_left":[1,1,1,1,1,1,1,0,0,0,0,0,0,0,0],"id":45,"left_children":[1,3,5,7,9,11,13,-1,-1,-1,-1,-1,-1,-1,-1],"loss_changes":[1.8065868E7,1.04461416E8,1.0355742E8,6.3046556E7,1.692928E6,1.3948432E7,3.9263224E7,0E0,0E0,0E0,0E0,0E0,0E0,0E0,0E0],"parents":[2147483647,0,0,1,1,2,2,3,3,4,4,5,5,6,6],"right_children":[2,4,6,8,10,12,14,-1,-1,-1,-1,-1,-1,-1,-1],"split_conditions":[8.2289773E-1,7.682421E-1,2.0823936E-1,6.551597E-1,8.334475E-1,-2.7040035E-1,8.3910507E-1,5.813813E1,-1.870497E2,4.6112012E2,1.1692559E2,-5.4080566E1,-5.343853E2,-3.850092E2,7.533273E1],"split_indices":[1,8,0,3,5,0,1,0,0,0,0,0,0,0,0],"split_type":[0,0,0,0,0,0,0,0,0,0,0,0,0,0,0],"sum_hessian":[1.31E2,1E2,3.1E1,9.4E1,6E0,4E0,2.7E1,8.3E1,1.1E1,5E0,1E0,1E0,3E0,1E0,2.6E1],"tree_param":{"num_deleted":"0","num_feature":"10","num_nodes":"15","size_leaf_vector":"0"}},{"base_weights":[3.1417902E2,4.8578912E2,-4.3974384E2,2.9453657E3,3.628692E2,4.882242E2,-2.8956936E3,4.9290234E2,3.4352559E3,7.5156616E2,-8.321282E2,-7.6482715E2,1.2829064E3,-4.428324E3,6.239219E2],"categories":[],"categories_nodes":[],"categories_segments":[],"categories_sizes":[],"default_left":[1,1,1,1,1,1,1,0,0,0,0,0,0,0,0],"id":46,"left_children":[1,3,5,7,9,11,13,-1,-1,-1,-1,-1,-1,-1,-1],"loss_changes":[1.7291886E7,3.1582964E7,5.8389824E7,4.31394E6,4.893255E7,1.9900976E7,4.052282E7,0E0,0E0,0E0,0E0,0E0,0E0,0E0,0E0],"parents":[2147483647,0,0,1,1,2,2,3,3,4,4,5,5,6,6],"right_children":[2,4,6,8,10,12,14,-1,-1,-1,-1,-1,-1,-1,-1],"split_conditions":[1.1148732E0,-1.4731932E0,4.321949E-3,-7.060325E-1,8.838748E-1,-6.024666E-1,1.2418437E0,4.9290234E1,3.435256E2,7.515662E1,-8.321282E1,-7.648272E1,1.2829063E2,-4.4283243E2,6.239219E1],"split_indices":[0,9,6,0,1,9,0,0,0,0,0,0,0,0,0],"split_type":[0,0,0,0,0,0,0,0,0,0,0,0,0,0,0],"sum_hessian":[1.31E2,1.07E2,2.4E1,4E0,1.03E2,1.8E1,6E0,1E0,3E0,7.8E1,2.5E1,7E0,1.1E1,4E0,2E0],"tree_param":{"num_deleted":"0","num_feature":"10","num_nodes":"15","size_leaf_vector":"0"}},{"base_weights":[2.8318652E2,2.2762856E2,2.596302E3,-1.3777576E2,6.3061676E2,2.3727356E2,-3.027186E3,4.2003286E3,-5.481217E1],"categories":[],"categories_nodes":[],"categories_segments":[],"categories_sizes":[],"default_left":[1,1,0,1,1,0,0,0,0],"id":47,"left_children":[1,3,-1,5,7,-1,-1,-1,-1],"loss_changes":[1.6372585E7,1.9229856E7,0E0,7.549159E7,1.5193083E8,0E0,0E0,0E0,0E0],"parents":[2147483647,0,0,1,1,3,3,4,4],"right_children":[2,4,-1,6,8,-1,-1,-1,-1],"split_conditions":[2.367762E0,2.562086E-1,2.5963022E2,3.865239E-2,5.199587E-1,2.3727356E1,-3.027186E2,4.2003287E2,-5.481217E0],"split_indices":[9,6,0,7,1,0,0,0,0],"split_type":[0,0,0,0,0,0,0,0,0],"sum_hessian":[1.31E2,1.29E2,2E0,6.8E1,6.1E1,6.1E1,7E0,9E0,5.2E1],"tree_param":{"num_deleted":"0","num_feature":"10","num_nodes":"9","size_leaf_vector":"0"}},{"base_weights":[2.578619E2,1.6067545E2,1.4274694E3,3.9663934E2,-8.292022E2,3.5738652E3,-2.9667969E0,2.1831493E2,2.7346187E3,3.1331758E3,-1.1377046E3,4.541818E3,3.350039E2,-1.9664961E3,1.9613042E3],"categories":[],"categories_nodes":[],"categories_segments":[],"categories_sizes":[],"default_left":[1,1,1,1,1,1,1,0,0,0,0,0,0,0,0],"id":48,"left_children":[1,3,5,7,9,11,13,-1,-1,-1,-1,-1,-1,-1,-1],"loss_changes":[1.4775083E7,2.9058666E7,3.0713426E7,4.1094868E7,3.2902296E7,1.1018728E7,3.0855222E7,0E0,0E0,0E0,0E0,0E0,0E0,0E0,0E0],"parents":[2147483647,0,0,1,1,2,2,3,3,4,4,5,5,6,6],"right_children":[2,4,6,8,10,12,14,-1,-1,-1,-1,-1,-1,-1,-1],"split_conditions":[1.4363158E0,7.7830184E-1,1.6680548E0,6.6084754E-1,-1.6123241E0,1.317924E0,2.3482878E0,2.1831493E1,2.7346188E2,3.133176E2,-1.1377046E2,4.541818E2,3.3500393E1,-1.9664961E2,1.9613042E2],"split_indices":[9,9,9,9,0,1,9,0,0,0,0,0,0,0,0],"split_type":[0,0,0,0,0,0,0,0,0,0,0,0,0,0,0],"sum_hessian":[1.31E2,1.22E2,9E0,9.9E1,2.3E1,3E0,6E0,9.3E1,6E0,1E0,2.2E1,2E0,1E0,3E0,3E0],"tree_param":{"num_deleted":"0","num_feature":"10","num_nodes":"15","size_leaf_vector":"0"}},{"base_weights":[2.3951468E2,-1.2876117E3,3.0977643E2,3.913607E2,-2.224938E3,2.131312E3,1.18671234E2,8.8558594E2,-2.9854492E2,-6.0120703E2,-2.5657793E3,7.465315E2,3.9206985E3,-1.6481732E3,3.383857E2],"categories":[],"categories_nodes":[],"categories_segments":[],"categories_sizes":[],"default_left":[1,1,1,1,1,1,1,0,0,0,0,0,0,0,0],"id":49,"left_children":[1,3,5,7,9,11,13,-1,-1,-1,-1,-1,-1,-1,-1],"loss_changes":[1.4562285E7,1.0313223E7,4.39564E7,1.2872935E6,6.71174E5,2.6807956E7,4.5589076E7,0E0,0E0,0E0,0E0,0E0,0E0,0E0,0E0],"parents":[2147483647,0,0,1,1,2,2,3,3,4,4,5,5,6,6],"right_children":[2,4,6,8,10,12,14,-1,-1,-1,-1,-1,-1,-1,-1],"split_conditions":[-1.6315747E0,-2.1457982E0,-1.2613677E0,-1.6499937E0,-1.6530844E0,-1.087774E0,-8.683133E-1,8.855859E1,-2.9854492E1,-6.0120705E1,-2.5657794E2,7.465315E1,3.9206985E2,-1.6481732E2,3.3838573E1],"split_indices":[0,6,0,0,0,7,0,0,0,0,0,0,0,0,0],"split_type":[0,0,0,0,0,0,0,0,0,0,0,0,0,0,0],"sum_hessian":[1.31E2,5E0,1.26E2,2E0,3E0,1.1E1,1.15E2,1E0,1E0,1E0,2E0,7E0,4E0,1.2E1,1.03E2],"tree_param":{"num_deleted":"0","num_feature":"10","num_nodes":"15","size_leaf_vector":"0"}},{"base_weights":[2.1615175E2,3.6636026E2,-4.4139508E2,2.7428445E3,2.4858351E2,3.8142712E2,-2.6117131E3,4.285586E2,3.2142764E3,5.890897E2,-7.955924E2,-6.5766016E2,1.1969142E3,-4.039325E3,6.3821094E2],"categories":[],"categories_nodes":[],"categories_segments":[],"categories_sizes":[],"default_left":[1,1,1,1,1,1,1,0,0,0,0,0,0,0,0],"id":50,"left_children":[1,3,5,7,9,11,13,-1,-1,-1,-1,-1,-1,-1,-1],"loss_changes":[1.3199236E7,2.9546788E7,4.5640828E7,4.077636E6,3.7445704E7,1.6887046E7,3.5055344E7,0E0,0E0,0E0,0E0,0E0,0E0,0E0,0E0],"parents":[2147483647,0,0,1,1,2,2,3,3,4,4,5,5,6,6],"right_children":[2,4,6,8,10,12,14,-1,-1,-1,-1,-1,-1,-1,-1],"split_conditions":[1.1148732E0,-1.4731932E0,4.321949E-3,-7.060325E-1,8.838748E-1,-1.0194478E0,1.2418437E0,4.285586E1,3.2142764E2,5.8908974E1,-7.955924E1,-6.5766014E1,1.1969142E2,-4.039325E2,6.3821095E1],"split_indices":[0,9,6,0,1,1,0,0,0,0,0,0,0,0,0],"split_type":[0,0,0,0,0,0,0,0,0,0,0,0,0,0,0],"sum_hessian":[1.31E2,1.07E2,2.4E1,4E0,1.03E2,1.8E1,6E0,1E0,3E0,7.8E1,2.5E1,8E0,1E1,4E0,2E0],"tree_param":{"num_deleted":"0","num_feature":"10","num_nodes":"15","size_leaf_vector":"0"}},{"base_weights":[1.9497144E2,3.40376E1,8.497771E2,2.7651663E2,-4.093779E3,4.0981953E3,7.287402E1,1.3226176E1,3.847855E3,-3.8967383E2,-4.756665E3,5.302578E3,-3.5966797E2,4.202236E3,-5.5017395E2],"categories":[],"categories_nodes":[],"categories_segments":[],"categories_sizes":[],"default_left":[1,1,1,1,1,1,1,0,0,0,0,0,0,0,0],"id":51,"left_children":[1,3,5,7,9,11,13,-1,-1,-1,-1,-1,-1,-1,-1],"loss_changes":[1.3881286E7,1.0822925E8,6.5317704E7,9.585963E7,1.2878856E7,2.8752032E7,5.8913348E7,0E0,0E0,0E0,0E0,0E0,0E0,0E0,0E0],"parents":[2147483647,0,0,1,1,2,2,3,3,4,4,5,5,6,6],"right_children":[2,4,6,8,10,12,14,-1,-1,-1,-1,-1,-1,-1,-1],"split_conditions":[1.0238192E0,8.5048234E-1,4.7549504E-1,8.0628484E-1,-2.7040035E-1,9.017253E-1,9.611006E-1,1.3226177E0,3.847855E2,-3.8967384E1,-4.756665E2,5.302578E2,-3.5966797E1,4.202236E2,-5.5017395E1],"split_indices":[7,5,0,5,0,9,1,0,0,0,0,0,0,0,0],"split_type":[0,0,0,0,0,0,0,0,0,0,0,0,0,0,0],"sum_hessian":[1.31E2,1.06E2,2.5E1,1.01E2,5E0,4E0,2.1E1,9.5E1,6E0,1E0,4E0,3E0,1E0,2E0,1.9E1],"tree_param":{"num_deleted":"0","num_feature":"10","num_nodes":"15","size_leaf_vector":"0"}},{"base_weights":[1.8101134E2,-1.252042E3,2.4728935E2,3.3163803E2,-2.1267915E3,1.9018605E3,7.399502E1,8.111914E2,-3.1373438E2,-6.012617E2,-2.4348809E3,6.285066E2,3.5588547E3,-1.5516327E3,2.76487E2],"categories":[],"categories_nodes":[],"categories_segments":[],"categories_sizes":[],"default_left":[1,1,1,1,1,1,1,0,0,0,0,0,0,0,0],"id":52,"left_children":[1,3,5,7,9,11,13,-1,-1,-1,-1,-1,-1,-1,-1],"loss_changes":[1.2846968E7,9.017265E6,3.6273704E7,1.1829701E6,4.15998E5,2.3082516E7,3.8613484E7,0E0,0E0,0E0,0E0,0E0,0E0,0E0,0E0],"parents":[2147483647,0,0,1,1,2,2,3,3,4,4,5,5,6,6],"right_children":[2,4,6,8,10,12,14,-1,-1,-1,-1,-1,-1,-1,-1],"split_conditions":[-1.6315747E0,-2.1457982E0,-1.2613677E0,-1.6499937E0,-1.6530844E0,-1.087774E0,-8.683133E-1,8.111914E1,-3.1373438E1,-6.012617E1,-2.4348808E2,6.285066E1,3.5588547E2,-1.5516327E2,2.76487E1],"split_indices":[0,6,0,0,0,7,0,0,0,0,0,0,0,0,0],"split_type":[0,0,0,0,0,0,0,0,0,0,0,0,0,0,0],"sum_hessian":[1.31E2,5E0,1.26E2,2E0,3E0,1.1E1,1.15E2,1E0,1E0,1E0,2E0,7E0,4E0,1.2E1,1.03E2],"tree_param":{"num_deleted":"0","num_feature":"10","num_nodes":"15","size_leaf_vector":"0"}},{"base_weights":[1.6319339E2,1.15258446E2,2.1859766E3,3.6057718E2,-3.4055353E2,7.22637E1,1.7012225E3,2.848263E3,-5.50233E2],"categories":[],"categories_nodes":[],"categories_segments":[],"categories_sizes":[],"default_left":[1,1,0,1,1,0,0,0,0],"id":53,"left_children":[1,3,-1,5,7,-1,-1,-1,-1],"loss_changes":[1.2547031E7,1.4659294E7,0E0,3.2731784E7,3.232416E7,0E0,0E0,0E0,0E0],"parents":[2147483647,0,0,1,1,3,3,4,4],"right_children":[2,4,-1,6,8,-1,-1,-1,-1],"split_conditions":[2.367762E0,4.4989654E-1,2.1859766E2,1.0161824E0,-1.7843573E0,7.2263703E0,1.7012225E2,2.848263E2,-5.5023296E1],"split_indices":[9,9,0,7,1,0,0,0,0],"split_type":[0,0,0,0,0,0,0,0,0],"sum_hessian":[1.31E2,1.29E2,2E0,8.4E1,4.5E1,7E1,1.4E1,2E0,4.3E1],"tree_param":{"num_deleted":"0","num_feature":"10","num_nodes":"9","size_leaf_vector":"0"}},{"base_weights":[1.5161458E2,6.478873E1,1.2044111E3,2.616717E2,-7.5825653E2,3.2260166E3,-1.2285072E2,1.0702955E2,2.3009133E3,2.7352344E3,-1.0290707E3,4.0464817E3,3.8231055E2,-1.87206E3,1.6570713E3],"categories":[],"categories_nodes":[],"categories_segments":[],"categories_sizes":[],"default_left":[1,1,1,1,1,1,1,0,0,0,0,0,0,0,0],"id":54,"left_children":[1,3,5,7,9,11,13,-1,-1,-1,-1,-1,-1,-1,-1],"loss_changes":[1.1988082E7,2.0129776E7,2.7228318E7,3.1289004E7,2.5520832E7,7.785636E6,2.489633E7,0E0,0E0,0E0,0E0,0E0,0E0,0E0,0E0],"parents":[2147483647,0,0,1,1,2,2,3,3,4,4,5,5,6,6],"right_children":[2,4,6,8,10,12,14,-1,-1,-1,-1,-1,-1,-1,-1],"split_conditions":[1.4363158E0,7.7830184E-1,1.6680548E0,6.6084754E-1,-1.6123241E0,1.317924E0,2.3482878E0,1.0702955E1,2.3009134E2,2.7352344E2,-1.0290707E2,4.0464816E2,3.8231056E1,-1.8720601E2,1.6570714E2],"split_indices":[9,9,9,9,0,1,9,0,0,0,0,0,0,0,0],"split_type":[0,0,0,0,0,0,0,0,0,0,0,0,0,0,0],"sum_hessian":[1.31E2,1.22E2,9E0,9.9E1,2.3E1,3E0,6E0,9.3E1,6E0,1E0,2.2E1,2E0,1E0,3E0,3E0],"tree_param":{"num_deleted":"0","num_feature":"10","num_nodes":"15","size_leaf_vector":"0"}},{"base_weights":[1.4276192E2,2.1113048E2,-1.1082667E3,4.696695E1,1.9231157E3,-2.888412E3,9.489453E2,2.9437488E2,-1.517731E3,5.3003774E3,5.836823E2,1.841767E3,-8.6475977E2],"categories":[],"categories_nodes":[],"categories_segments":[],"categories_sizes":[],"default_left":[1,1,1,1,1,0,1,0,0,0,0,0,0],"id":55,"left_children":[1,3,5,7,9,-1,11,-1,-1,-1,-1,-1,-1],"loss_changes":[1.1524085E7,3.5321416E7,2.8375902E7,4.5352544E7,4.666606E7,0E0,8.069946E6,0E0,0E0,0E0,0E0,0E0,0E0],"parents":[2147483647,0,0,1,1,2,2,3,3,4,4,6,6],"right_children":[2,4,6,8,10,-1,12,-1,-1,-1,-1,-1,-1],"split_conditions":[1.6778795E0,1.1982449E0,1.7377108E0,8.2289773E-1,1.2295576E0,-2.8884122E2,6.621454E-1,2.9437489E1,-1.517731E2,5.300378E2,5.8368233E1,1.841767E2,-8.6475975E1],"split_indices":[7,7,7,1,1,0,0,0,0,0,0,0,0],"split_type":[0,0,0,0,0,0,0,0,0,0,0,0,0],"sum_hessian":[1.31E2,1.25E2,6E0,1.15E2,1E1,3E0,3E0,1E2,1.5E1,2E0,8E0,2E0,1E0],"tree_param":{"num_deleted":"0","num_feature":"10","num_nodes":"13","size_leaf_vector":"0"}},{"base_weights":[1.3056854E2,-1.2086215E3,1.9280925E2,2.8347852E2,-2.025541E3,1.6371559E3,4.1731934E1,7.4694824E2,-3.2173047E2,-5.9488184E2,-2.3041335E3,4.1109424E2,3.2714233E3,-1.420284E3,2.2408267E2],"categories":[],"categories_nodes":[],"categories_segments":[],"categories_sizes":[],"default_left":[1,1,1,1,1,1,1,0,0,0,0,0,0,0,0],"id":56,"left_children":[1,3,5,7,9,11,13,-1,-1,-1,-1,-1,-1,-1,-1],"loss_changes":[1.1235517E7,7.887751E6,2.7644096E7,1.0818041E6,2.23596E5,2.269969E7,3.1243826E7,0E0,0E0,0E0,0E0,0E0,0E0,0E0,0E0],"parents":[2147483647,0,0,1,1,2,2,3,3,4,4,5,5,6,6],"right_children":[2,4,6,8,10,12,14,-1,-1,-1,-1,-1,-1,-1,-1],"split_conditions":[-1.6315747E0,-2.1457982E0,-1.2613677E0,-1.6499937E0,-1.6530844E0,-1.087774E0,-8.683133E-1,7.4694824E1,-3.2173046E1,-5.9488186E1,-2.3041336E2,4.1109425E1,3.2714233E2,-1.4202841E2,2.2408268E1],"split_indices":[0,6,0,0,0,7,0,0,0,0,0,0,0,0,0],"split_type":[0,0,0,0,0,0,0,0,0,0,0,0,0,0,0],"sum_hessian":[1.31E2,5E0,1.26E2,2E0,3E0,1.1E1,1.15E2,1E0,1E0,1E0,2E0,7E0,4E0,1.2E1,1.03E2],"tree_param":{"num_deleted":"0","num_feature":"10","num_nodes":"15","size_leaf_vector":"0"}},{"base_weights":[1.1752038E2,2.5297946E2,-4.7236368E2,2.330043E3,1.5068814E2,2.8428607E2,-2.4586467E3,3.5775586E2,2.7336758E3,2.7424048E2,-1.91304E3,-6.650031E2,1.2051467E3,-3.7600046E3,5.2983203E2],"categories":[],"categories_nodes":[],"categories_segments":[],"categories_sizes":[],"default_left":[1,1,1,1,1,1,1,0,0,0,0,0,0,0,0],"id":57,"left_children":[1,3,5,7,9,11,13,-1,-1,-1,-1,-1,-1,-1,-1],"loss_changes":[1.0666979E7,2.259517E7,3.827197E7,3.002412E6,2.704239E7,1.7410524E7,2.921574E7,0E0,0E0,0E0,0E0,0E0,0E0,0E0,0E0],"parents":[2147483647,0,0,1,1,2,2,3,3,4,4,5,5,6,6],"right_children":[2,4,6,8,10,12,14,-1,-1,-1,-1,-1,-1,-1,-1],"split_conditions":[1.1148732E0,-1.4731932E0,4.321949E-3,-7.060325E-1,1.6778795E0,-4.8878455E-1,1.2418437E0,3.5775585E1,2.7336758E2,2.7424047E1,-1.91304E2,-6.650031E1,1.2051467E2,-3.7600046E2,5.2983204E1],"split_indices":[0,9,6,0,7,9,0,0,0,0,0,0,0,0,0],"split_type":[0,0,0,0,0,0,0,0,0,0,0,0,0,0,0],"sum_hessian":[1.31E2,1.07E2,2.4E1,4E0,1.03E2,1.8E1,6E0,1E0,3E0,9.8E1,5E0,9E0,9E0,4E0,2E0],"tree_param":{"num_deleted":"0","num_feature":"10","num_nodes":"15","size_leaf_vector":"0"}},{"base_weights":[1.04830185E2,-3.4733463E1,6.751563E2,1.8024158E2,-3.6835203E3,3.5142476E3,-7.8062856E-1,-5.6489746E1,3.4010938E3,-2.540791E2,-4.318593E3,4.558132E3,-3.3064453E2,3.5418125E3,-5.3213055E2],"categories":[],"categories_nodes":[],"categories_segments":[],"categories_sizes":[],"default_left":[1,1,1,1,1,1,1,0,0,0,0,0,0,0,0],"id":58,"left_children":[1,3,5,7,9,11,13,-1,-1,-1,-1,-1,-1,-1,-1],"loss_changes":[1.0530228E7,8.459452E7,4.989796E7,7.796474E7,1.1970392E7,2.1575228E7,4.3296556E7,0E0,0E0,0E0,0E0,0E0,0E0,0E0,0E0],"parents":[2147483647,0,0,1,1,2,2,3,3,4,4,5,5,6,6],"right_children":[2,4,6,8,10,12,14,-1,-1,-1,-1,-1,-1,-1,-1],"split_conditions":[1.0238192E0,8.5048234E-1,4.7549504E-1,8.0628484E-1,-2.7040035E-1,9.017253E-1,9.611006E-1,-5.648975E0,3.4010938E2,-2.5407911E1,-4.3185928E2,4.558132E2,-3.3064453E1,3.5418124E2,-5.3213055E1],"split_indices":[7,5,0,5,0,9,1,0,0,0,0,0,0,0,0],"split_type":[0,0,0,0,0,0,0,0,0,0,0,0,0,0,0],"sum_hessian":[1.31E2,1.06E2,2.5E1,1.01E2,5E0,4E0,2.1E1,9.5E1,6E0,1E0,4E0,3E0,1E0,2E0,1.9E1],"tree_param":{"num_deleted":"0","num_feature":"10","num_nodes":"15","size_leaf_vector":"0"}},{"base_weights":[9.889924E1,-4.5853366E2,2.3342593E2,1.7667146E2,-1.9098291E3,2.1084287E3,1.8390303E1,-1.1471357E3,7.31398E2,-2.2805737E3,3.426914E2,-3.0268057E3,2.9246326E3,-1.7895222E3,1.788893E2],"categories":[],"categories_nodes":[],"categories_segments":[],"categories_sizes":[],"default_left":[1,1,1,1,1,1,1,0,0,0,0,0,0,0,0],"id":59,"left_children":[1,3,5,7,9,11,13,-1,-1,-1,-1,-1,-1,-1,-1],"loss_changes":[1.0005661E7,2.430604E7,4.310281E7,1.4791683E7,7.46241E6,5.495768E7,2.8466436E7,0E0,0E0,0E0,0E0,0E0,0E0,0E0,0E0],"parents":[2147483647,0,0,1,1,2,2,3,3,4,4,5,5,6,6],"right_children":[2,4,6,8,10,12,14,-1,-1,-1,-1,-1,-1,-1,-1],"split_conditions":[-1.021653E0,-1.1176481E0,-7.7313447E-1,-1.6315747E0,-9.9291337E-1,-1.1115224E0,-1.0733637E0,-1.1471358E2,7.31398E1,-2.2805737E2,3.4269142E1,-3.0268057E2,2.9246326E2,-1.7895222E2,1.788893E1],"split_indices":[3,1,7,0,5,7,0,0,0,0,0,0,0,0,0],"split_type":[0,0,0,0,0,0,0,0,0,0,0,0,0,0,0],"sum_hessian":[1.31E2,2.5E1,1.06E2,1.8E1,7E0,1E1,9.6E1,5E0,1.3E1,6E0,1E0,1E0,9E0,7E0,8.9E1],"tree_param":{"num_deleted":"0","num_feature":"10","num_nodes":"15","size_leaf_vector":"0"}},{"base_weights":[8.592802E1,2.9395737E2,-2.7244736E2,-1.6161119E2,2.5833438E3,-4.40624E3,2.9744366E2,1.9007791E2,-2.9549226E3,3.727739E3,-1.2095791E3,1.7919794E3,-3.190066E2],"categories":[],"categories_nodes":[],"categories_segments":[],"categories_sizes":[],"default_left":[1,1,1,1,1,0,1,0,0,0,0,0,0],"id":60,"left_children":[1,3,5,7,9,-1,11,-1,-1,-1,-1,-1,-1],"loss_changes":[9.92103E6,8.8027176E7,1.1674537E8,7.031045E7,6.527743E7,0E0,4.110916E7,0E0,0E0,0E0,0E0,0E0,0E0],"parents":[2147483647,0,0,1,1,2,2,3,3,4,4,6,6],"right_children":[2,4,6,8,10,-1,12,-1,-1,-1,-1,-1,-1],"split_conditions":[6.551597E-1,2.562086E-1,6.732574E-1,3.865239E-2,8.198744E-1,-4.4062402E2,8.2289773E-1,1.9007792E1,-2.9549228E2,3.727739E2,-1.2095791E2,1.7919794E2,-3.190066E1],"split_indices":[3,6,1,7,9,0,1,0,0,0,0,0,0],"split_type":[0,0,0,0,0,0,0,0,0,0,0,0,0],"sum_hessian":[1.31E2,8.3E1,4.8E1,7E1,1.3E1,5E0,4.3E1,6.3E1,7E0,1E1,3E0,1.2E1,3.1E1],"tree_param":{"num_deleted":"0","num_feature":"10","num_nodes":"13","size_leaf_vector":"0"}},{"base_weights":[7.4926285E1,-6.3283276E1,6.4083E2,1.3242065E2,-3.379703E3,3.216362E3,2.635316E1,-6.100745E1,3.2374382E3,-2.3436914E2,-3.9618958E3,4.174006E3,-3.0710645E2,3.315034E3,-4.682666E2],"categories":[],"categories_nodes":[],"categories_segments":[],"categories_sizes":[],"default_left":[1,1,1,1,1,1,1,0,0,0,0,0,0,0,0],"id":61,"left_children":[1,3,5,7,9,11,13,-1,-1,-1,-1,-1,-1,-1,-1],"loss_changes":[1.0364711E7,6.9894424E7,4.1062964E7,6.1458468E7,1.00586E7,1.8153004E7,3.7338544E7,0E0,0E0,0E0,0E0,0E0,0E0,0E0,0E0],"parents":[2147483647,0,0,1,1,2,2,3,3,4,4,5,5,6,6],"right_children":[2,4,6,8,10,12,14,-1,-1,-1,-1,-1,-1,-1,-1],"split_conditions":[1.0238192E0,8.5048234E-1,4.7549504E-1,8.147484E-1,-2.7040035E-1,9.017253E-1,9.611006E-1,-6.100745E0,3.2374384E2,-2.3436914E1,-3.9618958E2,4.174006E2,-3.0710646E1,3.315034E2,-4.682666E1],"split_indices":[7,5,0,5,0,9,1,0,0,0,0,0,0,0,0],"split_type":[0,0,0,0,0,0,0,0,0,0,0,0,0,0,0],"sum_hessian":[1.31E2,1.06E2,2.5E1,1.01E2,5E0,4E0,2.1E1,9.6E1,5E0,1E0,4E0,3E0,1E0,2E0,1.9E1],"tree_param":{"num_deleted":"0","num_feature":"10","num_nodes":"15","size_leaf_vector":"0"}},{"base_weights":[7.174778E1,4.1189066E2,-1.4750133E2,-4.3012592E1,3.9066511E3,-3.4375754E3,1.6153893E2,4.535043E2,-1.245767E3,4.6399814E3,1.2E2,1.2024017E3,-4.4899643E2],"categories":[],"categories_nodes":[],"categories_segments":[],"categories_sizes":[],"default_left":[1,1,1,1,1,0,1,0,0,0,0,0,0],"id":62,"left_children":[1,3,5,7,9,-1,11,-1,-1,-1,-1,-1,-1],"loss_changes":[9.90479E6,8.283648E7,8.29133E7,2.8632794E7,1.61044E7,0E0,4.820114E7,0E0,0E0,0E0,0E0,0E0,0E0],"parents":[2147483647,0,0,1,1,2,2,3,3,4,4,6,6],"right_children":[2,4,6,8,10,-1,12,-1,-1,-1,-1,-1,-1],"split_conditions":[-2.1926478E-1,-4.7568578E-1,-1.7207604E-2,-7.7313447E-1,-2.7337623E-1,-3.4375754E2,-3.5738924E-1,4.535043E1,-1.245767E2,4.6399814E2,1.2E1,1.2024017E2,-4.4899643E1],"split_indices":[4,6,7,7,1,0,9,0,0,0,0,0,0],"split_type":[0,0,0,0,0,0,0,0,0,0,0,0,0],"sum_hessian":[1.31E2,5.1E1,8E1,4.6E1,5E0,6E0,7.4E1,3.3E1,1.3E1,4E0,1E0,2.7E1,4.7E1],"tree_param":{"num_deleted":"0","num_feature":"10","num_nodes":"13","size_leaf_vector":"0"}},{"base_weights":[6.554563E1,-6.0624664E2,1.7012576E2,4.6995795E2,-4.490452E3,2.580142E3,-9.969202E0,-1.0695325E3,1.9507036E3,3.834336E3,1.0607585E3,-3.2738347E3,1.4704327E2],"categories":[],"categories_nodes":[],"categories_segments":[],"categories_sizes":[],"default_left":[1,1,1,1,0,1,1,0,0,0,0,0,0],"id":63,"left_children":[1,3,5,7,-1,9,11,-1,-1,-1,-1,-1,-1],"loss_changes":[9.376947E6,7.735391E7,4.9939376E7,3.6280244E7,0E0,1.1177508E7,5.58279E7,0E0,0E0,0E0,0E0,0E0,0E0],"parents":[2147483647,0,0,1,1,2,2,3,3,5,5,6,6],"right_children":[2,4,6,8,-1,10,12,-1,-1,-1,-1,-1,-1],"split_conditions":[-1.0361546E0,-1.2919571E0,-8.2988435E-1,1.4428128E-2,-4.4904523E2,1.1902415E-1,-6.7388624E-1,-1.0695325E2,1.9507036E2,3.834336E2,1.0607586E2,-3.2738348E2,1.4704328E1],"split_indices":[9,9,9,5,0,6,9,0,0,0,0,0,0],"split_type":[0,0,0,0,0,0,0,0,0,0,0,0,0],"sum_hessian":[1.31E2,1.7E1,1.14E2,1.4E1,3E0,7E0,1.07E2,7E0,7E0,3E0,4E0,4E0,1.03E2],"tree_param":{"num_deleted":"0","num_feature":"10","num_nodes":"13","size_leaf_vector":"0"}},{"base_weights":[5.759656E1,2.7187848E2,-2.669346E2,-7.952114E1,3.9478347E3,-2.7511902E3,1.709128E2,2.5884964E2,-2.5520713E3,4.6674907E3,1.4324635E3,-3.2867134E3,4.9873633E2,2.8013484E3,-1.4630367E2],"categories":[],"categories_nodes":[],"categories_segments":[],"categories_sizes":[],"default_left":[1,1,1,1,1,1,1,0,0,0,0,0,0,0,0],"id":64,"left_children":[1,3,5,7,9,11,13,-1,-1,-1,-1,-1,-1,-1,-1],"loss_changes":[9.252007E6,1.0365231E8,5.811963E7,6.2571868E7,5.9854E6,1.5562492E7,3.8793052E7,0E0,0E0,0E0,0E0,0E0,0E0,0E0,0E0],"parents":[2147483647,0,0,1,1,2,2,3,3,4,4,5,5,6,6],"right_children":[2,4,6,8,10,12,14,-1,-1,-1,-1,-1,-1,-1,-1],"split_conditions":[5.199587E-1,4.3852642E-1,6.626778E-1,9.346825E-2,4.845966E-1,1.1915083E0,7.070363E-1,2.5884964E1,-2.5520714E2,4.6674908E2,1.4324635E2,-3.2867136E2,4.9873634E1,2.8013486E2,-1.4630366E1],"split_indices":[1,4,5,7,2,9,5,0,0,0,0,0,0,0,0],"split_type":[0,0,0,0,0,0,0,0,0,0,0,0,0,0,0],"sum_hessian":[1.31E2,7.9E1,5.2E1,7.3E1,6E0,7E0,4.5E1,6.5E1,8E0,4E0,2E0,6E0,1E0,4E0,4.1E1],"tree_param":{"num_deleted":"0","num_feature":"10","num_nodes":"15","size_leaf_vector":"0"}},{"base_weights":[5.4619495E1,-3.9178354E2,2.0737791E2,2.0583376E2,-2.0747021E3,3.6597642E3,2.3490461E1,-1.6916496E2,3.1372122E3,-2.6792485E3,2.7473959E1,1.00194403E3,5.0976626E3,-5.8525597E1,3.8665E3],"categories":[],"categories_nodes":[],"categories_segments":[],"categories_sizes":[],"default_left":[1,1,1,1,1,1,1,0,0,0,0,0,0,0,0],"id":65,"left_children":[1,3,5,7,9,11,13,-1,-1,-1,-1,-1,-1,-1,-1],"loss_changes":[9.082568E6,3.462225E7,6.2764228E7,2.9111548E7,1.1511376E7,1.4000804E7,3.0169196E7,0E0,0E0,0E0,0E0,0E0,0E0,0E0,0E0],"parents":[2147483647,0,0,1,1,2,2,3,3,4,4,5,5,6,6],"right_children":[2,4,6,8,10,12,14,-1,-1,-1,-1,-1,-1,-1,-1],"split_conditions":[-9.0388E-1,-1.0380877E0,-7.566004E-1,-1.0452752E0,1.4462667E0,-1.1351014E0,1.3462305E0,-1.6916496E1,3.1372122E2,-2.6792487E2,2.747396E0,1.00194405E2,5.0976627E2,-5.8525596E0,3.8665E2],"split_indices":[1,6,1,1,0,0,0,0,0,0,0,0,0,0,0],"split_type":[0,0,0,0,0,0,0,0,0,0,0,0,0,0,0],"sum_hessian":[1.31E2,3.3E1,9.8E1,2.5E1,8E0,4E0,9.4E1,2.3E1,2E0,6E0,2E0,2E0,2E0,9.3E1,1E0],"tree_param":{"num_deleted":"0","num_feature":"10","num_nodes":"15","size_leaf_vector":"0"}},{"base_weights":[5.690298E1,-7.300053E1,5.893173E2,1.0397614E2,-3.0694373E3,3.0126042E3,1.1783114E1,-8.71959E1,2.7109104E3,-1.9731055E2,-3.6044004E3,3.898961E3,-2.6641113E2,2.9576016E3,-4.306788E2],"categories":[],"categories_nodes":[],"categories_segments":[],"categories_sizes":[],"default_left":[1,1,1,1,1,1,1,0,0,0,0,0,0,0,0],"id":66,"left_children":[1,3,5,7,9,11,13,-1,-1,-1,-1,-1,-1,-1,-1],"loss_changes":[9.172469E6,5.706118E7,3.635231E7,5.107042E7,8.507704E6,1.5570608E7,2.9948852E7,0E0,0E0,0E0,0E0,0E0,0E0,0E0,0E0],"parents":[2147483647,0,0,1,1,2,2,3,3,4,4,5,5,6,6],"right_children":[2,4,6,8,10,12,14,-1,-1,-1,-1,-1,-1,-1,-1],"split_conditions":[1.0238192E0,8.5048234E-1,4.7549504E-1,8.0628484E-1,-2.7040035E-1,9.017253E-1,9.611006E-1,-8.71959E0,2.7109103E2,-1.9731054E1,-3.6044003E2,3.898961E2,-2.6641113E1,2.9576016E2,-4.3067883E1],"split_indices":[7,5,0,5,0,9,1,0,0,0,0,0,0,0,0],"split_type":[0,0,0,0,0,0,0,0,0,0,0,0,0,0,0],"sum_hessian":[1.31E2,1.06E2,2.5E1,1.01E2,5E0,4E0,2.1E1,9.5E1,6E0,1E0,4E0,3E0,1E0,2E0,1.9E1],"tree_param":{"num_deleted":"0","num_feature":"10","num_nodes":"15","size_leaf_vector":"0"}},{"base_weights":[5.4985912E1,2.4928716E2,-2.792241E2,-1.4008159E2,2.2061367E3,-3.802633E3,2.0758678E2,1.325327E2,-2.6514883E3,3.1522498E3,-9.47208E2,-1.5031022E3,-4.576623E3,1.3212473E3,-2.5132489E2],"categories":[],"categories_nodes":[],"categories_segments":[],"categories_sizes":[],"default_left":[1,1,1,1,1,1,1,0,0,0,0,0,0,0,0],"id":67,"left_children":[1,3,5,7,9,11,13,-1,-1,-1,-1,-1,-1,-1,-1],"loss_changes":[8.641346E6,6.431167E7,8.483584E7,4.8961228E7,4.475372E7,3.799752E6,2.2819222E7,0E0,0E0,0E0,0E0,0E0,0E0,0E0,0E0],"parents":[2147483647,0,0,1,1,2,2,3,3,4,4,5,5,6,6],"right_children":[2,4,6,8,10,12,14,-1,-1,-1,-1,-1,-1,-1,-1],"split_conditions":[6.551597E-1,2.562086E-1,6.732574E-1,7.121571E-2,8.198744E-1,-1.6729255E-1,8.2289773E-1,1.325327E1,-2.6514883E2,3.1522498E2,-9.47208E1,-1.5031023E2,-4.5766232E2,1.3212474E2,-2.513249E1],"split_indices":[3,6,1,7,9,0,1,0,0,0,0,0,0,0,0],"split_type":[0,0,0,0,0,0,0,0,0,0,0,0,0,0,0],"sum_hessian":[1.31E2,8.3E1,4.8E1,7E1,1.3E1,5E0,4.3E1,6.4E1,6E0,1E1,3E0,2E0,3E0,1.2E1,3.1E1],"tree_param":{"num_deleted":"0","num_feature":"10","num_nodes":"15","size_leaf_vector":"0"}},{"base_weights":[4.545382E1,-8.2963806E1,5.721935E2,7.796416E1,-2.8049119E3,2.7726504E3,4.6080875E1,-7.9768E1,2.6149734E3,-1.748789E2,-3.2959426E3,3.5860752E3,-2.4052441E2,2.7771824E3,-3.6588837E2],"categories":[],"categories_nodes":[],"categories_segments":[],"categories_sizes":[],"default_left":[1,1,1,1,1,1,1,0,0,0,0,0,0,0,0],"id":68,"left_children":[1,3,5,7,9,11,13,-1,-1,-1,-1,-1,-1,-1,-1],"loss_changes":[8.976302E6,4.7088696E7,2.9972128E7,4.102572E7,7.172168E6,1.3117492E7,2.5768994E7,0E0,0E0,0E0,0E0,0E0,0E0,0E0,0E0],"parents":[2147483647,0,0,1,1,2,2,3,3,4,4,5,5,6,6],"right_children":[2,4,6,8,10,12,14,-1,-1,-1,-1,-1,-1,-1,-1],"split_conditions":[1.0238192E0,8.5048234E-1,4.7549504E-1,8.147484E-1,-2.7040035E-1,9.017253E-1,9.611006E-1,-7.9768E0,2.6149734E2,-1.748789E1,-3.2959427E2,3.586075E2,-2.4052443E1,2.7771823E2,-3.6588837E1],"split_indices":[7,5,0,5,0,9,1,0,0,0,0,0,0,0,0],"split_type":[0,0,0,0,0,0,0,0,0,0,0,0,0,0,0],"sum_hessian":[1.31E2,1.06E2,2.5E1,1.01E2,5E0,4E0,2.1E1,9.6E1,5E0,1E0,4E0,3E0,1E0,2E0,1.9E1],"tree_param":{"num_deleted":"0","num_feature":"10","num_nodes":"15","size_leaf_vector":"0"}},{"base_weights":[4.456065E1,-1.1169482E3,9.908421E1,2.7893686E2,-1.884625E3,2.5439902E3,1.9417213E1,7.168252E2,-2.9841992E2,-5.579131E2,-2.1408914E3,-1.4425896E3,1.3268138E2],"categories":[],"categories_nodes":[],"categories_segments":[],"categories_sizes":[],"default_left":[1,1,1,1,1,0,1,0,0,0,0,0,0],"id":69,"left_children":[1,3,5,7,9,-1,11,-1,-1,-1,-1,-1,-1],"loss_changes":[8.47018E6,6.955223E6,2.4687452E7,9.723683E5,1.65535E5,0E0,2.0724936E7,0E0,0E0,0E0,0E0,0E0,0E0],"parents":[2147483647,0,0,1,1,2,2,3,3,4,4,6,6],"right_children":[2,4,6,8,10,-1,12,-1,-1,-1,-1,-1,-1],"split_conditions":[-1.6315747E0,-2.1457982E0,-1.7843573E0,-1.6499937E0,-1.6530844E0,2.5439903E2,-1.1115224E0,7.168252E1,-2.9841993E1,-5.579131E1,-2.1408914E2,-1.4425896E2,1.3268138E1],"split_indices":[0,6,1,0,0,0,7,0,0,0,0,0,0],"split_type":[0,0,0,0,0,0,0,0,0,0,0,0,0],"sum_hessian":[1.31E2,5E0,1.26E2,2E0,3E0,3E0,1.23E2,1E0,1E0,1E0,2E0,8E0,1.15E2],"tree_param":{"num_deleted":"0","num_feature":"10","num_nodes":"13","size_leaf_vector":"0"}},{"base_weights":[3.9311523E1,3.635428E2,-1.6932227E2,-4.3667095E1,3.492763E3,-3.1148728E3,1.0785341E2,3.84711E2,-1.0808948E3,4.604129E3,8.466875E2,2.0356782E3,-1.5271788E2],"categories":[],"categories_nodes":[],"categories_segments":[],"categories_sizes":[],"default_left":[1,1,1,1,1,0,1,0,0,0,0,0,0],"id":70,"left_children":[1,3,5,7,9,-1,11,-1,-1,-1,-1,-1,-1],"loss_changes":[8.990774E6,6.641349E7,6.6467184E7,2.1299136E7,1.3746288E7,0E0,3.7986068E7,0E0,0E0,0E0,0E0,0E0,0E0],"parents":[2147483647,0,0,1,1,2,2,3,3,4,4,6,6],"right_children":[2,4,6,8,10,-1,12,-1,-1,-1,-1,-1,-1],"split_conditions":[-2.1926478E-1,-4.7568578E-1,-1.7207604E-2,-7.7313447E-1,-3.870315E-1,-3.1148727E2,9.346825E-2,3.84711E1,-1.0808948E2,4.604129E2,8.4668755E1,2.0356783E2,-1.5271789E1],"split_indices":[4,6,7,7,6,0,7,0,0,0,0,0,0],"split_type":[0,0,0,0,0,0,0,0,0,0,0,0,0],"sum_hessian":[1.31E2,5.1E1,8E1,4.6E1,5E0,6E0,7.4E1,3.3E1,1.3E1,3E0,2E0,8E0,6.6E1],"tree_param":{"num_deleted":"0","num_feature":"10","num_nodes":"13","size_leaf_vector":"0"}},{"base_weights":[3.8049347E1,-8.404286E1,5.390423E2,6.3637276E1,-2.580598E3,2.5638984E3,5.434579E1,-8.145747E1,2.3987295E3,-1.6513281E2,-3.0306646E3,3.318621E3,-2.274961E2,2.5933723E3,-3.292255E2],"categories":[],"categories_nodes":[],"categories_segments":[],"categories_sizes":[],"default_left":[1,1,1,1,1,1,1,0,0,0,0,0,0,0,0],"id":71,"left_children":[1,3,5,7,9,11,13,-1,-1,-1,-1,-1,-1,-1,-1],"loss_changes":[8.1193905E6,3.961422E7,2.537812E7,3.475398E7,6.022252E6,1.1288616E7,2.2279554E7,0E0,0E0,0E0,0E0,0E0,0E0,0E0,0E0],"parents":[2147483647,0,0,1,1,2,2,3,3,4,4,5,5,6,6],"right_children":[2,4,6,8,10,12,14,-1,-1,-1,-1,-1,-1,-1,-1],"split_conditions":[1.0238192E0,8.5048234E-1,4.7549504E-1,8.147484E-1,-2.7040035E-1,9.017253E-1,9.611006E-1,-8.145747E0,2.3987296E2,-1.651328E1,-3.0306647E2,3.3186212E2,-2.2749609E1,2.5933725E2,-3.292255E1],"split_indices":[7,5,0,5,0,9,1,0,0,0,0,0,0,0,0],"split_type":[0,0,0,0,0,0,0,0,0,0,0,0,0,0,0],"sum_hessian":[1.31E2,1.06E2,2.5E1,1.01E2,5E0,4E0,2.1E1,9.6E1,5E0,1E0,4E0,3E0,1E0,2E0,1.9E1],"tree_param":{"num_deleted":"0","num_feature":"10","num_nodes":"15","size_leaf_vector":"0"}},{"base_weights":[3.763558E1,2.285369E2,-2.903919E2,-1.24471855E2,2.0024716E3,-3.5085935E3,1.5505357E2,1.4668277E2,-2.27815E3,2.8622627E3,-8.6257227E2,-1.3908119E3,-4.2197812E3,1.0844904E3,-2.2737555E2],"categories":[],"categories_nodes":[],"categories_segments":[],"categories_sizes":[],"default_left":[1,1,1,1,1,1,1,0,0,0,0,0,0,0,0],"id":72,"left_children":[1,3,5,7,9,11,13,-1,-1,-1,-1,-1,-1,-1,-1],"loss_changes":[8.3323215E6,5.2851268E7,7.078715E7,4.179673E7,3.695566E7,3.16792E6,1.5886109E7,0E0,0E0,0E0,0E0,0E0,0E0,0E0,0E0],"parents":[2147483647,0,0,1,1,2,2,3,3,4,4,5,5,6,6],"right_children":[2,4,6,8,10,12,14,-1,-1,-1,-1,-1,-1,-1,-1],"split_conditions":[6.551597E-1,2.562086E-1,6.732574E-1,3.865239E-2,8.198744E-1,-1.6729255E-1,-3.5738924E-1,1.4668277E1,-2.2781499E2,2.862263E2,-8.6257225E1,-1.3908119E2,-4.2197812E2,1.08449036E2,-2.2737555E1],"split_indices":[3,6,1,7,9,0,9,0,0,0,0,0,0,0,0],"split_type":[0,0,0,0,0,0,0,0,0,0,0,0,0,0,0],"sum_hessian":[1.31E2,8.3E1,4.8E1,7E1,1.3E1,5E0,4.3E1,6.3E1,7E0,1E1,3E0,2E0,3E0,1.2E1,3.1E1],"tree_param":{"num_deleted":"0","num_feature":"10","num_nodes":"15","size_leaf_vector":"0"}},{"base_weights":[3.0171356E1,-6.4588824E2,1.3572702E2,2.781862E2,-3.9496953E3,2.2001006E3,-1.8446272E1,-1.02002637E3,1.5416255E3,3.3281758E3,8.576203E2,-2.954778E3,1.22900894E2],"categories":[],"categories_nodes":[],"categories_segments":[],"categories_sizes":[],"default_left":[1,1,1,1,0,1,1,0,0,0,0,0,0],"id":73,"left_children":[1,3,5,7,-1,9,11,-1,-1,-1,-1,-1,-1],"loss_changes":[9.507438E6,5.6052096E7,3.664178E7,2.617569E7,0E0,9.26104E6,4.51877E7,0E0,0E0,0E0,0E0,0E0,0E0],"parents":[2147483647,0,0,1,1,2,2,3,3,5,5,6,6],"right_children":[2,4,6,8,-1,10,12,-1,-1,-1,-1,-1,-1],"split_conditions":[-1.0361546E0,-1.2919571E0,-8.2988435E-1,7.592722E-2,-3.9496954E2,1.1902415E-1,-6.7388624E-1,-1.0200264E2,1.5416255E2,3.328176E2,8.576203E1,-2.954778E2,1.229009E1],"split_indices":[9,9,9,7,0,6,9,0,0,0,0,0,0],"split_type":[0,0,0,0,0,0,0,0,0,0,0,0,0],"sum_hessian":[1.31E2,1.7E1,1.14E2,1.4E1,3E0,7E0,1.07E2,7E0,7E0,3E0,4E0,4E0,1.03E2],"tree_param":{"num_deleted":"0","num_feature":"10","num_nodes":"13","size_leaf_vector":"0"}},{"base_weights":[2.558283E1,3.3953577E2,-1.6999257E2,-4.0758644E1,3.846396E3,-2.445106E3,7.495276E1,1.18303734E2,-2.4131082E3,1.00384766E2,4.7578027E3,3.9978516E1,-2.8058293E3,1.7889473E3,-1.56404E2],"categories":[],"categories_nodes":[],"categories_segments":[],"categories_sizes":[],"default_left":[1,1,1,1,1,1,1,0,0,0,0,0,0,0,0],"id":74,"left_children":[1,3,5,7,9,11,13,-1,-1,-1,-1,-1,-1,-1,-1],"loss_changes":[8.1627125E6,6.817238E7,4.5880096E7,1.8021002E7,1.659308E7,7.283596E6,3.0020614E7,0E0,0E0,0E0,0E0,0E0,0E0,0E0,0E0],"parents":[2147483647,0,0,1,1,2,2,3,3,4,4,5,5,6,6],"right_children":[2,4,6,8,10,12,14,-1,-1,-1,-1,-1,-1,-1,-1],"split_conditions":[-2.7890876E-1,-4.7568578E-1,-1.7207604E-2,-4.89492E-1,-7.855817E-1,-2.1926478E-1,9.346825E-2,1.1830374E1,-2.4131082E2,1.0038477E1,4.7578027E2,3.9978516E0,-2.8058295E2,1.7889473E2,-1.5640401E1],"split_indices":[1,6,7,5,0,4,7,0,0,0,0,0,0,0,0],"split_type":[0,0,0,0,0,0,0,0,0,0,0,0,0,0,0],"sum_hessian":[1.31E2,5E1,8.1E1,4.6E1,4E0,7E0,7.4E1,4.4E1,2E0,1E0,3E0,1E0,6E0,8E0,6.6E1],"tree_param":{"num_deleted":"0","num_feature":"10","num_nodes":"15","size_leaf_vector":"0"}},{"base_weights":[2.4107748E1,-6.001003E2,1.21600235E2,2.3334714E2,-3.575503E3,1.9940312E3,-1.8224283E1,-9.828916E2,1.4204175E3,2.9861582E3,8.0152344E2,-2.7168716E3,1.116936E2],"categories":[],"categories_nodes":[],"categories_segments":[],"categories_sizes":[],"default_left":[1,1,1,1,0,1,1,0,0,0,0,0,0],"id":75,"left_children":[1,3,5,7,-1,9,11,-1,-1,-1,-1,-1,-1],"loss_changes":[8.105911E6,4.547148E7,3.0144694E7,2.305253E7,0E0,7.071478E6,3.8168532E7,0E0,0E0,0E0,0E0,0E0,0E0],"parents":[2147483647,0,0,1,1,2,2,3,3,5,5,6,6],"right_children":[2,4,6,8,-1,10,12,-1,-1,-1,-1,-1,-1],"split_conditions":[-1.0361546E0,-1.2919571E0,-8.2988435E-1,7.592722E-2,-3.575503E2,1.1902415E-1,-6.7388624E-1,-9.828916E1,1.4204175E2,2.986158E2,8.015234E1,-2.7168716E2,1.116936E1],"split_indices":[9,9,9,7,0,6,9,0,0,0,0,0,0],"split_type":[0,0,0,0,0,0,0,0,0,0,0,0,0],"sum_hessian":[1.31E2,1.7E1,1.14E2,1.4E1,3E0,7E0,1.07E2,7E0,7E0,3E0,4E0,4E0,1.03E2],"tree_param":{"num_deleted":"0","num_feature":"10","num_nodes":"13","size_leaf_vector":"0"}},{"base_weights":[2.0215717E1,-1.1101625E3,7.346023E1,2.114681E2,-1.8238447E3,1.3988866E3,-6.428612E1,6.408428E2,-3.2364062E2,3.5190454E2,2.7942805E3,-1.0582585E3,6.0578575E1],"categories":[],"categories_nodes":[],"categories_segments":[],"categories_sizes":[],"default_left":[1,1,1,1,0,1,1,0,0,0,0,0,0],"id":76,"left_children":[1,3,5,7,-1,9,11,-1,-1,-1,-1,-1,-1],"loss_changes":[8.0261625E6,6.04503E6,2.3276652E7,8.966892E5,0E0,1.654811E7,1.4461107E7,0E0,0E0,0E0,0E0,0E0,0E0],"parents":[2147483647,0,0,1,1,2,2,3,3,5,5,6,6],"right_children":[2,4,6,8,-1,10,12,-1,-1,-1,-1,-1,-1],"split_conditions":[-1.6315747E0,-2.1457982E0,-1.2613677E0,-1.6499937E0,-1.8238448E2,-1.087774E0,-8.683133E-1,6.408428E1,-3.2364063E1,3.5190456E1,2.7942807E2,-1.0582586E2,6.0578575E0],"split_indices":[0,6,0,0,0,7,0,0,0,0,0,0,0],"split_type":[0,0,0,0,0,0,0,0,0,0,0,0,0],"sum_hessian":[1.31E2,5E0,1.26E2,2E0,3E0,1.1E1,1.15E2,1E0,1E0,7E0,4E0,1.2E1,1.03E2],"tree_param":{"num_deleted":"0","num_feature":"10","num_nodes":"13","size_leaf_vector":"0"}},{"base_weights":[1.8679747E1,3.214922E2,-1.6988263E2,-2.8289146E1,3.5451382E3,-2.2041538E3,4.9371407E1,1.1639558E2,-2.1891301E3,8.675195E1,4.388047E3,2.9365234E1,-2.527423E3,1.5750634E3,-1.5630917E2],"categories":[],"categories_nodes":[],"categories_segments":[],"categories_sizes":[],"default_left":[1,1,1,1,1,1,1,0,0,0,0,0,0,0,0],"id":77,"left_children":[1,3,5,7,9,11,13,-1,-1,-1,-1,-1,-1,-1,-1],"loss_changes":[7.5916885E6,5.7606416E7,3.668264E7,1.4948917E7,1.4194848E7,5.85044E6,2.3781588E7,0E0,0E0,0E0,0E0,0E0,0E0,0E0,0E0],"parents":[2147483647,0,0,1,1,2,2,3,3,4,4,5,5,6,6],"right_children":[2,4,6,8,10,12,14,-1,-1,-1,-1,-1,-1,-1,-1],"split_conditions":[-2.7890876E-1,-4.7568578E-1,-1.7207604E-2,-4.89492E-1,-7.855817E-1,-2.1926478E-1,9.346825E-2,1.1639558E1,-2.1891301E2,8.675196E0,4.388047E2,2.9365234E0,-2.5274231E2,1.5750633E2,-1.5630918E1],"split_indices":[1,6,7,5,0,4,7,0,0,0,0,0,0,0,0],"split_type":[0,0,0,0,0,0,0,0,0,0,0,0,0,0,0],"sum_hessian":[1.31E2,5E1,8.1E1,4.6E1,4E0,7E0,7.4E1,4.4E1,2E0,1E0,3E0,1E0,6E0,8E0,6.6E1],"tree_param":{"num_deleted":"0","num_feature":"10","num_nodes":"15","size_leaf_vector":"0"}},{"base_weights":[1.7814157E1,5.410592E2,-8.605256E1,1.5017142E2,4.3748516E3,-3.16537E3,2.8793022E1,-1.3871256E3,7.172721E2,-3.6388992E3,-8.723916E2,-9.7281323E2,1.6412727E2],"categories":[],"categories_nodes":[],"categories_segments":[],"categories_sizes":[],"default_left":[1,1,1,1,0,1,1,0,0,0,0,0,0],"id":78,"left_children":[1,3,5,7,-1,9,11,-1,-1,-1,-1,-1,-1],"loss_changes":[7.220462E6,3.231184E7,3.934585E7,1.9302792E7,0E0,1.168624E6,1.4799242E7,0E0,0E0,0E0,0E0,0E0,0E0],"parents":[2147483647,0,0,1,1,2,2,3,3,5,5,6,6],"right_children":[2,4,6,8,-1,10,12,-1,-1,-1,-1,-1,-1],"split_conditions":[-1.1164408E0,-1.1182693E0,-1.0733637E0,-5.200899E-1,4.3748517E2,-4.8607236E-1,-1.021653E0,-1.3871257E2,7.172721E1,-3.6388992E2,-8.723916E1,-9.728133E1,1.6412727E1],"split_indices":[0,0,0,9,0,6,3,0,0,0,0,0,0],"split_type":[0,0,0,0,0,0,0,0,0,0,0,0,0],"sum_hessian":[1.31E2,2.1E1,1.1E2,2E1,1E0,3E0,1.07E2,5E0,1.5E1,2E0,1E0,1.2E1,9.5E1],"tree_param":{"num_deleted":"0","num_feature":"10","num_nodes":"13","size_leaf_vector":"0"}},{"base_weights":[1.4809067E1,3.1234268E2,-1.7042293E2,-8.626995E0,3.266989E3,-1.4305333E3,1.3304259E2,3.151216E2,-7.942574E2,7.420703E1,4.0466328E3,-5.173633E2,-2.866256E3,1.5317826E3,-2.6533746E2],"categories":[],"categories_nodes":[],"categories_segments":[],"categories_sizes":[],"default_left":[1,1,1,1,1,1,1,0,0,0,0,0,0,0,0],"id":79,"left_children":[1,3,5,7,9,11,13,-1,-1,-1,-1,-1,-1,-1,-1],"loss_changes":[7.3281125E6,4.839413E7,3.1547126E7,1.2204584E7,1.2145872E7,1.949405E7,3.7740852E7,0E0,0E0,0E0,0E0,0E0,0E0,0E0,0E0],"parents":[2147483647,0,0,1,1,2,2,3,3,4,4,5,5,6,6],"right_children":[2,4,6,8,10,12,14,-1,-1,-1,-1,-1,-1,-1,-1],"split_conditions":[-2.7890876E-1,-4.7568578E-1,1.2128936E-1,-7.7313447E-1,-7.855817E-1,4.321949E-3,5.199587E-1,3.1512161E1,-7.942574E1,7.4207034E0,4.046633E2,-5.173633E1,-2.866256E2,1.5317827E2,-2.6533747E1],"split_indices":[1,6,1,7,0,6,1,0,0,0,0,0,0,0,0],"split_type":[0,0,0,0,0,0,0,0,0,0,0,0,0,0,0],"sum_hessian":[1.31E2,5E1,8.1E1,4.6E1,4E0,1.5E1,6.6E1,3.3E1,1.3E1,1E0,3E0,1E1,5E0,1.4E1,5.2E1],"tree_param":{"num_deleted":"0","num_feature":"10","num_nodes":"15","size_leaf_vector":"0"}},{"base_weights":[1.4483206E1,-6.1014075E2,1.0589806E2,-1.7966797E2,-2.5591243E3,1.5381002E3,-5.8790737E1,-7.473741E2,1.1052191E3,-2.4369629E2,2.1591099E3,-1.5921223E3,1.1937177E2],"categories":[],"categories_nodes":[],"categories_segments":[],"categories_sizes":[],"default_left":[1,1,1,1,0,1,1,0,0,0,0,0,0],"id":80,"left_children":[1,3,5,7,-1,9,11,-1,-1,-1,-1,-1,-1],"loss_changes":[7.601801E6,1.380294E7,2.7451076E7,1.1767587E7,0E0,1.3804318E7,2.8874188E7,0E0,0E0,0E0,0E0,0E0,0E0],"parents":[2147483647,0,0,1,1,2,2,3,3,5,5,6,6],"right_children":[2,4,6,8,-1,10,12,-1,-1,-1,-1,-1,-1],"split_conditions":[-1.1115224E0,-1.098978E0,-9.095934E-1,1.1237345E0,-2.5591243E2,-1.1512772E0,-7.3916125E-1,-7.473741E1,1.1052191E2,-2.4369629E1,2.15911E2,-1.5921223E2,1.1937178E1],"split_indices":[7,1,7,9,0,9,6,0,0,0,0,0,0],"split_type":[0,0,0,0,0,0,0,0,0,0,0,0,0],"sum_hessian":[1.31E2,1.6E1,1.15E2,1.4E1,2E0,1.1E1,1.04E2,1E1,4E0,3E0,8E0,1E1,9.4E1],"tree_param":{"num_deleted":"0","num_feature":"10","num_nodes":"13","size_leaf_vector":"0"}},{"base_weights":[1.1702489E1,-3.8944405E1,1.081778E3,5.009822E1,-1.5725463E3,-8.1804816E2,2.2362031E3,-7.1579475E1,2.3941838E3,-2.0285826E3,5.8183594E2,4.726543E2,-1.6997266E3,3.3639465E3,-5.735137E2],"categories":[],"categories_nodes":[],"categories_segments":[],"categories_sizes":[],"default_left":[1,1,1,1,1,1,1,0,0,0,0,0,0,0,0],"id":81,"left_children":[1,3,5,7,9,11,13,-1,-1,-1,-1,-1,-1,-1,-1],"loss_changes":[7.1960015E6,1.7421388E7,1.4988564E7,3.468335E7,8.057638E6,4.2173365E6,1.460383E7,0E0,0E0,0E0,0E0,0E0,0E0,0E0,0E0],"parents":[2147483647,0,0,1,1,2,2,3,3,4,4,5,5,6,6],"right_children":[2,4,6,8,10,12,14,-1,-1,-1,-1,-1,-1,-1,-1],"split_conditions":[1.7694514E0,1.3783381E0,6.2342757E-1,1.1982449E0,1.7377108E0,5.782902E-1,6.621454E-1,-7.1579475E0,2.3941838E2,-2.0285826E2,5.8183594E1,4.726543E1,-1.6997266E2,3.3639465E2,-5.7351368E1],"split_indices":[1,7,0,7,7,0,0,0,0,0,0,0,0,0,0],"split_type":[0,0,0,0,0,0,0,0,0,0,0,0,0,0,0],"sum_hessian":[1.31E2,1.26E2,5E0,1.2E2,6E0,2E0,3E0,1.15E2,5E0,5E0,1E0,1E0,1E0,2E0,1E0],"tree_param":{"num_deleted":"0","num_feature":"10","num_nodes":"15","size_leaf_vector":"0"}},{"base_weights":[1.23794985E1,3.027844E2,-1.7420612E2,-2.2128027E2,1.6102292E3,-2.2803237E3,2.4687605E1,2.6575E2,-1.4408773E3,3.674835E3,7.878416E2,-1.0853477E3,-2.9052188E3,7.155428E2,-3.7882556E2],"categories":[],"categories_nodes":[],"categories_segments":[],"categories_sizes":[],"default_left":[1,1,1,1,1,1,1,0,0,0,0,0,0,0,0],"id":82,"left_children":[1,3,5,7,9,11,13,-1,-1,-1,-1,-1,-1,-1,-1],"loss_changes":[7.2052165E6,3.5985964E7,3.3986676E7,2.295418E7,2.2573408E7,2.073972E6,2.1178752E7,0E0,0E0,0E0,0E0,0E0,0E0,0E0,0E0],"parents":[2147483647,0,0,1,1,2,2,3,3,4,4,5,5,6,6],"right_children":[2,4,6,8,10,12,14,-1,-1,-1,-1,-1,-1,-1,-1],"split_conditions":[-2.1926478E-1,-7.3916125E-1,-1.7207604E-2,-9.095934E-1,-5.80299E-1,1.2212538E0,-3.5738924E-1,2.6575E1,-1.4408774E2,3.674835E2,7.8784164E1,-1.0853477E2,-2.9052188E2,7.155428E1,-3.7882557E1],"split_indices":[4,6,7,7,5,0,9,0,0,0,0,0,0,0,0],"split_type":[0,0,0,0,0,0,0,0,0,0,0,0,0,0,0],"sum_hessian":[1.31E2,5.1E1,8E1,3.7E1,1.4E1,6E0,7.4E1,2.7E1,1E1,3E0,1.1E1,3E0,3E0,2.7E1,4.7E1],"tree_param":{"num_deleted":"0","num_feature":"10","num_nodes":"15","size_leaf_vector":"0"}},{"base_weights":[1.0864154E1,-5.803496E2,9.7413895E1,3.1978885E2,-1.4160048E3,1.3824532E3,-5.0375504E1,-1.0037399E3,2.2251348E3,-1.8879697E3,1.1798574E3,2.9933902E2,2.4156777E3,-1.309889E3,9.599317E1],"categories":[],"categories_nodes":[],"categories_segments":[],"categories_sizes":[],"default_left":[1,1,1,1,1,1,1,0,0,0,0,0,0,0,0],"id":83,"left_children":[1,3,5,7,9,11,13,-1,-1,-1,-1,-1,-1,-1,-1],"loss_changes":[6.8108945E6,1.3240312E7,2.2099806E7,2.4929476E7,1.325394E7,1.2706098E7,1.948284E7,0E0,0E0,0E0,0E0,0E0,0E0,0E0,0E0],"parents":[2147483647,0,0,1,1,2,2,3,3,4,4,5,5,6,6],"right_children":[2,4,6,8,10,12,14,-1,-1,-1,-1,-1,-1,-1,-1],"split_conditions":[-1.1115224E0,-1.7843573E0,-9.095934E-1,-1.6315747E0,2.3536904E0,-1.0452752E0,-7.3916125E-1,-1.0037399E2,2.2251347E2,-1.8879698E2,1.1798574E2,2.9933903E1,2.4156778E2,-1.309889E2,9.599318E0],"split_indices":[7,1,7,0,9,1,6,0,0,0,0,0,0,0,0],"split_type":[0,0,0,0,0,0,0,0,0,0,0,0,0,0,0],"sum_hessian":[1.31E2,1.6E1,1.15E2,8E0,8E0,1.1E1,1.04E2,5E0,3E0,7E0,1E0,6E0,5E0,1E1,9.4E1],"tree_param":{"num_deleted":"0","num_feature":"10","num_nodes":"15","size_leaf_vector":"0"}},{"base_weights":[1.1304347E1,3.005317E2,-1.6871883E2,1.2473238E1,2.948175E3,-1.853092E3,1.319724E1,1.398256E2,-1.9019701E3,2.3914062E1,3.6732617E3,-8.093254E2,-2.6945273E3,1.3843412E3,-1.7118324E2],"categories":[],"categories_nodes":[],"categories_segments":[],"categories_sizes":[],"default_left":[1,1,1,1,1,1,1,0,0,0,0,0,0,0,0],"id":84,"left_children":[1,3,5,7,9,11,13,-1,-1,-1,-1,-1,-1,-1,-1],"loss_changes":[6.9236325E6,3.8859708E7,2.5150446E7,1.1724962E7,1.0513872E7,4.845348E6,1.919789E7,0E0,0E0,0E0,0E0,0E0,0E0,0E0,0E0],"parents":[2147483647,0,0,1,1,2,2,3,3,4,4,5,5,6,6],"right_children":[2,4,6,8,10,12,14,-1,-1,-1,-1,-1,-1,-1,-1],"split_conditions":[-2.7890876E-1,-4.7568578E-1,-1.7207604E-2,-4.89492E-1,-7.855817E-1,1.2218114E0,9.346825E-2,1.3982561E1,-1.90197E2,2.3914063E0,3.6732617E2,-8.093254E1,-2.6945273E2,1.3843413E2,-1.7118324E1],"split_indices":[1,6,7,5,0,0,7,0,0,0,0,0,0,0,0],"split_type":[0,0,0,0,0,0,0,0,0,0,0,0,0,0,0],"sum_hessian":[1.31E2,5E1,8.1E1,4.6E1,4E0,7E0,7.4E1,4.4E1,2E0,1E0,3E0,4E0,3E0,8E0,6.6E1],"tree_param":{"num_deleted":"0","num_feature":"10","num_nodes":"15","size_leaf_vector":"0"}},{"base_weights":[9.904149E0,-6.8938065E1,6.294693E2,-1.6409521E1,-3.1073887E3,2.0506223E3,-5.458129E2,3.611256E2,-3.8108664E2,3.0154146E3,-2.409056E2,-1.3306576E3,7.679072E2],"categories":[],"categories_nodes":[],"categories_segments":[],"categories_sizes":[],"default_left":[1,1,1,1,0,1,1,0,0,0,0,0,0],"id":85,"left_children":[1,3,5,7,-1,9,11,-1,-1,-1,-1,-1,-1],"loss_changes":[6.4913155E6,1.8782442E7,2.6173092E7,1.6245995E7,0E0,1.6202372E7,1.0301417E7,0E0,0E0,0E0,0E0,0E0,0E0],"parents":[2147483647,0,0,1,1,2,2,3,3,5,5,6,6],"right_children":[2,4,6,8,-1,10,12,-1,-1,-1,-1,-1,-1],"split_conditions":[1.248205E0,1.2331085E0,1.6119616E0,-2.1439058E-1,-3.1073886E2,7.2991544E-1,1.7377108E0,3.611256E1,-3.8108665E1,3.0154147E2,-2.4090559E1,-1.3306577E2,7.6790726E1],"split_indices":[3,5,7,9,0,0,7,0,0,0,0,0,0],"split_type":[0,0,0,0,0,0,0,0,0,0,0,0,0],"sum_hessian":[1.31E2,1.17E2,1.4E1,1.16E2,1E0,6E0,8E0,5.7E1,5.9E1,4E0,2E0,5E0,3E0],"tree_param":{"num_deleted":"0","num_feature":"10","num_nodes":"13","size_leaf_vector":"0"}},{"base_weights":[8.220111E0,4.980878E2,-8.894484E1,1.4805646E2,3.924373E3,-2.7829258E3,1.1655798E1,-1.1477211E3,6.247195E2,-3.2295762E3,-7.214873E2,-7.938087E2,1.20607704E2],"categories":[],"categories_nodes":[],"categories_segments":[],"categories_sizes":[],"default_left":[1,1,1,1,0,1,1,0,0,0,0,0,0],"id":86,"left_children":[1,3,5,7,-1,9,11,-1,-1,-1,-1,-1,-1],"loss_changes":[6.327234E6,2.5803732E7,3.0115234E7,1.3687637E7,0E0,1.352872E6,9.573484E6,0E0,0E0,0E0,0E0,0E0,0E0],"parents":[2147483647,0,0,1,1,2,2,3,3,5,5,6,6],"right_children":[2,4,6,8,-1,10,12,-1,-1,-1,-1,-1,-1],"split_conditions":[-1.1164408E0,-1.1182693E0,-1.0733637E0,-5.200899E-1,3.9243732E2,-4.8607236E-1,-1.021653E0,-1.1477211E2,6.247195E1,-3.229576E2,-7.2148735E1,-7.9380875E1,1.2060771E1],"split_indices":[0,0,0,9,0,6,3,0,0,0,0,0,0],"split_type":[0,0,0,0,0,0,0,0,0,0,0,0,0],"sum_hessian":[1.31E2,2.1E1,1.1E2,2E1,1E0,3E0,1.07E2,5E0,1.5E1,2E0,1E0,1.2E1,9.5E1],"tree_param":{"num_deleted":"0","num_feature":"10","num_nodes":"13","size_leaf_vector":"0"}},{"base_weights":[6.4710584E0,2.8061404E2,-1.6960185E2,1.903711E1,2.2828643E3,-1.3635143E3,1.0022336E2,1.2940352E2,-1.6428047E3,3.2816094E3,1.9024934E2,-2.4173462E2,-2.3148547E3,1.3579897E3,-2.5763925E2],"categories":[],"categories_nodes":[],"categories_segments":[],"categories_sizes":[],"default_left":[1,1,1,1,1,1,1,0,0,0,0,0,0,0,0],"id":87,"left_children":[1,3,5,7,9,11,13,-1,-1,-1,-1,-1,-1,-1,-1],"loss_changes":[6.4191205E6,2.719115E7,2.6230618E7,8.832926E6,1.1915608E7,1.5448334E7,3.050708E7,0E0,0E0,0E0,0E0,0E0,0E0,0E0,0E0],"parents":[2147483647,0,0,1,1,2,2,3,3,4,4,5,5,6,6],"right_children":[2,4,6,8,10,12,14,-1,-1,-1,-1,-1,-1,-1,-1],"split_conditions":[-2.1926478E-1,-4.7568578E-1,1.2128936E-1,-4.89492E-1,-3.870315E-1,-1.4894363E-1,5.199587E-1,1.2940352E1,-1.6428047E2,3.2816095E2,1.9024935E1,-2.4173462E1,-2.3148547E2,1.3579898E2,-2.5763926E1],"split_indices":[4,6,1,5,6,9,1,0,0,0,0,0,0,0,0],"split_type":[0,0,0,0,0,0,0,0,0,0,0,0,0,0,0],"sum_hessian":[1.31E2,5.1E1,8E1,4.6E1,5E0,1.4E1,6.6E1,4.4E1,2E0,3E0,2E0,7E0,7E0,1.4E1,5.2E1],"tree_param":{"num_deleted":"0","num_feature":"10","num_nodes":"15","size_leaf_vector":"0"}},{"base_weights":[6.204501E0,-1.03702995E2,4.582775E2,5.1913925E1,-2.0359517E3,2.8887747E3,1.3537044E2,-1.0264098E3,2.2484056E2,2.078207E3,-2.9205754E3,2.1221758E3,-1.4171075E2],"categories":[],"categories_nodes":[],"categories_segments":[],"categories_sizes":[],"default_left":[1,1,1,1,1,0,1,0,0,0,0,0,0],"id":88,"left_children":[1,3,5,7,9,-1,11,-1,-1,-1,-1,-1,-1],"loss_changes":[6.606105E6,3.2279588E7,2.0014388E7,1.8877866E7,3.5185416E7,0E0,1.351289E7,0E0,0E0,0E0,0E0,0E0,0E0],"parents":[2147483647,0,0,1,1,2,2,3,3,4,4,6,6],"right_children":[2,4,6,8,10,-1,12,-1,-1,-1,-1,-1,-1],"split_conditions":[1.0238192E0,8.2289773E-1,4.1115257E-1,-1.0361546E0,-1.0231047E0,2.8887747E2,9.611006E-1,-1.0264098E2,2.2484056E1,2.0782071E2,-2.9205756E2,2.1221758E2,-1.4171076E1],"split_indices":[7,1,0,9,9,0,1,0,0,0,0,0,0],"split_type":[0,0,0,0,0,0,0,0,0,0,0,0,0],"sum_hessian":[1.31E2,1.06E2,2.5E1,9.9E1,7E0,2E0,2.3E1,1.3E1,8.6E1,1E0,6E0,2E0,2.1E1],"tree_param":{"num_deleted":"0","num_feature":"10","num_nodes":"13","size_leaf_vector":"0"}},{"base_weights":[8.027285E0,-5.533618E2,9.023062E1,-1.6554909E2,-2.3079714E3,1.2474965E3,-4.288767E1,-6.8320844E2,1.0064113E3,3.0683426E2,2.1370195E3,-1.1678368E3,8.782105E1],"categories":[],"categories_nodes":[],"categories_segments":[],"categories_sizes":[],"default_left":[1,1,1,1,0,1,1,0,0,0,0,0,0],"id":89,"left_children":[1,3,5,7,-1,9,11,-1,-1,-1,-1,-1,-1],"loss_changes":[6.1414735E6,1.1185734E7,1.7923678E7,9.787732E6,0E0,9.385176E6,1.5541831E7,0E0,0E0,0E0,0E0,0E0,0E0],"parents":[2147483647,0,0,1,1,2,2,3,3,5,5,6,6],"right_children":[2,4,6,8,-1,10,12,-1,-1,-1,-1,-1,-1],"split_conditions":[-1.1115224E0,-1.098978E0,-9.095934E-1,1.1237345E0,-2.3079715E2,-1.0452752E0,-7.3916125E-1,-6.832085E1,1.00641136E2,3.0683426E1,2.1370195E2,-1.1678368E2,8.782105E0],"split_indices":[7,1,7,9,0,1,6,0,0,0,0,0,0],"split_type":[0,0,0,0,0,0,0,0,0,0,0,0,0],"sum_hessian":[1.31E2,1.6E1,1.15E2,1.4E1,2E0,1.1E1,1.04E2,1E1,4E0,6E0,5E0,1E1,9.4E1],"tree_param":{"num_deleted":"0","num_feature":"10","num_nodes":"13","size_leaf_vector":"0"}},{"base_weights":[6.7546906E0,-3.953491E1,9.854255E2,3.475573E1,-1.3180538E3,3.0217598E3,-2.619336E1,-6.517139E1,1.9608873E3,-2.288871E3,-1.7723145E1,1.508377E3,-7.869302E2],"categories":[],"categories_nodes":[],"categories_segments":[],"categories_sizes":[],"default_left":[1,1,1,1,1,0,1,0,0,0,0,0,0],"id":90,"left_children":[1,3,5,7,9,-1,11,-1,-1,-1,-1,-1,-1],"loss_changes":[6.0188595E6,1.2108523E7,1.2439114E7,2.3416998E7,8.796118E6,0E0,7.024008E6,0E0,0E0,0E0,0E0,0E0,0E0],"parents":[2147483647,0,0,1,1,2,2,3,3,4,4,6,6],"right_children":[2,4,6,8,10,-1,12,-1,-1,-1,-1,-1,-1],"split_conditions":[1.7694514E0,1.3783381E0,1.7959484E0,1.1982449E0,1.4289108E-1,3.02176E2,-1.4322833E0,-6.517139E0,1.9608873E2,-2.2888712E2,-1.7723144E0,1.5083769E2,-7.8693016E1],"split_indices":[1,7,1,7,9,0,9,0,0,0,0,0,0],"split_type":[0,0,0,0,0,0,0,0,0,0,0,0,0],"sum_hessian":[1.31E2,1.26E2,5E0,1.2E2,6E0,1E0,4E0,1.15E2,5E0,3E0,3E0,1E0,3E0],"tree_param":{"num_deleted":"0","num_feature":"10","num_nodes":"13","size_leaf_vector":"0"}},{"base_weights":[8.603205E0,4.6984314E2,-8.289122E1,1.3894913E2,3.7093086E3,-2.5116743E3,7.8312173E0,-1.6039093E2,1.9884531E3,-2.938468E3,-6.156465E2,4.9345755E2,-1.5216563E2],"categories":[],"categories_nodes":[],"categories_segments":[],"categories_sizes":[],"default_left":[1,1,1,1,0,1,1,0,0,0,0,0,0],"id":91,"left_children":[1,3,5,7,-1,9,11,-1,-1,-1,-1,-1,-1],"loss_changes":[5.6094625E6,2.3066828E7,2.447798E7,1.1945173E7,0E0,1.427794E6,8.466545E6,0E0,0E0,0E0,0E0,0E0,0E0],"parents":[2147483647,0,0,1,1,2,2,3,3,5,5,6,6],"right_children":[2,4,6,8,-1,10,12,-1,-1,-1,-1,-1,-1],"split_conditions":[-1.1164408E0,-1.1182693E0,-1.0733637E0,-5.6466615E-1,3.7093088E2,-4.8607236E-1,-2.7890876E-1,-1.6039093E1,1.9884532E2,-2.938468E2,-6.1564648E1,4.9345757E1,-1.5216563E1],"split_indices":[0,0,0,1,0,6,1,0,0,0,0,0,0],"split_type":[0,0,0,0,0,0,0,0,0,0,0,0,0],"sum_hessian":[1.31E2,2.1E1,1.1E2,2E1,1E0,3E0,1.07E2,1.8E1,2E0,2E0,1E0,2.6E1,8.1E1],"tree_param":{"num_deleted":"0","num_feature":"10","num_nodes":"13","size_leaf_vector":"0"}},{"base_weights":[9.503255E0,-3.5569065E1,9.619502E2,3.244491E1,-1.206158E3,2.8782793E3,3.0285156E0,-5.978551E1,1.8101588E3,-1.874634E3,3.1002148E2,1.4405664E3,-7.1649756E2],"categories":[],"categories_nodes":[],"categories_segments":[],"categories_sizes":[],"default_left":[1,1,1,1,1,0,1,0,0,0,0,0,0],"id":92,"left_children":[1,3,5,7,9,-1,11,-1,-1,-1,-1,-1,-1],"loss_changes":[5.700843E6,1.0150417E7,1.101694E7,1.9947296E7,7.675883E6,0E0,6.203892E6,0E0,0E0,0E0,0E0,0E0,0E0],"parents":[2147483647,0,0,1,1,2,2,3,3,4,4,6,6],"right_children":[2,4,6,8,10,-1,12,-1,-1,-1,-1,-1,-1],"split_conditions":[1.7694514E0,1.3783381E0,1.7959484E0,1.1982449E0,9.5294166E-1,2.8782794E2,-1.4322833E0,-5.9785514E0,1.8101588E2,-1.8746341E2,3.100215E1,1.4405664E2,-7.164976E1],"split_indices":[1,7,1,7,9,0,9,0,0,0,0,0,0],"split_type":[0,0,0,0,0,0,0,0,0,0,0,0,0],"sum_hessian":[1.31E2,1.26E2,5E0,1.2E2,6E0,1E0,4E0,1.15E2,5E0,4E0,2E0,1E0,3E0],"tree_param":{"num_deleted":"0","num_feature":"10","num_nodes":"13","size_leaf_vector":"0"}},{"base_weights":[1.1423606E1,-5.997509E1,5.723318E2,9.9572525E0,-2.0555361E3,1.436671E3,-6.207232E2,3.322451E2,-3.0157434E2,-2.6031145E3,-2.0640039E2,2.2074893E3,-7.872412E1,-1.8902637E3,8.0399805E2],"categories":[],"categories_nodes":[],"categories_segments":[],"categories_sizes":[],"default_left":[1,1,1,1,1,1,1,0,0,0,0,0,0,0,0],"id":93,"left_children":[1,3,5,7,9,11,13,-1,-1,-1,-1,-1,-1,-1,-1],"loss_changes":[5.3206765E6,1.6487871E7,1.6359839E7,1.1646524E7,3.512902E6,1.0686632E7,1.4180957E7,0E0,0E0,0E0,0E0,0E0,0E0,0E0,0E0],"parents":[2147483647,0,0,1,1,2,2,3,3,4,4,5,5,6,6],"right_children":[2,4,6,8,10,12,14,-1,-1,-1,-1,-1,-1,-1,-1],"split_conditions":[1.248205E0,1.133311E0,1.6778795E0,-2.1439058E-1,1.2487156E0,7.2676045E-1,1.7377108E0,3.322451E1,-3.0157434E1,-2.6031146E2,-2.064004E1,2.2074893E2,-7.872412E0,-1.8902637E2,8.03998E1],"split_indices":[3,6,7,9,1,0,7,0,0,0,0,0,0,0,0],"split_type":[0,0,0,0,0,0,0,0,0,0,0,0,0,0,0],"sum_hessian":[1.31E2,1.17E2,1.4E1,1.14E2,3E0,8E0,6E0,5.6E1,5.8E1,2E0,1E0,5E0,3E0,3E0,3E0],"tree_param":{"num_deleted":"0","num_feature":"10","num_nodes":"15","size_leaf_vector":"0"}},{"base_weights":[8.966472E0,-3.3885567E1,9.1450684E2,8.103324E1,-6.527528E2,1.7199043E3,-4.6419205E2,3.297415E1,2.6116777E3,-3.166684E2,-2.451675E3],"categories":[],"categories_nodes":[],"categories_segments":[],"categories_sizes":[],"default_left":[1,1,1,1,1,0,0,0,0,0,0],"id":94,"left_children":[1,3,5,7,9,-1,-1,-1,-1,-1,-1],"loss_changes":[5.1531495E6,9.08507E6,7.4607695E6,1.3048892E7,1.1315429E7,0E0,0E0,0E0,0E0,0E0,0E0],"parents":[2147483647,0,0,1,1,2,2,3,3,4,4],"right_children":[2,4,6,8,10,-1,-1,-1,-1,-1,-1],"split_conditions":[1.5306305E0,1.1148732E0,1.1033281E0,1.0549979E0,2.0070289E-1,1.7199043E2,-4.6419205E1,3.2974153E0,2.611678E2,-3.166684E1,-2.4516751E2],"split_indices":[0,0,9,0,1,0,0,0,0,0,0],"split_type":[0,0,0,0,0,0,0,0,0,0,0],"sum_hessian":[1.31E2,1.26E2,5E0,1.07E2,1.9E1,3E0,2E0,1.06E2,1E0,1.7E1,2E0],"tree_param":{"num_deleted":"0","num_feature":"10","num_nodes":"11","size_leaf_vector":"0"}},{"base_weights":[8.927912E0,1.5949384E2,-2.4936731E2,-8.9914986E1,1.8228356E3,-3.209003E3,1.5988681E2,1.6757057E2,-1.9681519E3,3.5671711E3,3.1647656E2,-1.2588795E3,-3.8693447E3,1.0625454E3,-2.118147E2],"categories":[],"categories_nodes":[],"categories_segments":[],"categories_sizes":[],"default_left":[1,1,1,1,1,1,1,0,0,0,0,0,0,0,0],"id":95,"left_children":[1,3,5,7,9,11,13,-1,-1,-1,-1,-1,-1,-1,-1],"loss_changes":[5.173313E6,3.5011476E7,5.9863984E7,3.6117604E7,2.777462E7,2.855452E6,1.4987923E7,0E0,0E0,0E0,0E0,0E0,0E0,0E0,0E0],"parents":[2147483647,0,0,1,1,2,2,3,3,4,4,5,5,6,6],"right_children":[2,4,6,8,10,12,14,-1,-1,-1,-1,-1,-1,-1,-1],"split_conditions":[6.551597E-1,4.3852642E-1,6.732574E-1,9.346825E-2,4.845966E-1,-1.6729255E-1,8.2289773E-1,1.6757057E1,-1.9681519E2,3.5671713E2,3.1647657E1,-1.25887955E2,-3.8693448E2,1.0625454E2,-2.118147E1],"split_indices":[3,4,1,7,2,0,1,0,0,0,0,0,0,0,0],"split_type":[0,0,0,0,0,0,0,0,0,0,0,0,0,0,0],"sum_hessian":[1.31E2,8.3E1,4.8E1,7.3E1,1E1,5E0,4.3E1,6.5E1,8E0,4E0,6E0,2E0,3E0,1.2E1,3.1E1],"tree_param":{"num_deleted":"0","num_feature":"10","num_nodes":"15","size_leaf_vector":"0"}},{"base_weights":[6.3721E0,-9.2367935E1,4.1248026E2,4.603338E1,-1.8108384E3,2.4848542E3,1.3624683E2,1.7870702E2,-1.3153008E3,1.9760918E3,-2.6341272E3,1.8532227E3,-1.0407928E2],"categories":[],"categories_nodes":[],"categories_segments":[],"categories_sizes":[],"default_left":[1,1,1,1,1,0,1,0,0,0,0,0,0],"id":96,"left_children":[1,3,5,7,9,-1,11,-1,-1,-1,-1,-1,-1],"loss_changes":[5.331186E6,2.5532088E7,1.4545379E7,1.8296368E7,3.014717E7,0E0,1.0096101E7,0E0,0E0,0E0,0E0,0E0,0E0],"parents":[2147483647,0,0,1,1,2,2,3,3,4,4,6,6],"right_children":[2,4,6,8,10,-1,12,-1,-1,-1,-1,-1,-1],"split_conditions":[1.0238192E0,8.2289773E-1,4.1115257E-1,7.4943256E-1,-1.0231047E0,2.4848543E2,9.611006E-1,1.7870703E1,-1.3153008E2,1.9760918E2,-2.6341272E2,1.8532227E2,-1.04079275E1],"split_indices":[7,1,0,7,9,0,1,0,0,0,0,0,0],"split_type":[0,0,0,0,0,0,0,0,0,0,0,0,0],"sum_hessian":[1.31E2,1.06E2,2.5E1,9.9E1,7E0,2E0,2.3E1,9.1E1,8E0,1E0,6E0,2E0,2.1E1],"tree_param":{"num_deleted":"0","num_feature":"10","num_nodes":"13","size_leaf_vector":"0"}},{"base_weights":[7.582549E0,-5.3210236E2,8.660894E1,2.6420422E2,-1.2692865E3,1.5122334E3,8.767895E0,-9.170524E2,1.9700381E3,-1.6889575E3,1.044041E3,-5.1778613E2,2.0217946E3,1.0200894E3,-7.968513E1],"categories":[],"categories_nodes":[],"categories_segments":[],"categories_sizes":[],"default_left":[1,1,1,1,1,1,1,0,0,0,0,0,0,0,0],"id":97,"left_children":[1,3,5,7,9,11,13,-1,-1,-1,-1,-1,-1,-1,-1],"loss_changes":[5.675799E6,1.0314768E7,1.2859503E7,1.9941876E7,1.0500871E7,7.253371E6,1.001073E7,0E0,0E0,0E0,0E0,0E0,0E0,0E0,0E0],